<blank> 0.000000 0.000000 0.000000 0.000000 0.000000 0.000000 0.000000 0.000000 0.000000 0.000000 0.000000 0.000000 0.000000 0.000000 0.000000 0.000000 0.000000 0.000000 0.000000 0.000000 0.000000 0.000000 0.000000 0.000000 0.000000 0.000000 0.000000 0.000000 0.000000 0.000000 0.000000 0.000000 0.000000 0.000000 0.000000 0.000000 0.000000 0.000000 0.000000 0.000000 0.000000 0.000000 0.000000 0.000000 0.000000 0.000000 0.000000 0.000000 0.000000 0.000000 0.000000 0.000000 0.000000 0.000000 0.000000 0.000000 0.000000 0.000000 0.000000 0.000000 0.000000 0.000000 0.000000 0.000000 0.000000 0.000000 0.000000 0.000000 0.000000 0.000000 0.000000 0.000000 0.000000 0.000000 0.000000 0.000000 0.000000 0.000000 0.000000 0.000000 0.000000 0.000000 0.000000 0.000000 0.000000 0.000000 0.000000 0.000000 0.000000 0.000000 0.000000 0.000000 0.000000 0.000000 0.000000 0.000000 0.000000 0.000000 0.000000 0.000000 0.000000 0.000000 0.000000 0.000000 0.000000 0.000000 0.000000 0.000000 0.000000 0.000000 0.000000 0.000000 0.000000 0.000000 0.000000 0.000000 0.000000 0.000000 0.000000 0.000000 0.000000 0.000000 0.000000 0.000000 0.000000 0.000000 0.000000 0.000000 0.000000 0.000000 0.000000 0.000000 0.000000 0.000000 0.000000 0.000000 0.000000 0.000000 0.000000 0.000000 0.000000 0.000000 0.000000 0.000000 0.000000 0.000000 0.000000 0.000000 0.000000 0.000000
<unk> -0.061308 0.017760 0.059411 0.095918 0.089654 0.083109 -0.026594 0.085777 -0.043459 0.030343 -0.076248 -0.079229 0.079274 0.025540 0.058328 -0.010297 -0.057023 -0.016056 -0.052548 -0.031258 -0.007131 0.094183 -0.015247 -0.023531 -0.065260 -0.081401 0.079068 -0.074936 -0.004309 0.087233 0.041972 0.031491 -0.030460 0.067176 -0.020645 0.088740 0.033106 0.005900 0.056341 -0.096406 0.022216 0.015568 -0.089081 -0.002495 -0.030405 -0.054595 -0.089628 -0.092607 0.052252 -0.042877 -0.025232 0.098665 -0.039492 -0.086694 0.069250 0.045526 0.033466 0.065629 0.077165 -0.095675 0.040785 0.036796 -0.094495 0.002107 -0.039050 -0.069465 -0.030374 0.059702 -0.064908 -0.023393 -0.058797 0.068216 0.061267 -0.032233 0.080248 0.058700 -0.032220 -0.013306 -0.000261 0.036343 0.056155 -0.073663 0.024471 0.026936 -0.079463 -0.034154 0.052834 -0.062332 -0.061021 -0.068044 0.075006 -0.082373 0.058889 -0.086076 -0.094294 0.031653 -0.039715 0.040349 0.053585 0.036411 0.076853 -0.048247 -0.038254 -0.010544 0.072039 -0.077070 -0.070904 -0.046006 0.011974 0.017734 -0.020327 0.093532 0.079551 0.049913 -0.089379 -0.031648 -0.004252 0.016118 0.013820 0.058069 -0.022829 -0.044184 0.018754 0.039757 -0.086889 -0.004219 0.083163 0.064212 0.092283 0.053116 -0.012577 -0.068666 -0.020050 0.036821 -0.071680 0.049738 0.094221 0.020494 0.051445 0.024806 0.058768 0.088516 0.013547 -0.029175 0.005010 0.043044 0.071863 -0.081546 0.033904 0.009716
<s> 0.072610 -0.179866 -0.116799 0.012046 0.279030 0.167134 0.013017 0.312134 -0.105380 -0.370217 -0.090126 -0.050118 -0.077523 0.112156 0.368042 -0.219645 0.238481 0.030497 0.176733 -0.316587 -0.106013 -0.186761 -0.288450 -0.134318 0.337491 -0.141093 -0.315302 0.019445 -0.234851 -0.013035 -0.155084 0.176475 -0.162181 0.203512 -0.081883 0.099653 -0.168100 0.075737 -0.158409 -0.181319 -0.123957 -0.237721 -0.137627 0.036736 -0.320808 -0.138024 -0.042520 0.020127 0.065639 0.156327 -0.019363 -0.003150 -0.178930 0.053956 0.423430 0.078556 0.133134 -0.145352 0.083881 -0.072950 0.042984 0.326806 0.169931 0.231279 -0.131112 0.143053 -0.165803 -0.229923 -0.194581 -0.052594 -0.138577 0.092954 0.101385 -0.092546 0.065065 -0.398463 0.132367 0.110364 -0.032285 -0.064081 0.003635 -0.019033 -0.033117 -0.098602 -0.202200 0.014614 -0.278761 0.049381 0.140255 0.031328 -0.196110 -0.123588 -0.410781 -0.154234 0.047160 0.097614 -0.320713 0.053831 -0.121822 0.243855 -0.222777 -0.026971 0.072922 -0.149152 0.140335 -0.010156 -0.169143 -0.231374 0.265019 0.013801 0.028125 -0.372812 -0.195310 0.157994 -0.077209 0.058514 -0.063607 0.277499 -0.000502 -0.135003 -0.068664 -0.176825 -0.447424 -0.061349 -0.436236 0.079998 0.400137 0.260509 0.108924 -0.058536 -0.097222 0.356075 -0.011907 0.074860 0.138527 0.027704 -0.114759 -0.020687 -0.321755 -0.095975 0.127475 0.124444 0.207843 -0.107953 -0.072364 0.296031 -0.224238 0.056452 -0.298741 0.192310
</s> -0.036374 0.091135 0.005289 0.079423 -0.060056 0.042525 0.049498 0.034525 0.003893 0.029760 0.017818 -0.079494 0.013457 -0.081042 0.041122 -0.099140 0.061297 -0.059367 -0.002552 0.048222 0.058773 -0.054122 0.020038 0.068856 -0.045307 0.001434 0.054267 0.087965 -0.084973 0.086464 -0.085265 0.036483 -0.075145 -0.097551 0.035270 -0.019450 -0.024924 0.018100 0.078450 -0.002867 0.078173 -0.057313 0.093990 -0.052471 0.004455 -0.009584 -0.072839 0.050607 -0.048493 -0.030036 -0.055211 0.075662 0.057467 0.069551 -0.098803 0.042441 0.081026 -0.040147 0.055734 -0.078175 -0.071621 0.089035 0.083810 -0.056019 0.029232 -0.028854 0.045506 0.094790 0.037088 -0.022732 0.055058 -0.013946 -0.013932 -0.056385 0.016187 0.098456 -0.053823 0.024083 -0.033498 -0.015703 0.076993 0.077696 0.077464 -0.079141 0.018708 -0.017787 -0.096641 -0.053852 -0.077566 0.068457 -0.038900 0.066225 -0.061815 -0.028264 -0.046162 0.009342 -0.079303 -0.097708 0.064423 -0.041229 -0.042655 -0.047201 0.064306 0.071306 -0.095463 0.009682 -0.080289 0.001814 -0.022965 -0.095939 0.080962 0.027854 0.056955 0.020655 0.077942 0.054145 0.041656 -0.049625 0.054122 0.070404 0.035858 0.069969 0.062316 0.088997 -0.037014 -0.005103 -0.053698 0.077383 -0.034790 -0.082625 0.078213 -0.066521 -0.014009 0.099873 0.043412 -0.024070 0.044357 0.001792 -0.024668 -0.028849 -0.090816 -0.076686 -0.043199 0.075566 -0.002601 0.081966 -0.040324 -0.096694 0.048457 -0.024455
l -0.050371 -0.139457 -0.437375 0.289349 -0.434065 0.326630 0.160343 -0.138280 0.084590 0.395176 -0.109987 0.334376 0.253729 -0.526759 0.273023 0.074883 -0.129586 0.057869 0.431623 0.002081 0.209753 -0.172010 0.460891 0.634522 0.341781 -0.345182 -0.120008 -0.477732 0.231496 0.252045 0.468463 0.282202 0.660580 0.015127 0.325674 0.352183 -0.027094 -0.045150 0.361100 0.172435 0.301239 0.439878 -0.208228 0.231728 0.382186 -0.216802 0.289038 -0.696424 -0.751317 0.198324 -0.449660 0.342923 0.045004 0.155826 0.030094 -0.177012 -0.103927 0.060469 -0.328395 -0.324970 0.132492 0.432617 0.044088 0.306508 -0.192926 -0.236494 -0.206120 -0.252995 0.039170 -0.345206 0.530720 -0.051002 -0.562941 -0.115160 -0.589375 0.630604 -0.168632 -0.098318 -0.141368 0.112575 -0.816613 0.398141 0.065247 0.204731 0.496242 -0.090935 0.331257 -0.151974 -0.437408 -0.149765 -0.140695 0.148534 -0.372438 -0.121204 0.025505 0.125404 0.063179 -0.111726 -0.043265 -0.252244 0.200708 0.268895 -0.042765 0.657819 -0.084662 0.032477 -0.141243 0.430035 -0.152515 -0.288188 0.657455 0.287065 0.413272 -0.644130 0.138810 -0.057164 0.187308 -0.093944 0.239435 -0.169105 -0.242916 0.925736 0.314997 -0.922173 0.688910 0.751003 0.355334 0.401865 -0.298307 -0.103800 -0.230194 0.437032 0.306000 0.167886 0.409540 -0.199679 0.252760 0.308219 0.260767 -0.052860 -0.117188 0.492730 -0.524142 -0.082191 0.297604 -0.402903 0.157655 0.011729 -0.239705 -0.479972
a 0.276468 0.545333 0.056886 -0.226199 -0.345663 0.302844 0.098975 0.075399 -0.078969 -0.229314 0.200857 0.526313 0.171884 -0.400682 -0.366963 -0.239015 0.036701 -0.204964 0.081262 -0.013015 0.105867 0.038039 0.599375 0.295849 0.413164 -0.063378 0.264364 -0.456247 0.307981 0.171260 -0.251890 0.330400 0.360661 0.131962 0.629122 -0.452165 -0.381586 -0.552372 -0.271993 -0.333942 -0.241286 0.018148 0.353976 -0.222432 -0.160390 -0.067591 0.058511 -0.295992 0.142159 0.179054 -0.087671 0.140512 -0.194086 -0.166185 -0.094974 -0.200600 -0.094662 -0.139946 0.000167 0.301687 -0.400022 -0.382733 0.206330 -0.365281 0.022905 0.367471 -0.279355 -0.239423 -0.491641 -0.196960 0.086438 0.643301 0.266544 0.177097 0.370246 -0.600664 0.291288 0.216348 0.671935 -0.246086 0.192232 0.164044 -0.087972 -0.493235 -0.194802 -0.625833 0.536978 -0.072282 -0.377329 0.039910 -0.235270 0.525445 0.310651 -0.039021 0.333897 0.442202 0.512438 -0.340730 0.647097 -0.085771 0.061409 -0.338015 -0.643077 -0.156915 0.100451 0.008468 0.280108 -0.188952 -0.644697 0.433941 -0.283719 0.596694 -0.492937 -0.418541 -0.171416 -0.419671 0.336205 -0.416543 -0.090963 -0.444407 -0.053988 -0.023079 -0.056411 0.122135 0.305865 0.055301 -0.402936 -0.006294 0.406540 -0.393961 0.411604 -0.126845 -0.015840 -0.341615 -0.192826 0.640627 0.635582 0.151953 -0.165745 -0.542850 0.261519 0.258250 -0.079330 0.323057 -0.031399 -0.150310 0.008072 0.114273 0.100612 0.125280
ɡ 0.213708 0.117286 -0.652300 0.141959 0.368343 0.008072 0.103276 -0.181702 0.953170 0.290762 -0.263437 -0.114171 -0.178452 0.500042 0.208145 -0.447228 0.228597 0.421226 -0.021894 0.685604 0.668106 -0.175857 -0.112563 -0.445421 -0.475061 0.457824 -0.483821 0.569853 0.000727 -0.541447 -0.265428 0.166955 0.036018 -0.072062 -0.068630 -0.660181 -0.063314 -0.358001 -0.091195 0.099738 -0.289765 0.972160 -0.220035 -0.154975 0.010398 -0.377619 -0.239910 0.880366 -0.059089 -0.421415 0.279307 -0.286709 0.071481 0.153408 0.382981 0.003868 0.070047 -0.185889 -0.719580 -0.194434 -0.239554 0.258853 -0.203177 -0.567229 0.073869 -0.525889 -0.266193 0.116855 0.034242 -0.071107 0.704961 -0.089524 -0.102456 -0.872834 0.328192 -0.043946 0.235476 0.035607 -0.426764 -0.107851 0.135802 -0.418420 0.086103 0.327930 -0.049883 0.368135 -0.361033 -0.059446 0.092056 -0.035964 0.126008 -0.355845 0.954062 -0.002424 0.139073 -0.412407 0.528251 0.167708 0.107353 -0.143717 0.266267 0.509149 -0.034334 0.172379 -0.073980 -0.308809 -0.324000 -0.455098 -0.003072 -0.133202 0.072447 0.213216 0.611513 0.524825 0.272367 0.010786 -0.112740 -0.103819 0.260164 -0.425413 0.078894 0.082610 -0.316331 0.149858 -0.333953 0.182851 -0.319619 0.112834 -0.626138 0.029890 0.496623 0.313900 1.164718 -0.205601 0.579328 -0.421416 -0.049627 -0.701688 0.456540 -0.415863 -0.454085 0.063888 0.220099 -0.324015 -0.371567 -0.686483 -0.138955 -0.317461 0.208690 0.071368
o -0.201974 -0.012282 -0.321659 0.436017 -0.570281 -0.628731 0.223154 -0.447792 -0.348247 -0.388822 0.039493 0.379458 -0.282823 0.132386 -0.228407 0.287781 0.113123 -0.071343 -0.280373 0.465740 -0.488423 0.815420 0.022908 0.306505 -0.495636 -0.431002 -0.293646 -0.116366 -0.076721 0.775412 -0.447824 -0.080645 -0.424670 -0.202464 -0.149335 0.385379 -0.641321 -0.293937 0.069346 0.391384 -0.107265 -0.510753 0.135028 0.234566 -0.341752 -0.382201 -0.004935 -0.159987 -0.484876 -0.526060 0.360296 0.451051 -0.212328 0.403389 -0.551272 -0.284190 -0.206635 -0.128651 -0.041070 -0.101442 -0.690621 -0.534967 -0.310666 -0.553298 0.537616 0.465750 0.218474 -0.141119 -0.236377 0.157142 -0.283087 0.279241 0.062269 0.597366 -0.390909 0.210407 -0.280034 0.748130 0.839896 -0.299113 0.291300 0.054416 0.158359 0.149357 0.133719 -0.346519 0.720086 -0.167306 -0.875240 0.561233 0.298986 -0.005034 0.007231 0.145541 -0.578408 -0.072817 0.126254 -0.074712 0.113788 -0.066780 0.232826 0.027860 -0.027431 -0.838117 -0.599888 -0.535753 -0.348222 0.194088 -0.698713 0.284938 0.066172 -0.117351 -0.276393 -0.399906 0.042054 0.120230 -0.435931 -0.091578 -0.700613 0.106749 0.592809 -0.066589 0.086980 0.195701 -0.385832 0.056805 -0.629203 -0.113293 0.443975 -0.124002 -0.721553 -0.318556 -0.559790 -0.217445 -0.092248 0.139595 -0.345888 0.313471 -0.000744 -0.567719 -0.197618 0.153266 -0.289752 0.202871 0.130105 0.420572 -0.276235 -0.230075 0.485344 -0.500363
u 0.101547 0.083798 0.223282 -0.317661 -0.349493 0.191976 0.168603 -0.434508 0.406288 -0.047069 0.048144 -0.012510 0.087770 0.381890 -0.913462 0.097024 0.465799 -0.340915 0.046794 0.675876 -0.456512 -0.017488 0.448548 0.558335 -0.242146 -0.071344 -0.088100 -0.691680 -0.384207 -0.210343 0.240986 0.158252 -0.744221 -0.229844 -0.418463 -0.075137 -0.547351 0.423367 0.461535 -0.214480 0.798152 -0.497839 -0.152876 -0.303865 -0.136699 -0.019792 0.312720 0.087651 -0.266988 0.133893 -0.245964 -0.232996 -0.020591 0.390413 -0.100844 -0.237432 -0.205460 -0.249948 -0.336274 -0.224809 0.202174 0.480155 -0.150597 0.599357 0.071591 0.401026 -0.261581 -0.268767 -0.815538 -0.235223 -0.053860 0.799471 -0.429641 0.246248 -0.610996 0.285405 -0.690878 0.121397 0.137917 0.044786 0.400251 0.180412 -0.018867 0.013790 0.307441 -0.039646 0.605561 0.389603 0.127746 -0.531143 -0.024741 0.109776 0.110745 -0.199191 -0.299512 0.248347 0.076506 -0.718714 0.119607 -0.228355 0.178423 0.551202 0.309497 0.226732 -1.349176 -0.438151 0.131283 0.513677 -0.470796 0.026422 0.461489 0.393336 -0.598258 -0.183140 -0.219272 -0.541735 -0.467910 0.328448 -0.516595 0.528276 -0.339825 0.022131 0.321711 -0.210817 -0.146682 -0.089419 -0.314936 0.373578 -0.375147 -0.180549 0.243492 -0.037003 -0.238297 -0.034844 0.168839 0.038649 -0.306942 0.323747 0.365123 -0.206637 0.895736 -0.036725 0.107913 0.037131 0.400232 0.048911 -0.423437 -0.296624 0.394941 -0.221813
tʷ 0.027798 0.086111 0.102956 -0.016730 -0.147956 -0.109327 0.045632 -0.165697 0.108678 -0.014348 0.017001 0.098843 -0.145319 0.000298 -0.148007 -0.051473 -0.080260 0.001097 -0.030265 0.205732 -0.168470 0.156956 -0.034635 0.079247 -0.114242 -0.024810 -0.075770 0.024251 -0.153889 0.202054 0.079532 -0.203228 -0.105133 -0.025057 -0.160410 0.103480 0.006124 0.146586 0.004485 0.108691 -0.055157 0.029634 -0.009950 0.080356 0.017704 0.044603 0.067317 0.166995 -0.013944 0.036486 -0.076843 -0.007296 0.070308 -0.090836 -0.260616 -0.071596 -0.022794 0.040987 -0.058225 0.067217 -0.031923 0.025011 0.034671 -0.067829 0.020751 0.014069 0.136721 -0.060906 -0.054634 -0.003433 -0.133834 0.128964 0.061354 0.097753 -0.174891 0.173220 -0.096962 -0.038755 -0.030064 -0.032964 0.123699 0.035563 0.047580 0.093472 -0.001892 -0.176836 -0.017404 0.108912 -0.071732 0.001160 0.014266 -0.126147 0.122545 0.053341 -0.066163 -0.012515 0.092122 -0.053017 0.231115 0.017262 0.068821 -0.086844 0.017657 -0.030995 -0.180079 -0.056178 0.103642 0.140110 -0.136617 -0.010296 -0.136504 -0.045224 -0.097798 0.140875 0.008936 -0.103071 -0.105578 -0.061465 -0.125185 0.062466 -0.072932 -0.057959 0.097485 -0.045199 0.049050 0.036060 -0.129779 0.039993 -0.039717 -0.166072 -0.022704 -0.035604 -0.237331 -0.070813 -0.013982 0.007858 0.016743 -0.019296 0.045042 -0.028831 -0.006610 -0.061080 0.018244 0.045149 0.112491 -0.070032 0.094020 -0.138304 0.216362 0.042574
tʰ 0.137864 0.014477 -0.517705 -0.365537 0.040337 -0.034104 0.243032 0.095481 -0.472204 -0.148526 -0.009680 -0.254228 0.059702 0.120671 -0.268911 0.472502 0.214719 -0.288955 0.121980 -0.414281 0.559011 0.032403 0.067144 -0.342728 -0.315796 -0.104750 -0.348565 0.245528 0.108237 0.198213 -0.000554 -0.293475 -0.420569 -0.787361 0.160663 -0.232540 0.371950 -0.102396 0.094148 -0.200271 0.259300 -0.051226 -0.036802 0.110196 0.443841 -0.824742 -0.061933 0.133388 -0.404764 -0.291876 0.165944 -0.181916 -0.176356 -0.041366 -0.073967 0.536993 -0.240794 -0.477396 -0.067883 -0.465664 0.232243 0.038532 -0.338210 -0.318027 0.532174 -0.415846 -0.167055 -0.231473 0.250368 -0.047000 0.040049 -0.445473 -0.024828 -0.879638 -0.144015 0.386598 -0.388113 -0.244001 0.154681 0.331388 0.160152 0.448488 0.127859 0.259383 0.193558 0.062781 0.506095 -0.284880 0.249508 0.398022 -0.294569 -0.070344 0.435079 -0.266909 0.791953 -0.355010 -0.002423 0.305518 -0.376154 -0.048252 -0.106610 0.566520 0.111153 0.317839 -0.153973 0.294936 -0.227968 0.271110 -0.143205 0.162045 0.301764 0.714457 0.200933 -0.389741 0.002664 0.491208 0.338842 -0.083250 -0.035935 0.073192 -0.236737 -0.520302 0.430675 0.373437 -0.171903 0.275566 0.085228 0.122830 -0.323880 0.363631 0.345618 -0.473377 0.127790 0.261770 -0.378496 0.091335 0.154261 0.017829 0.032880 -0.095439 0.422897 -0.193254 -0.402093 -0.120256 -0.289705 -0.214387 0.045908 -0.405704 -0.357399 -0.204364
t 0.527758 0.124078 -0.275293 -0.347878 0.443636 -0.431943 0.057410 -0.217111 -0.072306 -0.117837 0.101519 -0.473899 0.992097 0.138349 -0.226648 0.331255 -0.137729 0.030527 0.014795 -0.382596 -0.067612 0.151277 0.169752 -0.308987 0.068461 -0.242874 0.743925 0.270923 0.040239 -0.274995 -0.016320 -0.073314 -0.568860 -0.318044 -0.313488 -0.856151 0.519879 0.245183 0.403412 0.086907 -0.234345 -0.568669 0.075307 0.188053 -0.007035 -0.061114 0.098115 -0.161006 0.047599 -0.688714 0.142274 -0.500822 0.425990 -0.352625 0.258761 0.241377 0.097661 -0.619008 -0.308648 -0.270734 0.445230 0.208771 -0.183499 0.093629 0.284083 0.062804 0.356878 -0.121159 0.152042 0.289766 -0.746477 -0.053101 0.024390 -0.457169 0.168446 0.216437 -0.180274 0.123461 -0.344579 0.562517 0.234007 0.203023 0.006855 0.062199 0.195316 0.379467 0.341599 -0.561503 0.340047 0.572755 -0.349394 -0.195580 0.526559 -0.004039 1.135017 0.388573 -0.049193 0.096750 -0.453893 0.329663 -0.135506 0.240792 0.705828 -0.086252 0.067520 0.491355 -0.006483 -0.386539 -0.088262 0.231491 0.701030 0.546872 0.730639 -0.217226 0.034497 0.490876 -0.150025 0.846280 -0.039749 -0.111563 -0.634740 -0.619039 0.206040 -0.292496 0.475612 0.505221 -0.148562 -0.073949 0.032911 0.315775 0.349199 -0.248270 -0.083349 0.661950 -0.053207 -0.219948 -0.096583 0.051655 -0.265331 -0.423561 0.585180 -0.134275 -0.501582 -0.114556 -0.151043 -0.206016 0.166818 -0.073511 0.032616 -0.164204
ʂ 0.118880 -0.088405 0.055127 0.284856 0.053504 0.099252 -0.147051 -0.071210 0.160993 0.071778 -0.240047 -0.127917 -0.187757 0.034585 0.069945 -0.012144 -0.264263 0.024376 0.042782 -0.093362 -0.130288 -0.082709 -0.132479 -0.089794 -0.224276 0.249647 0.017415 0.126657 -0.416625 0.015858 0.090398 -0.052710 -0.045410 0.118230 -0.467397 0.043244 -0.070206 0.065296 -0.051259 0.016378 -0.212350 -0.220338 0.152410 0.034693 -0.341018 -0.199595 0.156790 -0.185791 -0.227254 -0.028380 -0.102973 -0.052985 -0.216661 0.186842 0.066874 0.020941 -0.130951 0.379163 0.155719 -0.189177 0.008441 0.327859 -0.201954 0.148581 -0.417707 0.049072 0.332072 0.265979 0.371382 0.045776 -0.105971 -0.371118 -0.075852 0.084282 0.058047 0.049416 -0.079966 0.175089 0.084227 0.074789 0.410235 -0.093416 -0.201727 -0.036297 0.004310 -0.043825 -0.211621 0.157984 -0.338322 -0.225214 0.081742 -0.096916 -0.509685 -0.051333 -0.383551 -0.068440 -0.015611 -0.061403 -0.028817 0.022442 0.094503 -0.005690 0.460647 -0.368107 -0.248056 -0.000409 -0.076432 -0.078693 0.301685 -0.159465 -0.166852 -0.630121 -0.196962 0.205910 -0.262126 0.003249 -0.000429 0.044083 -0.023135 -0.042445 -0.018855 0.004965 0.308622 0.137014 -0.372430 -0.160373 -0.051596 0.018226 -0.151067 -0.135204 -0.412763 0.022911 0.005979 0.106987 0.117585 -0.373065 -0.176455 0.002957 0.287230 -0.074204 -0.218648 0.036286 -0.254078 -0.268043 0.010264 0.138389 -0.376916 0.213961 0.025911 0.105064
sʼ 0.044584 0.012831 0.071960 0.063170 0.054323 -0.003020 -0.117006 0.049412 0.071728 0.096937 0.205522 -0.090045 -0.109029 0.005550 0.086832 -0.010616 -0.067662 0.055353 0.018720 0.052354 0.210035 -0.088739 -0.006027 0.062640 -0.127706 0.058391 -0.046118 -0.049914 0.060971 -0.008381 0.050799 -0.144121 0.019614 -0.098931 -0.047803 0.029834 0.023287 0.041370 -0.131173 -0.004128 0.053916 0.230266 -0.084085 0.070584 0.032084 0.093853 -0.053337 0.089281 -0.101443 0.070108 0.055111 0.104245 0.012105 0.006435 0.066407 -0.039864 0.022047 0.168991 -0.058140 0.059792 -0.019399 -0.012740 0.005957 -0.179598 -0.050865 -0.020472 0.063851 0.176448 0.044820 -0.012518 0.015211 0.029787 0.118779 0.027977 0.140083 0.050827 -0.018205 -0.088819 -0.102294 -0.058220 0.044343 -0.101368 0.041515 0.023249 0.049796 -0.017236 -0.145508 0.006276 0.108515 0.156650 0.097486 -0.071251 0.178311 -0.013692 -0.025406 0.023393 0.037327 0.075406 -0.022664 -0.100529 -0.011489 0.062432 -0.075872 0.014277 0.183761 0.047004 0.063045 0.054802 -0.056895 0.086897 0.044495 -0.007446 0.086500 -0.002650 0.047118 -0.015706 0.098642 -0.026341 0.050530 -0.004644 0.061516 0.115445 0.216535 -0.049701 0.014939 0.001626 0.034849 -0.076498 0.025234 0.169867 0.025621 -0.044255 -0.040622 0.029197 -0.141853 0.076064 -0.140832 -0.093051 0.039750 0.204723 0.039044 -0.048946 -0.012306 0.113538 -0.001159 0.073645 0.171568 0.024831 -0.050840 -0.032480
ʒ -0.071747 -0.411083 -0.246828 0.024662 0.381506 0.464437 -0.070155 0.136354 0.636141 0.165943 -0.663385 0.354254 0.474013 -0.088691 -0.277816 -0.027959 0.199589 0.347120 -0.261671 0.009030 0.553291 -0.341469 0.191476 -0.145529 -0.349087 -0.006760 -0.408485 0.324558 0.004251 -0.196761 -0.306439 0.037331 0.452079 -0.120900 0.166778 -0.142716 -0.256537 -0.733055 -0.437604 -0.335554 -0.233336 0.092192 0.705305 -0.110691 -0.435486 -0.272968 0.152472 0.046537 -0.010707 -0.262325 -0.237600 0.169290 -0.363782 0.424090 0.176382 0.264258 -0.240587 0.660816 -0.194796 -0.169907 -0.181338 -0.083885 -0.924371 0.213832 -0.002428 0.370976 -0.035805 0.325699 0.484008 0.117612 0.374644 -0.574726 0.176214 -0.274402 -0.073362 0.408064 0.404628 -0.198308 -0.033716 -0.279737 0.158536 0.155568 -0.010486 -0.016439 -0.326372 0.125723 -0.126840 0.146106 -0.447231 -0.401208 0.154740 -0.021187 0.061020 -0.200245 -0.224229 -0.103978 0.047489 -0.225924 0.242985 0.220152 0.103709 0.560396 0.232162 0.063375 0.016459 0.264492 -0.056614 -0.031113 0.346815 0.243472 -0.435158 -0.566497 -0.396160 0.780186 -0.301000 0.238342 0.232626 0.234092 0.164512 -0.362951 0.063394 0.248367 0.254233 0.232108 0.000941 -0.347515 0.162240 -0.074434 -0.202764 0.014613 -0.574510 -0.113480 0.399381 0.160114 0.134529 -0.164487 0.085192 0.441979 0.337914 0.140708 0.434418 -0.194970 -0.730348 0.226306 -0.005801 0.247360 -0.390704 -0.051642 -0.227026 0.174659
ɨ -0.362929 0.480195 0.431270 -0.119138 -0.124624 -0.445228 0.530468 -0.255735 -0.024380 0.514889 0.270123 0.314824 -0.527156 -0.103273 -0.196928 0.081046 -0.135864 -0.399532 -0.291891 0.337094 -0.231117 0.431527 -0.267314 0.025626 -0.192464 0.162606 -0.092904 -0.169681 -0.315830 -0.098571 0.176512 -0.150159 -0.110975 -0.155537 -0.547784 0.006821 -0.392503 0.734808 0.295571 -0.003971 0.685212 0.099343 0.200291 -0.138359 0.137390 0.143797 -0.096752 0.303398 0.663854 -0.341290 0.255015 -0.519469 0.020579 0.224697 -0.251789 0.346775 -0.283189 -0.362546 0.463548 0.027901 0.211408 0.112133 0.387767 0.326427 0.221856 0.300392 -0.097918 -0.201133 -0.284481 0.301010 0.205130 0.524933 -0.207302 0.352003 0.121165 -0.292437 -0.407243 -0.125129 0.422330 0.051084 0.368380 0.119383 0.185339 0.238663 0.003217 -0.119932 0.408175 0.217065 -0.061029 -0.360958 0.388938 0.431096 0.298298 -0.216944 0.110945 -0.031418 0.496928 -0.221447 0.172583 -0.498667 0.385995 0.022001 -0.081072 0.214189 -0.345050 -0.082900 -0.071239 0.044104 -0.075573 0.513877 -0.119618 0.084443 -0.456844 -0.408807 -0.154416 -0.397746 -0.364226 -0.016332 -0.382589 0.309664 0.213518 -0.206213 -0.021995 0.037425 0.358880 -0.175386 -0.370512 -0.123742 0.032699 0.021999 0.348095 -0.166300 -0.476787 -0.617753 0.009690 -0.076931 0.017075 0.220183 0.077210 -0.281712 -0.306417 -0.465752 -0.101088 0.184952 0.122313 -0.626954 -0.161233 -0.151628 0.738458 0.291914
r 1.013951 -0.296046 -0.398232 0.390269 -0.631092 0.246354 -0.088795 -0.140983 0.201817 0.041779 -0.056981 -0.150111 0.473077 0.066665 0.739466 0.245147 -0.231575 0.226613 0.184168 -0.036922 0.162541 -0.050992 0.166366 0.208877 0.411949 -0.393049 0.203032 -0.165022 0.432652 -0.117660 0.255009 0.203505 -0.112742 0.461247 -0.133557 0.334194 0.008419 -0.240285 0.468635 -0.170242 0.062201 0.281375 -0.109436 -0.220660 0.775532 0.195404 -0.150248 -0.363782 -0.397198 -0.279483 -0.476641 -0.249054 0.337418 0.105447 0.097484 -0.409445 -0.123091 0.207049 -0.318703 -0.100965 -0.201074 -0.065862 0.540548 0.187034 0.112320 -0.291857 -0.395831 -0.251242 -0.038277 -0.653101 0.877855 0.484190 -0.196688 -0.218488 -0.312258 0.181951 0.336766 0.343637 0.049913 -0.104725 -0.688848 -0.105098 -0.183770 -0.378559 0.266726 -0.104681 0.705832 -0.403243 -0.420193 -0.154875 -0.446262 -0.050509 0.202897 0.254786 -0.341445 0.353468 -0.407506 -0.343673 0.031673 0.163435 -0.367117 0.152576 0.295616 0.155269 -0.023069 -0.464310 -0.090363 0.461935 0.207666 -0.285813 0.122163 0.446454 0.434493 -0.344935 0.486056 0.155838 0.594483 0.353924 0.022216 -0.222265 0.384437 0.512805 -0.232777 -0.296415 0.135333 0.709973 0.116946 0.334333 -0.280881 -0.183479 -0.458254 0.373811 0.161467 -0.191835 0.378909 -0.141243 -0.233380 0.072251 -0.124623 -0.218420 -0.495486 0.517757 -0.176565 -0.023994 -0.044152 0.313470 0.270679 0.442965 0.288178 -0.251735
n -0.658679 -0.344611 -0.137837 0.362779 0.071885 0.281456 0.360386 -0.163928 -0.192679 0.635738 -0.362115 -0.052895 0.312409 0.182901 0.261392 -0.238235 0.102546 0.308879 0.020026 -0.238703 0.075766 0.015081 -0.438756 0.151740 -0.213152 0.283675 0.465454 -0.216226 0.225409 -0.834917 0.307256 -0.094342 0.407596 0.198242 -0.284744 0.506004 0.324935 0.189529 0.591368 0.163595 0.592012 0.401303 0.018500 0.270654 0.103087 -0.161843 -0.090463 -0.416732 -0.272914 0.253950 0.214551 -0.365932 0.100101 0.009377 -0.208558 -0.326167 -0.284881 0.561155 -0.170431 -0.179478 -0.483279 -0.314146 0.229828 0.580793 -0.412998 -0.157757 -0.475342 0.194465 -0.060892 -0.939475 0.230322 0.314534 -0.672109 -0.498149 0.328910 -0.022588 -0.202784 -0.291576 0.061778 0.156606 -0.513058 -0.234604 -0.063329 0.154911 -0.692588 0.121668 0.292014 -0.083476 0.106244 -0.139094 -0.892399 0.161116 -0.157364 -0.136195 0.082003 -0.021895 -0.148524 -0.403717 -0.033762 -0.676138 0.748555 0.035377 -0.212356 0.424428 -0.205328 -0.079012 -0.109480 0.703931 0.579449 -0.119636 0.198205 -0.229060 0.465027 -0.463507 -0.258996 -0.236089 0.122532 0.061114 -0.016612 -0.170990 0.061385 0.476524 -0.072382 -0.293638 0.263162 0.186496 -0.096771 -0.258353 -0.170760 0.066128 -0.333000 -0.020203 0.303994 0.271412 -0.363543 -0.275410 -0.234653 -0.098027 0.432647 -0.171076 -1.194775 0.036128 -0.187206 -0.012219 0.382714 -0.073887 -0.587884 0.176137 -0.020092 0.096614
ħʷ -0.080851 0.019620 -0.083056 0.025329 0.071099 0.074320 0.012229 0.027774 -0.039267 -0.060710 -0.089719 0.032596 -0.003452 -0.017902 0.088285 -0.074374 0.033926 0.087523 -0.051945 -0.067532 -0.077652 0.022569 0.086159 0.074130 -0.032783 0.044293 0.039933 -0.053607 0.009827 -0.019393 -0.078666 0.012085 0.093125 -0.049277 0.014006 -0.042088 0.025516 -0.061094 0.012014 -0.035659 -0.060440 -0.023345 0.012535 -0.097368 -0.041558 0.026452 -0.054333 0.016191 0.072958 -0.074471 -0.052289 -0.051762 0.001017 0.012321 0.083266 0.062715 0.021942 -0.078044 0.086057 -0.006359 0.035328 -0.028771 -0.097924 0.002256 -0.052830 0.087707 0.053428 0.052407 -0.016918 0.094499 0.058542 -0.086586 0.050595 0.005404 -0.091043 0.043155 -0.033871 -0.077428 -0.095682 -0.091291 -0.053212 -0.062186 0.026716 -0.046172 0.066284 0.039455 -0.011429 0.071339 0.021751 0.065398 0.087759 0.036703 0.020660 0.051961 -0.007250 -0.098837 0.006723 -0.017256 0.090604 0.010304 0.080229 0.049907 -0.059124 -0.076687 -0.100185 0.032286 0.055877 -0.003356 0.080049 0.053600 -0.096158 0.048269 0.089715 0.023243 -0.023019 0.005640 0.060365 0.073688 0.044880 -0.021490 -0.025739 -0.051401 -0.049608 0.089959 -0.025060 -0.077486 0.061214 -0.098597 -0.059063 -0.052489 0.073443 -0.056723 -0.082430 0.069511 -0.068055 -0.034860 0.006569 -0.064536 -0.019185 -0.043635 0.089949 -0.010992 -0.059398 -0.082246 0.085660 0.014153 -0.092930 0.079608 0.091192 0.046097
ʂʼ -0.053090 -0.013842 -0.098070 0.081378 -0.134967 -0.095360 -0.101736 -0.060025 0.081455 -0.009686 -0.050571 0.060504 -0.002377 0.025332 -0.083936 0.024737 -0.023460 -0.038157 0.046297 0.009337 -0.011419 0.050814 0.020797 0.011275 -0.071811 -0.067705 0.031404 0.053416 -0.094268 -0.090359 -0.025150 -0.044525 -0.039417 0.084769 0.023861 0.063149 0.020117 0.073381 0.077905 0.004214 -0.067810 0.050342 0.096518 0.009539 0.076463 0.069179 0.042209 0.003432 0.028724 0.075660 0.064356 0.014564 -0.055886 -0.006564 0.052009 -0.028107 0.061927 0.035709 0.112055 0.053354 -0.004569 0.076349 -0.079349 -0.016202 0.065396 -0.068457 0.074385 0.120298 0.095365 0.095972 -0.003221 -0.094943 0.065760 0.016112 0.036241 0.071229 0.041721 0.079106 -0.077989 0.049143 0.058325 -0.073473 0.101189 0.109365 -0.003812 -0.088011 0.010814 0.054685 -0.011769 -0.014560 0.016253 0.018835 0.081592 0.092392 -0.077309 -0.033990 -0.045601 0.091805 -0.101511 -0.020808 -0.055307 -0.033259 0.073926 -0.067389 -0.043401 0.045644 -0.111103 0.079196 -0.007565 -0.009277 -0.113149 -0.013424 0.016720 0.018461 -0.077916 -0.054352 0.073897 -0.125207 0.077007 -0.091254 0.057228 -0.012807 0.111559 0.033596 -0.048870 0.053384 0.064609 -0.053928 -0.050648 -0.079135 0.024876 0.042072 -0.021947 0.004168 0.067617 -0.092754 0.018206 0.073689 0.125424 0.092835 -0.060910 0.035236 0.030617 0.002504 0.107985 0.069355 -0.006741 -0.002512 -0.077547 0.073950
ɥ 0.268186 -0.294795 0.053289 0.165245 0.056011 0.258010 -0.055101 0.215286 -0.031175 -0.048447 -0.343821 -0.274118 0.003541 0.281215 0.062103 -0.282382 0.035000 0.031157 0.124030 0.009829 -0.024270 0.054667 0.097158 -0.111647 -0.034773 -0.164798 -0.168660 -0.104837 0.044814 0.058270 0.004622 0.087142 -0.146547 0.089969 0.065351 0.248193 -0.018206 -0.165662 -0.257759 -0.038169 0.076306 -0.190327 -0.154109 0.230785 0.240196 0.146289 0.193250 -0.016881 -0.249851 0.333085 -0.158011 0.231526 -0.135624 0.115627 -0.073291 -0.186863 0.126059 0.032172 -0.306436 -0.111496 0.083627 -0.008808 -0.150839 0.113444 -0.093352 -0.035060 -0.024837 -0.094178 -0.032281 -0.071471 0.035871 0.001134 0.177474 -0.124668 -0.231989 0.117736 0.229595 -0.098670 -0.122042 -0.222775 0.109640 -0.050123 -0.165374 -0.119810 0.048284 0.131085 -0.404438 -0.105110 -0.148137 0.034404 0.051502 -0.060791 -0.222063 -0.085810 -0.206263 0.092843 -0.186545 0.064483 0.086554 0.207455 -0.039951 0.188220 -0.040041 0.017864 0.133960 0.021957 0.047817 0.171530 0.146304 -0.125730 0.065764 0.011403 -0.015216 0.369951 -0.006671 0.261513 0.108331 0.193713 0.049799 -0.096667 -0.144550 0.252064 0.083045 0.107631 -0.076897 0.134857 0.071508 0.250923 -0.105082 -0.150231 0.110572 0.119190 -0.064437 0.171500 0.202614 -0.144624 -0.094587 -0.210595 0.032022 0.207705 0.098248 0.200979 -0.120618 0.076018 0.079458 0.099278 -0.098201 0.015775 -0.291382 -0.333978
pʰ -0.116559 -0.107039 -0.142928 -0.419310 0.518721 -0.341535 0.363526 0.373944 0.094420 0.082794 -0.685251 0.093048 -0.069793 0.560414 0.068133 -0.095780 0.035207 -0.048142 -0.041386 0.372071 0.221755 0.173361 0.548780 -0.764060 -0.425096 -0.317587 -0.041852 0.654493 0.151475 0.005613 -0.587236 -0.087429 0.008304 -0.409076 0.663404 -0.362568 0.368176 -0.432258 -0.162958 0.082805 -0.093728 0.032572 0.139716 0.129433 0.222592 -0.091723 -0.015661 0.313543 -0.288787 -0.477021 0.302339 -0.241039 -0.447430 0.489527 0.111713 -0.283859 0.110631 -0.186457 -0.617349 0.186009 -0.251052 -0.073295 -0.358883 -0.358465 0.464862 -0.044417 -0.233421 0.170620 -0.018752 0.569569 -0.059412 -0.313633 0.292948 0.044897 -0.131897 0.617988 0.433728 0.074863 -0.293316 0.065444 0.147655 0.012910 -0.016409 0.415571 -0.362125 0.502688 -0.357591 -0.379150 0.165403 0.404150 -0.044265 0.183683 0.354686 0.170115 0.437842 -0.356495 0.602349 0.099537 -0.015275 0.503701 -0.021940 0.132295 0.192948 0.101098 0.249994 -0.367249 -0.097174 -0.056582 0.167053 0.080132 0.119112 0.186294 0.162162 0.104249 0.095110 0.168320 -0.051292 0.495287 0.072404 -0.087246 -0.097124 0.565355 -0.055528 -0.383999 0.045579 0.110125 -0.300193 -0.068504 -0.367931 0.381421 0.332343 -0.245801 0.369873 0.086006 0.087162 0.227437 0.009811 0.331970 0.124250 0.372432 0.518331 -0.647639 0.075083 -0.009335 -0.077779 0.038999 -0.219659 0.057350 -0.157699 0.243894
d 0.181068 -0.435882 0.035714 -0.488771 0.134063 -0.218534 -0.131832 0.411442 0.216475 -0.118296 0.109777 0.024303 -0.351215 -0.244263 0.046094 0.738146 0.583519 0.005045 0.028235 0.177355 0.588293 0.825600 -0.560208 -0.584827 0.010667 0.064499 0.190721 0.419521 0.390427 -0.316605 0.657962 0.350404 0.010820 -0.017519 0.077690 0.285843 0.271946 0.121738 0.339575 0.016195 0.453236 0.085463 -0.279257 -0.099576 0.089291 0.028993 0.132963 -0.022661 -0.578429 -0.469266 0.125033 -0.066135 -0.233528 -0.040953 0.778227 -0.249910 -0.211626 -0.344910 -0.376816 0.038982 0.154863 -0.146007 -0.275545 -0.769074 0.052773 0.210686 -0.172984 -0.065859 -0.024858 0.297030 -0.258205 -0.709845 0.360351 -0.126505 0.138487 0.552278 0.030849 0.130543 0.415622 0.116282 -0.317541 0.089827 -0.182288 0.300946 0.167681 0.619427 0.090990 -0.568900 0.531906 -0.200854 -0.363646 0.066492 -0.191190 -0.360580 0.724293 0.091910 -0.185077 0.562410 -0.702104 0.209643 -0.321761 0.436311 0.778673 0.146610 -0.244130 -0.071269 0.210607 -0.279993 0.292100 -0.704991 0.951889 0.304920 1.022799 -0.093144 0.564904 -0.037674 0.283232 0.276480 -0.074849 0.139317 -0.592682 -0.890759 -0.035019 0.227702 -0.469178 0.389808 0.087569 0.214012 -0.377969 0.003531 0.443486 -0.081571 0.272240 0.456960 0.178820 0.211574 -0.022041 0.042055 0.157237 -0.371545 0.797638 0.159443 0.382142 -0.387973 0.174294 -0.225066 -0.361226 0.198164 0.126320 -0.418098
z -0.256029 -0.373690 -0.087308 -0.115977 0.105597 0.124308 -0.168500 0.314153 0.059151 0.622612 -0.507908 -0.047050 0.105698 0.133416 -0.077780 0.218983 -0.076347 0.629917 -0.190517 -0.187088 -0.072872 -0.293864 -0.072566 -0.377478 0.173835 -0.062207 0.241682 0.398921 0.039418 0.243046 0.078219 -0.109800 0.336537 -0.085755 0.135009 0.110688 0.154753 -0.100505 0.165779 -0.180844 0.331179 -0.100801 0.382777 0.081388 -0.034120 -0.654530 0.364293 -0.912793 -0.269447 -0.521549 -0.314928 -0.172847 -0.129162 0.366657 0.034053 0.311496 -0.266345 0.470127 0.161693 -0.036828 0.346633 -0.131934 0.074477 0.309173 -0.222139 0.399851 -0.416508 0.437789 0.433876 -0.128856 0.458059 -0.697598 -0.428444 0.007158 -0.206062 0.473599 -0.077782 -0.144410 0.258882 -0.159610 0.050223 0.181959 0.218550 0.009099 -0.534782 0.310577 0.351870 -0.192644 -0.434661 -0.407559 0.176481 0.144747 -0.711804 -0.139604 -0.132342 -0.256568 -0.165699 0.011879 -0.326859 -0.060343 0.437972 -0.140554 0.021556 0.348718 0.013610 0.612992 0.080583 -0.036364 0.591293 0.237566 -0.034920 -0.149307 -0.059906 -0.166938 -0.224482 0.105292 0.160417 0.102407 0.368662 0.138650 -0.734984 -0.101453 -0.217949 0.074812 -0.207429 -0.341180 0.203650 -0.289338 -0.452717 0.380176 -0.431446 -0.094739 0.268914 0.450396 0.078154 -0.412347 -0.099610 0.329842 0.562307 0.022209 0.113239 0.009856 -0.689617 -0.070677 0.774304 -0.333194 -0.220766 0.055981 0.163039 -0.056896
ħ 0.058608 -0.059861 0.062320 0.055301 0.164523 0.189188 -0.226033 0.134836 0.176795 0.205473 -0.438324 -0.051457 -0.018884 -0.001608 0.123227 -0.010511 -0.180401 0.205208 -0.194224 -0.136703 0.238300 -0.271746 0.031560 -0.149852 -0.132453 -0.083748 -0.255376 0.086982 0.200925 -0.287388 0.153937 0.031911 0.190670 0.051990 0.132299 -0.121156 0.175033 -0.321400 -0.154779 0.007630 -0.137431 0.486352 0.220040 -0.126018 0.004166 0.068958 -0.094653 0.216646 -0.074379 0.188603 0.001920 0.198741 -0.120402 0.172763 0.071281 0.206906 0.067806 0.277220 -0.064708 -0.053737 -0.104181 -0.074130 -0.382365 0.009756 -0.003371 -0.077007 0.193282 0.249026 0.338413 0.241404 0.164688 -0.356097 0.079429 -0.090749 -0.052695 0.354358 0.257195 -0.252479 -0.200300 -0.012001 0.172669 -0.109788 0.086958 0.056605 0.010785 0.221070 -0.410708 0.023349 0.054117 -0.258644 0.219056 -0.095262 0.185689 0.171459 -0.275117 -0.223275 0.245712 0.063824 -0.301042 0.078099 -0.007663 0.084308 0.044917 0.188710 0.308736 0.189804 0.006262 0.074664 0.071314 -0.094871 -0.226117 -0.261920 0.151983 0.511741 0.140408 0.064826 0.097121 -0.154431 0.147299 -0.093101 0.189696 0.293224 0.131173 0.008407 0.064062 -0.077653 -0.132612 -0.127383 0.002905 0.106108 -0.104986 -0.112506 0.104262 0.141126 0.042814 0.105441 -0.146249 0.075781 0.359832 0.072548 0.115654 -0.096781 0.179963 -0.082212 -0.054409 0.025438 -0.163871 0.162621 -0.172159 -0.191008
k -0.039424 -0.089786 -0.358685 -0.366606 0.054873 -0.235953 0.443111 0.369969 0.585625 0.157118 -0.802373 -0.326014 0.165880 -0.051741 0.343717 -0.203038 0.424916 0.539223 0.198589 0.255373 0.486854 -0.112058 0.195943 -0.287552 -0.064236 -0.143564 -0.283505 -0.254454 -0.111884 -0.307663 -0.016577 -0.104913 -0.420037 -0.027014 -0.264378 -0.544295 0.095074 -0.301719 0.025394 -0.069662 0.047731 0.383597 0.711943 -0.134688 0.130930 0.388539 -0.176112 0.831621 0.385439 -0.838917 -0.091761 -0.164531 -0.538251 0.561390 0.130702 -0.220288 -0.059353 0.166691 0.473702 0.257787 -0.209739 -0.067120 -0.165874 0.232314 0.625354 -0.138198 -0.282715 -0.034354 0.400358 -0.027059 0.531614 -0.741121 -0.358389 -0.370258 0.624086 -0.133756 -0.320838 -0.685575 -0.611609 0.087547 0.370961 -0.113388 0.225780 0.889973 -0.731539 0.339356 0.019927 -0.152416 0.300204 0.015090 0.170344 -0.253446 0.358323 0.058539 0.521265 -0.687515 0.761926 -0.021718 0.179479 -0.072607 -0.038860 0.151318 0.403293 0.722947 0.244987 -0.291761 -0.083163 0.221706 -0.109848 -0.050996 -0.010365 0.119252 0.714285 0.089791 -0.012292 0.195911 0.099166 -0.112594 -0.047024 -0.300860 0.000601 0.241882 -0.091681 -0.146650 0.243129 0.291952 -0.285736 -0.930736 -0.259215 0.164131 0.345959 0.357552 0.772982 0.444433 0.077202 -0.260598 0.135764 -0.491963 0.665552 0.271403 -0.345129 -0.076283 0.052020 -0.522786 0.463080 -0.367937 -0.293051 0.254939 0.323851 0.279355
qʼ -0.214638 0.156668 0.037083 0.097383 0.073370 0.184720 -0.170142 0.239065 0.229377 0.271007 0.227278 0.197653 -0.340984 0.121836 -0.075169 -0.002322 -0.325021 -0.170656 -0.271866 -0.246462 0.342980 0.027004 -0.068150 -0.009061 0.037946 -0.094290 -0.271213 0.011562 0.027717 -0.278828 0.261262 -0.010314 0.156675 0.108593 -0.191020 -0.041381 -0.177468 0.080072 0.148646 -0.373386 0.065676 0.414881 0.025555 -0.021652 0.386549 0.265054 0.193993 0.094694 -0.046257 0.250239 0.233582 0.122519 -0.015616 0.081191 0.172986 0.164918 -0.295642 0.004725 -0.010126 0.081893 -0.077097 0.013310 0.032268 -0.177608 0.054456 -0.146293 0.058346 0.064694 0.082546 0.161671 0.085124 0.048259 0.065404 0.132978 0.380782 -0.006074 0.047446 -0.013869 -0.042356 -0.185638 0.104243 -0.076040 -0.349316 -0.103851 -0.188009 -0.115257 -0.376500 0.190064 0.131110 0.059523 0.172142 0.141199 0.076428 -0.036857 -0.149962 -0.100899 0.275162 0.117748 0.090478 -0.315213 -0.056543 0.252707 -0.339472 0.050499 0.187771 0.051036 0.106571 -0.079310 0.139683 0.282877 0.184007 -0.084940 0.185628 0.401135 0.116849 -0.232161 0.326798 -0.143468 -0.048933 -0.251626 0.187552 0.365426 0.192908 0.026185 0.166339 -0.162514 -0.271548 0.241212 0.162297 -0.109817 0.316112 -0.138636 -0.114315 0.041592 -0.079643 0.163192 0.076360 -0.121808 0.124079 0.127495 0.234116 -0.231697 -0.153472 0.174789 -0.082158 -0.076854 -0.072279 0.074230 -0.196975 -0.139812
ʃʼ 0.004244 -0.103694 -0.024427 0.257998 0.061255 0.010710 -0.004471 -0.108152 -0.081812 0.107477 0.050921 -0.062624 -0.050859 -0.270125 -0.003905 0.031636 -0.254559 -0.009521 0.047190 -0.030435 0.233545 -0.115094 -0.018149 0.137434 0.086118 0.143344 -0.082409 0.017462 -0.067571 -0.179186 0.234570 -0.117127 0.161793 -0.009425 -0.065979 0.232174 0.045062 -0.091088 0.048455 -0.135599 -0.019629 0.285836 0.038468 0.076559 0.074055 0.113561 -0.139710 -0.066517 0.062359 0.110449 0.007942 0.058896 0.088523 -0.127891 -0.160104 0.059208 -0.021153 0.169681 0.157450 -0.015003 -0.178579 0.069181 -0.036671 -0.106376 -0.105778 -0.228893 -0.037250 0.245446 0.159931 -0.055304 -0.078751 0.030095 -0.018361 0.062606 0.192950 -0.035673 -0.072343 -0.108243 -0.101473 -0.176905 0.011790 -0.167336 -0.063349 0.138324 -0.064024 -0.141601 -0.143922 -0.000003 -0.032883 0.066185 0.098737 -0.199031 0.047241 0.005800 -0.098636 -0.056146 0.012919 0.043155 0.135688 -0.238879 0.064421 -0.070012 -0.093268 0.012412 -0.038315 -0.050632 0.094189 0.206946 0.239532 0.193347 -0.102352 -0.193519 0.226179 0.159266 -0.002099 0.014995 0.215408 -0.176827 0.069561 -0.016596 0.294246 0.161939 0.183647 0.105494 0.015166 -0.118942 -0.134890 -0.007031 0.040156 0.135850 -0.176819 0.032079 -0.150892 -0.041874 -0.185627 -0.107344 0.051363 -0.014859 0.257572 0.180110 -0.162666 0.012711 -0.210173 0.098920 0.068091 -0.107503 0.107875 -0.200930 0.010166 -0.035656
ʁ 0.189438 0.087391 -0.246359 -0.188515 -0.100920 0.040806 -0.097008 0.214153 -0.012273 0.169269 -0.031205 -0.104844 -0.170063 -0.188512 0.096464 -0.064384 -0.294253 -0.104415 0.195710 0.294179 0.307116 -0.218344 0.499006 0.291778 0.120366 -0.057909 0.159652 -0.028073 0.497653 0.190728 0.093261 0.197749 0.288830 -0.276404 0.285184 -0.010404 0.220138 -0.373498 0.150911 -0.134483 0.006097 0.539986 0.026440 -0.018195 0.574858 0.249283 0.095320 0.322383 -0.245833 -0.218681 -0.167889 0.269821 0.010726 0.055292 0.001910 0.058686 0.071501 0.411552 -0.467487 -0.020261 -0.142563 -0.425438 0.042855 -0.028438 0.556723 -0.120821 -0.166667 -0.276945 0.019826 -0.274447 0.337586 0.181758 0.016550 -0.043539 -0.263733 0.797311 0.154198 -0.175308 -0.160285 -0.405378 -0.644662 -0.002608 -0.063176 -0.061268 0.169053 0.024539 0.048729 0.014257 0.108032 0.231889 -0.120558 -0.123758 0.211010 -0.092140 0.318322 -0.073757 -0.007821 0.145473 0.294345 -0.026557 0.338685 0.426983 0.169844 0.344555 0.155483 -0.218588 0.180989 0.112950 -0.118071 -0.173177 0.157988 0.308595 0.185810 0.356685 0.107888 0.021854 0.198347 0.016216 0.179932 -0.071321 0.004122 0.509332 0.145386 -0.337532 0.395246 0.311129 -0.267420 -0.063954 -0.173132 0.035824 0.085715 0.116090 0.179769 0.113718 0.135896 0.107486 -0.184666 0.000642 -0.067297 -0.047634 0.432779 0.139438 0.059867 -0.003545 -0.250090 0.285309 0.092085 0.096501 0.001506 -0.204420
b -0.312138 -0.028070 -0.325236 -0.124430 0.532281 -0.338973 0.353756 -0.135344 0.098342 0.369928 -0.353135 0.218504 -0.059256 0.544424 -0.013422 -0.209189 0.197453 -0.041648 -0.196080 0.320906 0.447424 0.180341 0.556134 -0.403058 -0.479307 -0.371415 -0.077201 0.696457 -0.256555 0.014140 -0.687299 -0.317647 0.567882 -0.191271 0.415740 -0.096466 0.264596 -0.669472 -0.366682 0.115545 0.053687 -0.082956 -0.388996 0.277444 0.293203 -0.024971 0.001193 -0.333767 -0.711637 -0.472406 0.199312 -0.060311 -0.850955 0.531644 0.468142 -0.354343 0.143854 0.013537 -1.223806 0.427707 -0.307289 0.101960 -0.251222 -0.152820 0.598002 0.367258 -0.207377 -0.238652 -0.402261 0.240868 -0.323225 -0.389498 0.333576 -0.447982 -0.394281 0.713905 0.310423 0.362669 -0.301180 -0.039155 -0.177947 0.151216 -0.174863 0.344570 -0.242720 0.204167 -0.286103 -0.452803 0.063056 0.733009 -0.102733 0.281714 0.307083 0.423894 0.558463 -0.439822 0.345687 0.393633 -0.087171 0.527310 0.041633 -0.032000 0.356464 0.107548 -0.154908 -0.892838 0.054665 0.221057 0.502059 0.286782 0.431007 0.351499 0.433575 -0.288699 -0.119853 0.218279 -0.202110 0.129114 -0.289561 -0.380303 -0.000176 0.927162 -0.008659 -0.653871 -0.003654 0.631758 -0.380195 0.233640 -0.437647 0.451058 0.344779 -0.345759 0.258337 0.517256 0.530047 -0.088990 -0.093161 0.114532 -0.053841 0.709479 0.251901 -0.519900 0.084166 -0.130723 0.231369 0.224394 0.047019 0.138134 -0.209574 0.120468
ɔ -0.186105 0.352990 -0.499543 0.410491 0.449698 -0.663528 0.011435 0.706113 0.104715 -0.082556 -0.465314 0.163442 0.044363 0.471203 -0.145308 0.003879 0.278490 -0.349667 -0.411461 0.469127 -0.530143 1.049937 0.925709 0.271900 -0.905962 -0.177755 -0.048553 -0.061513 0.163077 0.429777 -0.532410 0.160528 -0.001568 0.083180 -0.056608 0.091739 -0.370942 0.339320 -0.232172 0.506309 0.229704 -0.845541 -0.416304 -0.801366 0.068102 -0.544024 0.038871 0.087882 -0.246823 0.719051 0.062564 0.076946 0.148276 -0.263200 -0.443419 0.021889 0.076368 -0.262234 -0.210880 -0.027989 -0.015106 -0.117263 -0.173133 -0.061155 0.241710 -0.017631 0.548745 -0.551072 -0.489641 0.316588 0.079494 0.009738 0.238977 0.223174 -0.412152 0.536043 0.522736 0.309949 0.596516 0.424851 0.322063 -0.050716 -0.120074 -0.278196 0.470033 -0.446791 0.768998 0.100422 -0.754999 0.262023 -0.022452 0.171220 -0.227675 0.857940 -0.332856 0.260031 -0.344611 -0.339401 0.263462 -0.052356 -0.802666 -0.081126 -0.100362 -0.239160 -0.223175 0.299946 -0.110159 0.159451 -0.589450 -0.320293 -0.302184 0.100049 -0.021430 -0.925639 0.076368 0.052771 0.098714 -0.309435 -0.372041 0.591675 -0.510012 -0.164345 -0.458323 -0.050784 -0.206273 -0.210774 0.914952 0.378353 -0.225931 -0.723424 0.447610 -0.346824 -0.207442 -0.611077 -0.521853 0.290986 0.139809 0.501520 0.096717 -0.491753 -0.426578 -0.257993 0.381557 0.193788 0.344918 0.621049 0.008690 0.164269 0.659785 -0.010082
m 0.051785 -0.047477 -0.173149 -0.172809 0.712721 -0.178887 0.600268 0.038895 0.417981 0.331210 -0.319397 -0.072397 0.522085 0.791970 0.301263 0.054462 0.819103 0.767269 -0.229177 0.573513 0.266754 0.191219 -0.492778 -0.145811 0.249386 -0.050171 0.204097 0.375635 0.455997 -0.305313 0.061135 -0.050339 0.499418 -0.251122 0.110352 -0.203510 0.708618 0.524612 -0.036588 -0.060106 0.416406 0.175039 0.192726 -0.146100 -0.101320 0.488860 0.089451 0.345071 0.243351 -0.493017 0.650860 -0.123373 -0.137388 -0.116018 -0.003789 -0.248235 -0.140763 -0.030074 -0.633061 0.434371 -0.508977 -0.166887 0.359203 0.096319 0.280689 -0.227273 -0.050455 0.177448 -0.365274 -0.210098 0.446486 -0.324011 -0.286379 -1.109593 0.624406 0.603609 -0.378143 -0.300410 0.026995 -0.207237 -0.386397 0.121414 -0.201200 0.783350 -0.259527 0.980594 -0.053622 -0.247553 0.057572 0.979579 -0.062516 0.735491 1.140015 0.048051 0.654616 -0.621073 0.044466 -0.050424 0.476395 -0.651433 0.569719 0.453189 0.196480 0.355039 0.426654 -0.639413 0.823726 0.432995 0.081555 -0.537864 -0.259280 -0.061958 0.244178 0.082558 0.046155 -0.056039 -0.224824 0.190207 -0.348228 -0.061771 0.238398 0.537116 0.201918 -0.819987 0.245556 0.004805 -0.264796 -0.038929 0.280189 0.282442 0.444956 -0.796441 0.257263 0.324123 0.563685 -0.186584 0.257999 -0.054909 0.065900 0.065186 0.400468 -0.430341 0.277020 -0.642199 0.615691 0.171276 -0.101923 -0.069300 -0.215296 -0.137348
e -0.310467 0.407148 0.005162 -0.252005 0.160041 -0.443655 1.085019 0.057360 0.017606 -0.050215 -0.329809 0.709263 -0.392269 -0.462522 -0.103634 0.232476 -0.113068 0.039116 -0.391446 0.370834 -0.488749 0.552207 -0.128392 -0.196057 0.617302 -0.309426 -0.034942 1.197326 0.105789 0.037607 -0.328650 0.171394 -0.113387 -0.056078 0.068197 -0.055808 -0.558819 0.085412 0.744527 0.027891 0.176046 -0.409472 0.520305 0.065679 0.299326 -0.530322 -0.614700 -0.170353 0.384465 -0.702247 -0.059175 -0.236086 -0.193639 -0.399003 -0.170710 -0.084510 0.276077 -0.572341 -0.090428 0.913616 -0.265957 -0.231485 0.216051 -0.296621 0.197811 0.121257 -1.117074 0.213821 -0.115618 -0.188630 -0.348067 -0.130193 0.427691 0.647955 -0.081598 -0.025628 0.124880 0.056578 0.561839 0.214409 0.324160 -0.355817 0.117045 0.146435 -0.340691 -0.115761 0.445330 -0.148618 -0.154692 -0.317091 0.417369 0.224807 -0.027778 -0.170882 0.324359 -0.487414 0.922220 -0.079151 -0.212545 -0.507760 0.017444 -0.253665 -0.148184 -0.329777 -0.437402 -0.115594 -0.405881 -0.563860 -0.025034 0.342202 -0.140715 -0.387990 -0.572600 0.174358 0.429127 -0.655036 -0.581688 0.144740 0.045921 0.394965 -0.435261 0.207039 -0.255025 0.861999 -0.055561 -0.384389 -0.091885 -0.255500 -0.421994 0.259527 0.276644 -0.203649 -0.187869 0.171971 -0.431253 -0.336334 0.536780 0.739400 0.383183 -0.643540 0.695036 -0.760445 -0.367399 0.339863 0.077703 -0.655850 0.260575 -0.558869 0.440839 -0.009299
ə -0.182893 0.070311 0.203490 -0.184294 0.265359 -0.666425 0.424200 -0.614930 -0.153185 0.481522 0.129194 0.511150 -0.839248 -0.299087 0.107948 0.087376 -0.201529 -0.843706 -0.267735 -0.037516 -0.247533 0.767157 0.421693 -0.522637 -0.486366 -0.489638 -0.232973 0.037784 -0.024843 -0.316603 0.452872 0.020179 0.467044 0.007076 -0.428864 -0.674897 -0.503034 0.283349 0.188594 0.466512 0.159103 -0.103205 0.116925 0.546849 0.174769 -0.770213 -0.293282 -0.013636 0.626112 -0.121982 -0.452214 -0.732631 -0.246730 0.611045 0.254362 -0.245396 -0.288082 -0.405777 -0.333508 0.249096 0.291008 -0.378310 -0.269603 0.111355 -0.047211 0.209974 0.012502 -0.750526 0.077421 0.303875 -0.422424 0.801115 0.224156 -0.237971 0.565949 -0.148319 -0.073340 -0.396504 0.589638 0.690024 0.066645 -0.126742 -0.236824 0.049856 -0.105219 0.232401 0.004649 -0.149409 0.632957 0.438980 -0.059173 0.073817 0.445895 -0.095605 0.387924 -0.238073 0.355200 0.362744 0.286080 0.609529 -0.524987 -0.029482 -0.215057 -1.011545 0.272315 -0.400469 0.000273 -0.354366 0.069571 0.666198 -0.430074 -0.113715 -0.470411 -0.329826 0.239318 -0.284137 -0.308242 -0.507716 -0.193646 -0.156715 0.198522 0.099314 0.190861 0.079039 0.218122 -0.423252 0.068953 0.278001 0.355754 0.219037 0.455139 -0.515279 -0.477453 -0.590716 -0.366520 0.262265 -0.016934 -0.091233 -0.358568 -0.295954 -0.083967 -0.957832 0.092267 0.650279 0.273179 -0.693867 0.128159 -0.386607 0.485702 0.369667
ʊ -0.160437 0.167796 -0.014737 0.197221 -0.447806 -0.399532 0.094538 0.038239 0.230058 -0.014761 0.081300 -0.323623 -0.094403 0.652043 -0.286132 0.090270 0.227633 -0.290523 0.001206 0.708946 -0.923982 -0.073032 -0.147907 0.064195 -0.351256 0.115842 -0.649611 -0.145954 0.229790 0.308451 -0.149896 0.226499 -0.226107 0.371361 -0.047518 0.233150 -0.718850 -0.070547 0.089366 0.389004 0.029655 -1.303650 -0.963232 -0.194628 0.102956 0.257333 0.582594 0.794075 0.175214 0.217872 0.006913 -0.340901 -0.448558 0.150557 -0.011761 -0.279338 0.071928 -0.952674 -0.076178 -0.441295 0.505667 -0.404220 0.239467 0.247520 -0.003369 0.176385 0.190823 -0.206360 -0.494512 -0.413287 0.426434 -0.451663 -0.189267 -0.037744 0.024288 -0.488415 0.046373 0.261583 0.161960 0.256410 -0.087056 0.032989 0.791468 -0.331360 0.500744 -0.782346 0.233613 -0.324319 -0.469698 -0.660912 1.167848 0.025193 -0.128989 0.443349 -0.668094 0.231412 -0.113529 -0.048253 -0.827881 -0.071967 -0.498392 0.037587 -0.914505 0.123861 -0.375985 0.404180 0.651594 0.307808 0.119479 -0.280870 0.984200 0.801779 0.214968 -0.010303 -0.836490 0.018525 0.247183 0.564626 -0.277970 -0.083274 -0.454244 -0.526274 -0.475069 0.208400 -0.081348 0.649567 -0.351141 0.268254 -0.107800 -0.617585 0.034484 -0.088659 -0.797268 -0.524839 0.421549 -0.478714 0.021613 -0.248534 0.418156 0.026658 -0.100873 0.252556 0.531286 0.263858 0.221163 0.106799 0.158407 0.214147 0.952951 0.068682
uː 0.341182 -0.209264 -0.255345 -0.425071 -0.446739 -0.077186 0.264695 -0.223017 0.461637 -0.111372 0.605828 -0.100693 -0.014056 -0.256344 -0.355977 -0.211198 0.409841 0.521587 -0.494408 0.664557 -0.621608 -0.118221 0.229129 0.324364 0.239489 -0.115896 -0.281836 -0.658800 -0.190923 -0.754865 0.206384 0.098435 -0.527259 0.444485 -0.643468 0.040224 -0.479870 0.442496 0.410511 -0.380981 0.289022 -0.263825 -0.492293 -0.385888 0.328605 0.482724 -0.036949 0.552079 -0.255671 -0.197925 -0.300041 0.451682 0.389810 0.092605 -0.393137 -0.222773 -0.550517 0.046820 0.243990 0.361804 0.066519 0.406953 0.271990 0.422542 -0.383476 0.507300 0.538549 -0.222542 -0.561134 -0.093609 0.131479 0.542532 -0.121678 0.028710 -0.878927 0.306662 -1.009407 0.460444 0.061669 -0.268711 0.428824 0.514502 0.466303 -0.095578 0.248486 -0.470347 0.305200 0.038031 0.005068 -0.272041 0.189070 0.238512 0.012276 0.431975 -0.468638 -0.348062 -0.737404 -0.713085 -0.279305 -0.087541 -0.090788 0.555963 -0.257260 0.932000 -1.121263 -0.264110 0.232265 0.642130 -0.501029 -0.211569 0.463736 0.574811 -0.476440 0.093376 -0.363590 -0.002047 -0.520524 0.450331 -0.659234 0.150609 0.064938 0.208089 -0.293477 -0.331293 -0.496383 0.278225 -0.211470 0.608715 -0.219196 -0.888857 -0.166998 -0.387841 -0.617954 -0.137513 0.409534 -0.433130 -0.165688 -0.024762 0.373166 0.030950 0.480832 0.051948 0.527751 0.279570 0.171946 -0.413164 -0.030734 -0.364975 0.391164 0.065581
h -0.147681 0.456650 -0.325907 -0.141175 0.022808 0.360841 -0.605016 -0.250016 0.431863 0.343980 -0.122344 -0.167270 -0.242325 0.491057 -0.543108 -0.289660 -0.063808 0.397949 -0.655900 -0.009255 0.134818 -0.639571 0.264493 -0.349868 -0.205756 0.129742 -0.323145 -0.331684 0.322496 -0.403448 0.168756 0.229211 0.351409 0.125005 0.457721 -0.499253 -0.481943 -0.367938 -0.401889 0.269642 -0.255200 0.245130 0.288151 -0.545971 -0.242368 -0.160883 -0.183603 0.657685 -0.429643 -0.018094 0.245910 0.188504 -0.239890 0.159771 0.223328 0.294366 -0.178842 0.335654 0.067797 -0.197767 -0.179546 -0.205317 -0.324823 0.677160 0.151064 -0.167070 -0.203236 -0.067290 0.177932 -0.372968 0.809101 0.028353 -0.447339 -0.396920 -0.472895 0.549040 0.681807 0.104742 -0.624745 -0.226504 -0.362919 0.084388 -0.032123 -0.835710 -0.015401 -0.023425 -0.252008 0.417283 0.227615 -0.619522 -0.213331 -0.086084 0.455244 0.333802 -0.676847 -0.350655 0.145554 -0.253213 0.016096 0.241678 -0.444606 0.734631 -0.187002 -0.252809 0.406623 0.020100 0.666387 -0.524607 0.085840 -0.102261 0.038648 -0.321253 -0.526114 0.450116 -0.391615 0.083435 0.538042 0.138722 0.084928 -0.012467 -0.027244 0.602289 -0.097817 -0.640460 -0.690574 -0.385391 0.173289 0.048888 0.013102 0.107800 -0.141179 -0.561897 0.996467 0.136619 0.650265 -0.070843 0.112009 -0.343651 -0.061876 0.032186 -0.152639 -0.592549 0.307672 -0.436681 -0.553271 0.824641 -0.322820 0.729741 0.190487 0.030016
w 0.469472 -0.290426 0.086858 -0.205011 -0.116173 0.422392 -0.066909 -0.277100 0.206643 0.303286 0.024072 0.276434 -0.316503 0.019512 -0.376964 -0.607460 0.564549 0.066033 0.089725 0.488693 -0.304214 -0.089716 0.690625 -0.252828 -1.080868 -0.161614 -0.223906 -0.707772 0.126836 -0.541125 0.581531 -0.039079 -0.781851 0.397410 -0.493421 0.228033 -0.536153 -0.139197 0.001086 0.144392 -0.451782 -0.390532 -0.577785 0.084010 0.401097 0.378145 0.094756 0.445610 -0.506251 0.420722 -0.283878 0.235742 0.241134 0.112405 -0.494254 -0.753242 -0.138956 0.266108 -0.899063 0.092167 0.373671 0.097836 -0.709156 0.003430 -0.022216 -0.033625 0.227859 -0.341693 -0.251727 -0.162665 0.462473 0.623020 0.273717 -0.391948 -0.309410 0.328206 -0.055347 -0.449406 0.157322 -0.053817 0.192833 -0.157465 0.530809 -0.462081 0.018494 -0.242265 -0.525554 -0.230993 0.029323 0.360540 0.090453 0.075532 0.482773 0.450405 -0.555582 -0.381937 -0.392105 0.283215 0.121515 0.239428 -0.594574 0.285435 -0.349452 -0.166863 -0.468583 -0.542175 0.315373 0.236643 -0.305636 -0.010690 0.561202 0.818034 0.311118 0.164498 -0.472804 0.642334 0.134480 0.580259 -0.089415 -0.634411 -0.242345 0.389141 0.151244 0.157114 0.199097 0.066912 0.387343 0.462174 -0.275178 -0.264076 0.263991 -0.462424 -0.735227 0.178339 0.467678 -0.614652 0.036126 -0.684519 0.350171 0.758655 0.566168 -0.323876 -0.601136 0.562388 0.202537 -0.167404 0.112904 -0.275573 -0.057446 -0.303986
q -0.065615 0.139912 -0.073863 -0.216958 0.154229 -0.037497 0.038328 0.134578 0.374994 0.112734 -0.314116 0.083714 0.134034 0.132590 0.066067 -0.146289 -0.202627 0.338502 -0.055530 0.294449 0.437880 -0.172125 0.398153 -0.391892 -0.138127 0.022868 -0.017074 0.333447 0.243822 -0.176393 -0.009129 0.073237 0.163793 -0.195156 -0.062818 -0.361484 0.182813 -0.319029 -0.092847 -0.172404 -0.162931 0.338510 0.558387 -0.191200 0.048339 0.040170 0.089568 0.362233 0.175832 -0.343550 0.209317 -0.071786 -0.149370 0.356528 -0.138731 0.149565 0.061515 0.227602 0.105757 0.176882 -0.165035 0.026580 -0.166198 0.004581 0.326098 -0.009963 -0.085932 0.132520 0.420169 0.389342 0.037061 -0.291305 -0.096108 -0.069857 0.202704 0.255035 0.043208 -0.153089 -0.157652 0.131698 0.064016 -0.001163 -0.080611 0.377232 -0.026756 0.252066 -0.081852 -0.215278 0.039305 -0.069449 0.112110 -0.069153 0.369600 0.256347 0.070518 -0.112629 0.356740 -0.127349 0.022699 0.109412 0.055129 0.269163 0.286040 0.371496 0.250321 -0.112003 0.016821 0.112170 0.028756 -0.072771 -0.298189 -0.069970 0.323538 0.424013 -0.005209 -0.140697 -0.035075 -0.038372 0.031567 -0.181996 0.037606 0.152495 0.182867 0.040216 0.240401 -0.095984 -0.288959 -0.289431 -0.143497 0.130250 0.053749 -0.108372 0.170514 0.092970 -0.073332 -0.120276 -0.013325 0.020229 0.438254 0.321257 0.083288 -0.393259 0.025707 -0.300943 0.228327 -0.153952 -0.244249 0.066789 0.039325 0.151023
aː -0.161603 1.197225 0.241559 0.093496 -0.584114 -0.135973 -0.479379 0.320386 -0.396339 -0.344512 -0.110133 0.315220 0.122783 -0.094853 -0.041772 -0.049995 -0.254584 -0.284517 -0.063463 0.312144 -0.111370 0.370509 -0.076889 0.146253 0.195877 -0.024363 0.027841 -0.462521 0.373216 0.191817 0.134831 0.274151 0.626702 0.680621 0.497156 -0.262001 -0.378800 -0.370665 0.386675 0.030562 -0.359046 -0.187280 -0.084304 -0.462689 0.019841 -0.122529 0.115901 -0.269344 0.399410 0.538439 -0.087013 0.649077 -0.256832 -0.453390 0.436600 -0.581183 0.453542 -0.285423 -0.002697 0.248333 0.155648 -0.674711 -0.140381 -0.040889 0.564864 0.063792 0.372201 -0.295000 -0.768254 0.005377 -0.302583 0.361417 0.489453 -0.090646 0.259224 -0.517807 0.381284 0.200934 -0.025600 -0.167934 -0.140211 -0.120319 -0.350542 -0.386479 -0.266194 -0.644146 -0.064508 0.793258 -0.524320 0.273385 0.116450 0.361409 -0.014004 0.589387 0.013521 0.183803 0.589661 0.139022 0.313015 -0.144742 0.232597 -0.542042 -0.598351 -0.312101 0.109569 -0.169891 0.261588 0.133237 -0.417191 0.252162 -0.220937 -0.020124 -0.018305 0.285364 -0.122786 -0.146847 -0.155176 -0.286648 -0.318226 0.061696 -0.236581 -0.224795 -0.332277 0.302783 0.102632 0.796880 -0.446743 0.436832 0.187680 -0.353698 0.719435 -0.477869 0.035036 -0.627132 -0.414238 0.499192 0.392083 -0.205373 -0.335895 -0.518867 -0.042281 0.148462 0.635198 0.289393 -0.222530 -0.072876 -0.097784 0.443708 -0.089082 -0.204323
j 0.274016 0.066844 0.377495 0.226281 -0.214499 0.309918 -0.119919 0.631837 0.236108 0.068612 0.184370 -0.118000 -0.653487 0.875962 -0.015233 -0.253753 -0.468136 0.308831 -0.375581 -0.358941 0.534355 0.119275 0.080079 -0.113530 -0.099781 -0.304613 -0.549971 -0.112964 0.080819 -1.003390 0.620485 -0.149470 0.236648 0.515096 -0.082667 0.221789 -0.484038 -0.012764 0.610448 -0.727767 0.545526 0.241840 -0.492480 -0.085684 0.855318 0.077649 0.656029 -0.062913 -0.693046 0.335286 -0.102732 0.521098 -0.247991 0.365877 0.442513 -0.622263 -0.738110 0.415329 -0.548178 -0.275895 0.146677 0.028405 -0.166799 -0.015183 -0.200624 -0.465698 0.420764 0.556418 0.150961 -0.181384 -0.035835 0.322135 0.055899 -0.303777 0.570144 -0.100898 -0.104709 0.003830 -0.216535 -0.292234 0.879400 -0.028521 -0.376305 0.236945 -0.675545 -0.170037 -1.013195 -0.074913 -0.180450 0.169607 0.631966 0.616698 -0.225755 -0.340352 -0.287576 -0.453529 0.395490 -0.154443 -0.434615 0.021073 -0.300983 0.178850 -0.285252 0.023267 0.286499 0.272582 0.175798 0.356096 0.484140 0.583528 0.429687 -0.426610 0.485539 0.301308 -0.291385 -0.978548 0.824694 0.150964 -0.198041 -0.176554 0.645824 0.879187 0.192141 -0.136247 0.082863 -0.339550 -0.605041 0.375917 0.127932 0.425214 0.648468 -0.260937 -0.389496 0.054726 -0.272292 0.356435 -0.451556 -0.735305 0.252274 1.053413 0.260199 -0.301058 -0.261431 0.333740 -0.040357 0.288244 -0.380469 0.230462 -0.477222 -0.567068
ɣ 0.044247 0.221667 -0.298053 0.249648 -0.180248 -0.027386 0.043144 0.192114 0.206606 0.416506 -0.525832 0.236290 0.002634 0.172180 0.181567 0.141764 -0.310014 0.197768 -0.007866 0.123061 0.392694 -0.591631 0.164643 -0.295487 0.034735 -0.032710 -0.443244 0.375403 0.216204 0.102392 0.286694 -0.222387 -0.435988 -0.116113 -0.235245 -0.202326 0.236244 -0.432533 0.503076 -0.242929 -0.008747 0.666431 0.134971 0.354118 0.581023 0.085975 0.025264 0.459011 -0.207757 -0.168804 0.048920 0.057746 0.021884 0.333678 0.291667 0.009613 -0.161517 0.274255 -0.048512 -0.202867 -0.260639 0.085212 -0.192890 0.011110 0.350733 -0.444428 -0.098784 0.191745 0.240754 0.455717 0.331164 -0.222040 0.040741 0.021623 0.154313 0.247302 0.243757 -0.404435 -0.510483 0.241902 -0.045417 0.131332 0.026596 0.240554 0.355719 0.082652 -0.051247 -0.089428 -0.025680 -0.121413 0.271681 -0.343410 0.285150 -0.057802 -0.207842 -0.058984 0.286341 0.161524 -0.052822 -0.102387 -0.131407 0.520522 0.370565 0.752417 0.021050 0.106107 -0.247433 0.428899 0.321006 -0.104224 0.009075 -0.095247 0.503559 0.422918 0.273411 0.069578 0.170594 -0.049335 0.205588 -0.573229 0.302464 0.247249 0.133347 0.050286 0.200815 -0.061729 -0.309410 -0.328613 -0.165570 0.155248 -0.303087 0.102183 0.079212 0.107809 -0.073516 -0.077484 -0.190446 -0.294208 0.584473 0.305064 -0.212942 -0.358046 -0.588800 -0.182308 -0.037835 0.091997 0.019263 0.124653 0.044226 -0.184411
ʑ -0.091274 -0.110264 0.031003 -0.006014 0.092483 0.374252 -0.291903 0.014227 0.143621 0.166870 -0.197008 0.004799 -0.056905 -0.077533 -0.186034 -0.060270 -0.280037 0.126250 0.041471 0.010217 0.205397 -0.250205 0.036443 -0.139801 -0.140423 0.271927 -0.173193 0.133409 0.067707 -0.106245 0.196286 -0.109347 0.265284 0.168406 0.280008 0.073903 -0.030726 -0.476072 -0.160215 -0.163556 -0.213083 0.256105 0.295960 0.083489 0.003460 0.057920 -0.006062 0.013197 -0.049892 0.225272 -0.068722 0.185334 0.047522 0.109850 -0.066798 0.141408 -0.055345 0.408499 -0.028033 -0.059641 0.154987 -0.113826 -0.444707 -0.097075 -0.095069 -0.153477 0.056615 0.516265 0.330012 0.229159 0.212877 -0.181031 -0.008741 -0.020532 0.237401 0.092067 0.179115 -0.175004 -0.038169 -0.329058 0.024265 0.000154 -0.020222 0.014588 -0.090741 -0.019130 -0.198242 0.071320 -0.168792 -0.216972 0.191420 -0.052039 -0.119048 -0.045222 -0.139373 0.084519 0.112244 -0.057785 0.180061 0.175117 0.113708 0.083465 -0.023156 -0.149751 0.050522 0.161766 0.088645 -0.016604 0.147791 0.121110 -0.161706 -0.171392 -0.194022 0.601867 0.006941 -0.108288 0.227870 0.061013 0.323988 -0.045786 0.090409 0.180299 0.213544 0.212699 0.045475 -0.348585 -0.015301 -0.216898 -0.017464 0.027806 -0.139531 0.060820 0.036191 0.059602 -0.169294 -0.009336 -0.026581 -0.013158 0.240063 0.172738 -0.107100 -0.029025 -0.023794 -0.003987 -0.137688 0.139527 -0.242880 0.176419 -0.262873 0.071823
kʷ 0.362364 -0.260313 0.240575 0.112050 -0.018809 -0.196570 0.399163 -0.144366 -0.067039 -0.112752 -0.137937 0.053174 -0.057467 -0.165352 -0.189566 -0.284373 0.287092 -0.118538 0.219368 0.794876 -0.216607 0.055454 0.298977 0.135049 -0.351362 0.058738 0.045670 -0.155897 -0.071198 0.275750 -0.117419 -0.358808 -0.414265 -0.110195 -0.089118 0.116511 0.169256 -0.041720 -0.282874 0.343423 0.033346 -0.291799 -0.237697 0.609047 0.378014 0.592273 0.339375 0.094616 -0.344695 0.137787 -0.036394 0.145259 0.051644 -0.119649 -0.537147 -0.301371 0.282849 0.071471 -0.331027 0.479885 -0.428690 -0.292710 -0.379129 -0.302700 -0.102372 -0.105544 0.368902 -0.121954 -0.028195 -0.078233 -0.218158 0.230996 0.234315 0.161825 -0.396590 0.623086 -0.084644 -0.293662 0.070994 -0.129354 0.034186 0.030203 -0.170649 0.130445 0.287486 -0.035008 -0.619969 -0.086433 0.215814 0.656803 -0.070641 -0.221140 0.270506 -0.023205 -0.244176 -0.018304 0.064414 0.048053 0.461214 0.509199 0.151729 -0.020102 0.159337 0.021560 0.004542 -0.613878 0.185312 0.236084 -0.093828 -0.063724 -0.101119 0.288968 -0.160367 0.182093 0.362777 0.206706 -0.186232 -0.076665 -0.030412 0.069315 0.178951 0.285502 0.488319 -0.220298 0.316908 -0.121260 -0.085320 0.272020 -0.138941 -0.400784 0.157175 -0.276373 -0.547414 0.120553 0.156108 0.013100 -0.014437 0.074677 0.105602 0.514321 0.203276 -0.179658 0.018558 0.119753 0.348865 -0.111676 0.505992 -0.668995 0.063588 0.124198
χʷ 0.165919 -0.164382 -0.085160 0.122261 -0.177246 0.010452 -0.154160 -0.152964 -0.187869 -0.109044 0.121504 -0.193540 0.093856 -0.265523 -0.064677 -0.094136 0.014794 -0.091266 0.035019 0.229157 -0.085526 0.075387 0.082907 0.177943 -0.252103 0.231933 0.094615 -0.223880 0.174521 0.108364 -0.010886 -0.230048 -0.209502 -0.094985 0.151214 0.222766 0.232949 0.144630 -0.135984 0.321455 -0.148394 -0.103493 -0.207187 0.306625 0.164586 0.231514 -0.120436 -0.076415 -0.210128 0.298722 -0.317041 0.385416 0.074472 -0.405855 -0.403451 -0.178901 0.073809 0.228726 0.029812 -0.046868 0.078576 -0.190639 -0.075678 -0.409788 -0.166901 -0.114735 0.402132 0.061709 0.164716 -0.046814 -0.172756 0.063752 0.094641 0.099991 -0.246539 0.264916 -0.156019 -0.289644 0.004749 -0.006254 0.029506 -0.060945 -0.135036 0.078535 0.343020 0.133909 -0.262264 -0.030190 0.108938 0.340910 0.038147 -0.258037 0.213011 0.090857 -0.169022 0.235654 -0.074741 0.290252 0.112582 0.242369 0.041738 -0.205354 0.107963 -0.020975 0.087834 -0.127086 -0.046083 0.224276 -0.317166 -0.229597 -0.196352 0.189972 0.220078 0.163595 0.186099 0.288365 0.042398 -0.244674 0.261060 0.133186 0.157144 0.081010 0.180429 -0.024713 0.204731 0.148362 0.098064 0.091249 -0.093385 -0.206974 0.082942 0.063154 -0.242129 0.013558 0.128722 0.084388 0.076878 -0.079395 0.046633 0.227292 -0.151787 0.350856 0.165520 0.295394 0.160245 -0.079323 0.434667 -0.411117 -0.031189 -0.215775
ɬ 0.278835 -0.507101 -0.079415 0.433926 -0.482081 0.059504 -0.002611 -0.117273 0.081773 0.277109 0.091591 0.114848 0.159067 -0.289536 0.391078 0.093714 -0.025982 0.004419 0.411888 0.282600 -0.127977 -0.288300 0.245907 0.585822 0.551926 0.127638 0.488419 -0.090493 0.026300 0.346912 0.333313 0.119984 -0.037021 0.170796 -0.015665 0.639595 0.175422 -0.054207 0.360850 0.066524 -0.066639 0.184695 -0.299353 0.306609 0.387211 0.343839 0.074741 -0.343463 -0.272221 0.099908 -0.641189 0.252407 0.470874 -0.287017 -0.183687 0.015357 -0.056497 0.342451 -0.106291 0.094299 0.082701 -0.090309 0.397321 -0.020663 -0.252841 -0.174353 -0.031391 0.069675 0.011248 -0.593983 0.238368 0.253459 -0.235670 0.112624 -0.297193 0.118182 0.089965 0.169211 -0.077539 -0.212047 -0.740868 0.084846 -0.105067 -0.029468 0.524532 0.047890 0.079049 -0.102054 -0.211414 0.056201 -0.036221 -0.345492 -0.147074 0.032300 -0.197068 0.219748 -0.338500 -0.098123 0.204059 -0.263412 0.388455 -0.013145 0.009781 0.077478 -0.254142 0.052620 -0.064781 0.326751 0.082126 -0.357085 0.038642 0.203117 0.406424 -0.342879 0.309532 0.238787 0.205415 -0.201744 0.474007 -0.400424 0.292928 0.461416 -0.147481 -0.229087 0.400567 0.226231 0.387469 -0.017589 -0.173079 -0.254256 -0.484993 0.437524 -0.185034 -0.237367 0.466119 -0.122536 -0.096286 0.077987 0.065338 0.287568 -0.245608 0.497095 -0.163744 0.043937 0.161666 -0.239199 0.726732 0.057415 0.194007 -0.048666
ʐʷ 0.105226 0.043680 0.055266 -0.040339 -0.079441 0.054978 0.024577 0.050994 -0.050289 0.042610 -0.019731 0.016213 -0.050685 0.023643 0.007513 0.075786 -0.097788 -0.053409 -0.021242 0.077341 0.096286 -0.107236 -0.056215 0.031892 -0.056407 0.083683 -0.067314 0.006625 0.067239 -0.018278 -0.069104 -0.035225 -0.026382 0.019269 -0.040785 0.131783 0.169323 -0.085330 0.017129 0.081025 -0.021602 -0.026075 -0.055544 0.038692 0.023316 0.078883 0.074281 -0.047601 -0.127354 -0.001046 -0.112960 0.117493 0.029844 -0.030212 -0.059729 -0.019043 0.046388 0.209039 0.011365 0.037749 -0.077930 -0.056583 0.069640 -0.155193 0.046358 -0.125079 0.088589 0.152879 0.135346 -0.170704 0.038138 -0.041006 0.117605 -0.061135 0.011875 0.027643 -0.104085 -0.137480 0.006476 -0.085258 0.037078 -0.040218 -0.066233 0.002723 0.108727 0.005226 -0.190919 -0.031824 -0.044813 0.053902 0.154711 -0.042131 0.059369 0.081427 0.027029 -0.001287 -0.039791 0.013380 0.010879 0.133354 -0.034865 -0.133968 -0.091748 -0.019488 0.078861 -0.121850 -0.024403 0.102936 -0.070680 -0.074927 -0.084675 0.079478 0.101395 0.102952 0.094759 -0.012871 0.083770 -0.027987 -0.032887 0.076866 0.054685 0.173022 0.069766 0.031563 0.025256 -0.050787 0.057811 0.087040 -0.029713 -0.059082 -0.059729 0.144994 -0.080644 -0.029340 -0.018063 0.040545 -0.116847 0.042566 -0.001510 0.151445 -0.108476 0.061160 -0.025720 -0.062799 0.033787 -0.077323 0.021899 -0.014826 -0.088577 -0.113612
ʁʷ 0.210187 -0.143975 0.057975 0.083015 -0.186347 0.137449 -0.020047 -0.086746 -0.158418 -0.104801 0.027760 -0.087108 -0.000366 -0.148015 -0.073588 -0.027972 0.110812 -0.114269 0.223370 0.257571 -0.137837 -0.080779 0.344151 0.123150 -0.182101 -0.029197 -0.001175 -0.197032 -0.098884 0.220292 -0.006765 -0.243020 -0.305447 0.034341 0.105447 0.065399 0.182404 -0.064764 -0.040178 0.076874 -0.090819 0.117035 -0.117383 0.280141 0.352534 0.398865 0.183847 0.050853 -0.415518 0.246875 -0.133250 0.251147 0.031558 0.041328 -0.138978 -0.212695 0.200897 0.188185 -0.267461 0.111753 0.071663 0.004474 -0.251747 -0.091080 -0.055035 -0.086306 0.302798 -0.048549 0.156194 0.020004 -0.128942 0.107694 0.164929 0.161106 -0.436657 0.472628 0.096119 -0.264153 -0.278713 -0.094057 -0.030795 0.149586 -0.142771 0.006192 0.327335 -0.078265 -0.376807 0.005579 -0.049459 0.101710 0.111377 -0.224687 0.112240 0.028940 -0.317760 0.140841 -0.282399 -0.063740 0.102099 0.518250 0.023276 0.054579 0.147523 0.011350 0.099313 -0.248952 0.002012 0.196020 -0.253793 -0.265820 0.006318 0.307998 0.026320 0.277991 0.103280 0.128516 0.028286 -0.173570 0.105692 0.091678 0.107195 0.270810 0.110828 -0.218020 0.041412 0.023036 -0.034358 0.150898 -0.035341 -0.160804 0.074259 0.066561 -0.231293 0.204718 0.167186 0.161001 -0.096996 -0.029884 -0.010038 0.422770 0.169234 0.169718 -0.113492 0.157771 -0.053884 0.034302 0.229340 -0.392965 0.008331 -0.156125
p 0.040123 -0.624473 -0.007399 -0.918139 0.394248 0.194365 0.036305 0.233025 -0.055699 0.047926 -0.675059 0.155251 -0.045623 1.033584 -0.190583 -0.203592 0.305442 -0.024767 0.268720 0.204030 0.056275 -0.124459 1.245505 -0.547638 -0.446532 -0.688283 0.011304 0.434849 0.055096 -0.083780 -0.564752 0.017371 -0.501836 -0.351456 0.501295 -0.459392 0.461483 -0.279236 -0.169366 -0.295509 0.214914 0.104580 0.110049 -0.739225 -0.058063 -0.308379 0.172965 0.252120 -0.262861 -0.563053 0.172907 -0.269028 0.169490 0.565124 -0.072209 -0.279617 -0.156074 0.134783 -0.249446 0.091960 -0.157631 0.095433 -0.221844 0.160889 0.366905 -0.031341 -0.364057 -0.051203 0.231837 0.400659 -0.127517 0.127442 -0.635665 -0.290905 -0.320073 0.161805 0.347731 0.433260 -0.544315 0.094314 -0.135365 0.385450 0.382519 0.672991 -0.860072 1.003117 -0.362473 -0.658199 0.255433 0.098186 -0.598576 -0.150759 0.348557 0.543260 0.756841 -0.336257 0.376905 -0.225111 0.216255 0.683419 -0.168052 0.203248 0.356903 0.083930 0.738244 -0.556110 -0.337625 -0.215859 -0.313771 -0.105432 0.508545 0.724346 0.094443 -0.405320 0.305801 0.478965 0.026728 0.616011 -0.456556 -0.213303 0.009184 0.494858 -0.000850 -0.660741 0.025640 -0.093056 0.208640 -0.075772 -0.252090 0.681776 0.495324 0.178435 0.583426 -0.238168 0.120148 0.049837 -0.573304 -0.011442 0.115301 0.666081 0.530936 -0.770294 0.020745 0.113863 -0.122337 0.319344 -0.489296 0.385552 -0.742819 0.456319
χ 0.116683 0.012424 -0.044160 0.117591 0.438620 0.449471 -0.243788 -0.007752 0.264858 0.371122 -0.438164 0.153828 -0.429702 0.215786 -0.011763 -0.534167 -0.186874 0.318515 -0.224480 0.197168 0.274704 -0.333153 0.243607 -0.376557 -0.273579 0.013856 0.066072 0.056401 -0.000710 -0.129001 0.072752 -0.309223 0.394157 0.097249 0.037181 -0.329687 0.236674 -0.276914 -0.109731 0.067169 -0.338480 0.561298 0.126426 0.088509 0.153798 0.393930 -0.154088 0.339081 0.087567 0.102596 0.131052 0.171552 -0.079003 0.173378 -0.454689 0.027538 -0.121087 0.336328 -0.447223 0.109685 -0.185202 -0.066043 -0.316523 0.173146 0.116421 -0.106690 0.132216 -0.103822 0.106015 0.167908 0.408561 -0.113256 0.214921 -0.345822 -0.148858 0.440016 0.428811 -0.310288 -0.197078 -0.245563 0.003833 -0.125077 0.044879 -0.218455 -0.053330 0.033627 -0.439167 0.373156 -0.007643 0.087211 0.096415 0.079925 0.364530 0.270223 -0.339950 -0.299164 0.113566 0.042768 0.579190 0.149404 -0.021822 0.364945 0.180093 0.006696 0.045731 -0.267344 -0.014524 0.134595 0.243715 -0.014899 -0.178065 -0.360080 -0.048635 0.762753 0.293628 0.199079 0.028188 -0.084358 0.048614 -0.253291 0.139399 0.383044 0.195115 -0.133111 0.214105 -0.395402 0.017036 -0.031904 -0.113987 0.001966 -0.126672 -0.188217 -0.192995 0.211362 0.256514 -0.050150 -0.171787 -0.299046 0.153712 0.328221 -0.143831 -0.384106 0.110007 0.184860 -0.025361 0.092303 0.150213 -0.044500 -0.141913 -0.166978
ʔʷ 0.214569 -0.213971 -0.048729 -0.066992 -0.181871 0.032157 -0.233236 0.080248 -0.148059 -0.133311 0.018762 -0.146928 0.080332 0.100046 0.010854 -0.205503 0.040718 -0.087561 0.167962 0.090001 0.084889 -0.151878 0.279499 0.032472 -0.088541 -0.001053 -0.005017 -0.048793 0.058753 0.139136 0.089104 0.054670 -0.177759 0.124753 0.123859 0.029845 0.026796 -0.100958 -0.157482 0.081007 -0.284858 0.023846 -0.130214 0.133685 0.225705 0.267348 0.029528 -0.012825 -0.362447 0.284445 -0.222206 0.364075 0.118690 -0.067610 -0.015579 -0.311991 0.070918 0.260552 -0.302652 -0.005139 -0.063299 -0.188819 -0.131226 -0.042083 0.029795 -0.099968 0.301925 -0.127174 -0.055216 -0.192739 -0.082313 0.131506 0.260000 -0.040372 -0.160358 0.185440 0.082124 -0.111484 -0.089385 -0.082855 -0.013798 0.066227 -0.059603 -0.207295 0.225502 -0.138403 -0.204607 -0.101215 -0.053462 0.099064 -0.012080 0.009967 0.065067 0.128004 -0.063791 -0.014092 -0.044548 0.046986 0.153717 0.324734 -0.158873 -0.049667 -0.032829 -0.049478 0.071018 -0.061003 0.169861 0.093247 -0.235681 -0.058597 -0.021632 0.211837 -0.069034 0.166602 -0.056768 0.234967 0.019829 -0.053283 0.004939 -0.086793 0.121911 0.287717 0.073009 -0.067392 0.047797 0.260804 -0.038948 0.226994 -0.006306 -0.238279 -0.021820 0.015080 -0.151489 -0.037773 0.160326 0.105561 -0.007131 -0.095016 -0.030971 0.249892 0.078971 0.267525 -0.076601 0.202669 -0.088880 0.062119 0.215986 -0.101938 -0.177653 -0.191148
ʔ 0.024614 -0.862080 0.190388 0.172842 0.061290 -0.131594 0.087648 0.140645 -0.048535 0.466878 -1.081257 -0.834155 0.123716 0.469770 0.319397 -1.093367 0.172557 -0.075706 -0.254044 -0.065443 0.222636 -0.514107 -0.582198 -0.337865 -0.304512 -0.084246 -0.315602 -0.379209 -0.132945 -0.927109 0.736270 0.527835 0.006306 0.769788 0.038976 -0.665964 -0.277075 -0.610825 0.233943 0.530213 -0.779664 0.215785 0.320537 0.062008 -0.310086 -0.435793 0.011686 -0.195586 -0.070013 0.841522 -0.161589 0.236031 -0.014161 0.497003 -0.088856 -0.492648 0.277774 0.099291 -0.488698 0.116836 -0.007668 0.622982 -1.117986 0.204955 -0.274208 0.168916 -0.037383 -0.217886 -0.393538 0.409591 -0.325664 0.381429 0.728357 -0.374036 -0.152272 0.135343 -0.036746 -0.038915 -0.817764 0.039750 1.195550 -0.261596 0.121373 0.141207 -0.116131 -0.236500 0.042273 -0.569224 -0.528038 0.225355 0.186772 0.339227 0.580730 0.211351 -0.694073 -0.185273 -0.021512 -0.285230 -0.754977 0.547922 -0.286984 -0.013745 -0.259553 -0.190981 0.278939 -0.262836 0.221373 0.472036 -0.392167 0.370893 -0.080986 -0.502834 0.006244 0.697324 -0.471282 0.325678 -0.366694 0.206129 -0.140227 -0.242397 0.429998 0.709405 -0.240304 -0.192697 -0.009980 0.236924 0.121117 -0.077385 -0.130344 0.395192 -0.386994 -0.081856 -0.224968 0.411642 0.279882 -0.181701 0.287069 0.195852 0.245149 0.569565 -0.080863 -0.541280 -0.575848 0.087267 0.317844 -0.176325 -0.922256 -0.020309 -0.291386 0.321373
s 0.258725 -0.182884 0.488780 0.121820 0.004571 -0.018965 -0.231868 -0.147749 0.593298 0.606220 -0.616354 -0.167076 0.509355 0.330714 -0.173948 -0.219182 -0.156087 0.529839 0.240317 -0.093180 0.310120 0.092088 0.101221 -0.210563 0.053180 0.067362 0.438229 0.682314 0.032144 0.241379 -0.035356 -0.060281 0.655993 0.082217 -0.099390 -0.316931 -0.000297 -0.213131 0.247503 -0.078256 -0.120940 -0.398290 0.482532 -0.318985 -0.587573 -0.469651 0.229665 -0.534897 0.442691 -0.762102 -0.377308 -0.536285 0.043403 0.422498 -0.058252 0.257398 0.077490 0.242139 -0.324425 -0.000426 0.115412 0.398375 -0.088351 0.357585 -0.149777 0.269402 -0.738828 0.206351 0.204693 0.194237 0.624674 0.338405 -0.559797 -0.310541 0.161531 -0.004875 -0.097851 0.227909 -0.080520 -0.267363 0.111690 -0.121610 -0.118103 0.274307 -0.753422 0.487940 0.746774 -0.222531 -0.620865 0.108585 -0.557804 0.135532 0.000018 -0.115382 0.421228 0.032319 -0.336571 -0.163116 0.414990 -0.469965 0.185719 0.381157 0.182237 -0.520904 -0.041572 0.227339 0.013883 0.070759 0.384290 -0.009973 -0.983834 -0.551652 0.001214 -0.181645 -0.117744 -0.329964 -0.085703 -0.027801 0.191540 0.198983 -0.384608 0.111304 -0.016627 0.663669 -0.168755 -0.371584 0.307167 -0.651070 -0.504769 0.241889 -0.430806 0.108798 0.445762 0.247719 -0.053743 -0.421973 -0.102721 -0.271831 -0.189181 0.485811 -0.607828 -0.279422 -0.402319 -0.613217 0.739538 -0.513907 -0.436083 0.219441 0.208899 0.251835
ɕ -0.043587 -0.192007 -0.320756 -0.164028 0.293138 0.418956 -0.505865 0.111128 0.402736 0.257552 -0.659922 0.239076 0.171588 -0.543471 -0.466570 0.003132 -0.175863 0.577921 -0.268150 -0.048017 0.173102 -0.541655 -0.019245 -0.602194 -0.025501 0.070699 -0.398555 0.263736 0.134082 -0.001243 0.110934 -0.146294 0.132960 -0.355782 0.613344 -0.080219 -0.061680 -0.307698 -0.229629 -0.062851 -0.340498 0.429639 0.529152 0.484406 -0.340261 -0.220539 0.326752 0.172664 -0.192255 0.090989 -0.447245 -0.085862 -0.191102 0.276003 0.034235 0.155885 -0.221775 0.186803 0.382787 0.060755 0.140871 0.016521 -0.967408 -0.202047 0.066629 0.531757 0.283080 0.557005 0.619513 0.640038 -0.046005 -0.364274 0.321458 0.031179 0.045125 0.442750 0.181564 -0.656810 -0.018272 -0.112779 0.337568 0.000167 -0.059175 -0.220106 0.155545 0.207195 -0.053809 0.062578 -0.092672 -0.578748 0.538521 -0.291526 0.097208 -0.294069 0.037501 0.284147 0.140260 -0.141480 0.070675 0.384525 -0.126689 0.293065 0.210035 0.040335 -0.042195 0.729042 -0.079435 0.087354 0.104068 0.455057 -0.303483 -0.437019 -0.468236 0.971812 -0.128765 0.163173 0.419676 -0.141881 0.729673 0.006782 -0.248751 -0.478619 0.279025 0.300433 0.082382 -0.413040 -0.039024 -0.596880 -0.462057 0.131308 -0.308356 -0.217802 -0.240493 0.323170 -0.107453 0.182933 0.205790 0.438047 0.508186 -0.043065 0.363556 -0.413820 -0.103395 -0.103476 -0.107414 -0.207238 -0.026266 -0.379366 -0.266153 0.048424
ʃ -0.395770 -0.094054 -0.250096 0.879759 0.539883 0.625485 -0.296839 -0.333165 1.181469 0.580153 -1.079318 0.842161 0.086893 -0.547794 -0.293544 -0.136693 -0.663049 0.618711 -0.150571 -0.447173 0.248179 -0.310530 0.476699 0.119035 0.161265 0.049089 0.093076 0.463854 -0.236835 -0.367210 0.305566 -0.446425 0.511532 -0.042099 -0.225902 -0.309681 0.208589 -1.004209 0.125204 -0.324620 -0.751466 0.013124 0.441586 0.595022 -0.596188 0.256979 0.295877 -0.100132 -0.182026 -0.322764 -0.062130 0.109460 -0.279993 0.492774 -0.175550 0.104457 -0.192243 0.266969 -0.111601 -0.031127 0.226780 -0.102344 -0.605218 0.059554 -0.093235 0.316988 0.265731 0.362016 0.383459 0.294260 0.082246 -1.047783 0.255454 -0.201310 -0.196773 0.512043 0.118135 -0.386210 0.112061 -0.133079 0.216986 0.028795 -0.035933 -0.167799 0.149561 0.157752 -0.027921 0.592565 -0.327662 -0.953387 0.311774 0.215497 0.231338 0.096667 0.033227 -0.007235 0.121224 -0.468409 0.554549 -0.050524 -0.052913 0.181367 0.374414 -0.296628 -0.632364 0.008524 0.098640 -0.099532 0.342607 -0.058979 -0.155078 -0.979118 -0.392494 1.091517 0.363852 0.424142 0.255040 0.096421 0.561293 -0.259692 -0.515156 0.528796 0.274057 0.166048 0.298951 -0.396284 -0.048046 -0.586472 -0.599548 0.338477 -0.343378 -0.054535 -0.302251 0.604553 0.413297 -0.764105 -0.075884 0.253785 0.829257 -0.067235 0.104869 0.372319 -0.338277 -0.049921 -0.130742 0.080802 -0.224489 -0.010575 -0.142241 0.013758
x -0.328146 -0.624221 0.389213 0.668006 0.067644 0.206942 -0.007049 -0.063179 0.420649 0.598595 -0.449397 0.270437 -0.175939 0.246455 -0.269634 -0.398380 -0.113986 0.028245 -0.230224 0.341658 0.200465 -0.690632 0.170050 0.018428 0.177849 -0.009921 -0.214697 0.276243 -0.128426 0.072462 0.197453 -0.026856 0.021232 0.067189 -0.176614 -0.166379 0.173720 -0.415036 0.360838 -0.067114 -0.181596 0.843919 0.625521 0.086043 0.147336 0.021318 0.284930 0.407338 -0.604551 0.459951 -0.087134 0.073336 0.040262 -0.020475 -0.030237 0.520613 -0.007261 0.134594 -0.333108 0.071497 -0.575923 0.114588 -0.443030 -0.040385 -0.388648 0.273227 0.056622 -0.042609 0.136867 0.439884 0.535388 0.021415 0.060256 0.063863 0.083740 0.647624 0.399162 -0.120916 -0.341638 0.055100 0.202578 0.070631 -0.122509 0.053467 0.348339 0.273576 -0.395040 0.506598 0.006440 -0.503714 -0.331733 -0.703557 0.788698 0.232373 -0.758382 -0.462788 0.232756 -0.286567 0.414713 0.518159 -0.207492 1.016378 0.188625 -0.069453 0.017282 -0.174888 0.164434 0.572626 0.532686 0.028593 -0.346119 -0.315068 -0.180244 0.626092 -0.247497 0.356226 0.097854 -0.506560 0.293014 -0.884401 0.640835 0.246802 0.488744 -0.461049 0.134795 -0.716897 0.162504 0.016532 -0.375427 0.350739 -0.619952 -0.398798 0.104366 -0.284685 0.333105 -0.259803 -0.158652 -0.035911 0.646387 0.177895 0.094756 -0.551753 -0.467394 0.303729 -0.116136 0.047419 0.259690 0.281645 0.093111 -0.245174
kʲ 0.072040 0.015618 -0.147652 -0.260880 -0.027083 -0.279247 -0.090039 0.166200 -0.028738 0.028692 -0.286738 0.045679 0.308442 -0.210750 0.147111 -0.515554 -0.289571 0.504503 0.334853 -0.018092 0.844693 -0.244484 -0.137965 -0.410172 -0.463990 0.217469 0.229332 0.516333 0.072661 -0.008813 -0.161140 -0.081687 0.297375 -0.043515 0.005407 -0.054212 0.316849 -0.535803 -0.178850 -0.078002 -0.265548 0.322046 0.150781 0.278767 0.085541 0.421630 -0.150239 0.294217 0.159060 -0.437424 -0.182243 0.168829 -0.007499 -0.217684 -0.412449 -0.046270 -0.193982 0.400765 0.022105 0.164271 -0.300631 0.235530 -0.519325 -0.455127 0.084626 -0.290260 0.330547 0.421193 0.562189 0.809394 -0.235699 -0.297598 0.163032 0.009083 0.222303 0.139707 -0.392112 0.109763 -0.556063 -0.076734 0.082297 0.117448 0.125604 0.872545 0.114716 0.212650 -0.209177 -0.645905 -0.144619 0.591558 0.458472 0.042153 0.526786 -0.039092 0.330975 -0.017190 0.053616 0.312304 -0.110664 0.431550 0.033504 -0.084222 0.052078 0.246786 0.361645 -0.264108 -0.324372 0.296213 0.050758 -0.020991 -0.480974 0.087583 0.767474 0.443998 0.081202 0.278595 -0.342887 -0.126724 0.187861 -0.340749 0.285541 0.159350 0.413260 0.153140 0.108188 -0.250605 -0.458397 -0.117545 -0.126231 -0.057371 -0.333154 -0.194951 0.009610 0.164566 -0.284668 -0.019146 0.287680 0.100047 0.177739 0.397127 -0.217012 -0.217274 0.077388 -0.288251 0.754665 -0.355433 -0.017411 -0.374791 -0.432355 0.340963
ɡʷ 0.325507 -0.196565 -0.012482 0.091629 -0.163238 -0.025613 0.077050 -0.139806 -0.169948 -0.042398 0.015004 -0.181398 -0.075397 0.060388 -0.008670 -0.097216 0.242835 0.060930 0.024613 0.296613 -0.110185 0.075241 0.191117 0.163385 -0.242445 -0.031260 0.034573 -0.112503 -0.005017 -0.012688 -0.097097 -0.218834 -0.275973 0.126533 -0.082530 0.090018 0.031138 0.064592 -0.100910 0.070121 0.010621 -0.184803 -0.092329 0.186065 0.190034 0.299488 -0.090090 0.169548 -0.279385 0.285890 -0.026866 0.139170 0.114678 -0.057751 -0.121514 -0.303983 0.161553 0.014369 -0.236961 0.292314 -0.133437 -0.215202 -0.027574 -0.071953 0.048578 -0.117609 0.202594 -0.275440 -0.190486 -0.282013 -0.119006 0.244930 0.136262 -0.057504 -0.330640 0.282145 0.000307 -0.095758 -0.038031 -0.265376 -0.083916 -0.028246 -0.067452 0.066743 0.150353 -0.032606 -0.176045 0.054742 0.067211 0.331881 0.005062 -0.148958 -0.005895 0.015497 -0.175644 -0.075622 -0.092544 -0.025789 0.141508 0.264148 0.081750 -0.036985 0.140945 -0.180164 -0.064860 -0.327274 0.192826 0.357800 -0.071625 -0.136210 -0.094555 0.129822 -0.136950 0.111196 0.220245 0.237959 -0.083593 0.036334 -0.104214 0.007224 0.241602 0.276361 0.145677 -0.203356 0.056760 0.063996 0.084261 0.117563 -0.039059 -0.158085 0.015208 -0.000678 -0.282870 0.047537 0.252270 -0.004511 -0.014763 0.133894 -0.099200 0.310317 0.001205 0.143943 0.077328 0.117602 0.107354 0.142293 0.116210 -0.227415 0.033316 0.041950
ʐ -0.062100 -0.050130 0.106606 -0.190010 0.457783 -0.114552 -0.108393 0.180823 0.114568 0.376591 0.269153 -0.334118 -0.245181 0.226142 -0.389354 0.575303 0.257443 -0.117141 -0.457645 0.129131 -0.105441 0.169013 -0.283322 -0.423099 -0.128466 0.238342 -0.048191 0.441522 0.281826 -0.509829 -0.350730 0.312600 0.240489 -0.837825 0.016981 0.301310 0.226001 0.070336 -0.498557 0.238252 0.316961 -0.092971 -0.018890 -0.102832 -0.391362 -0.119790 0.096051 0.333347 -0.298103 -0.146611 0.199261 -0.055267 -0.120870 0.111257 0.168093 0.521720 0.270943 -0.166029 -0.260364 -0.112187 0.060919 -0.128532 -0.299556 -0.442365 -0.063163 0.232866 0.168352 0.080872 0.127671 -0.066875 0.086709 -0.834145 0.018654 -0.110150 -0.181583 0.532327 0.065144 -0.041763 0.386943 0.288607 -0.204561 -0.175453 0.039964 0.252725 0.136519 0.405497 -0.649413 0.076151 0.496691 -0.312549 -0.057008 -0.096067 0.064210 0.055155 0.046889 -0.180759 0.018074 0.600128 -0.500290 0.012478 0.010280 0.273172 0.223189 -0.151811 -0.091273 -0.163346 -0.001626 -0.167189 0.406560 -0.010670 0.572761 -0.068689 0.354978 0.296327 0.406262 -0.010683 0.088808 -0.035142 0.072816 0.087177 0.012482 -0.654229 0.176405 0.188576 -0.420505 -0.051311 0.111431 0.314679 -0.548408 0.267628 0.154559 0.045508 0.172872 0.123673 0.135759 -0.012443 -0.127213 0.068251 0.135207 -0.092582 0.307132 -0.197573 0.183265 -0.290087 -0.098740 -0.427757 -0.002413 0.218455 0.218341 -0.057286
sˤ 0.039908 -0.033186 0.092349 0.073890 -0.031230 0.038094 -0.114347 -0.019013 0.015542 0.092386 0.004605 -0.130899 0.022251 -0.043460 -0.015188 0.045500 -0.092558 -0.116915 0.021280 -0.032901 0.070651 -0.082920 -0.099270 -0.079311 -0.076336 0.101940 -0.114332 0.029887 0.085712 -0.117974 0.094827 -0.006104 0.077423 -0.114680 -0.091048 0.094920 0.030610 0.012274 0.056088 0.046724 0.079824 0.087807 -0.011010 0.069061 0.037838 -0.005982 0.060357 -0.020812 0.007348 0.020673 -0.105937 0.101045 0.092446 -0.045781 -0.025809 -0.013563 0.075503 0.113514 -0.026483 0.036364 -0.024513 -0.059145 0.060037 0.050084 0.041132 -0.077101 0.095024 0.134350 0.203059 -0.029070 -0.025498 -0.010717 0.005469 0.031259 0.185208 0.017215 0.007064 -0.018615 0.065263 0.054077 0.040379 0.011025 -0.061632 0.105877 0.036292 0.061792 -0.184540 -0.016788 0.017648 -0.042372 0.011502 -0.068063 -0.065627 0.045705 -0.069191 -0.085017 0.048540 -0.053998 -0.089200 -0.038015 0.095294 0.030006 -0.054448 0.044889 0.167240 0.161559 0.063012 0.084189 -0.013057 0.056074 0.084480 -0.044469 0.213432 0.055345 -0.037636 -0.000131 -0.015766 -0.103655 0.036442 -0.042879 0.155223 0.079603 0.037605 -0.062215 -0.000898 -0.143075 0.014649 -0.067951 -0.050243 0.092927 0.099672 -0.054591 -0.054783 0.115875 -0.015307 0.094792 0.020697 -0.109988 0.012577 0.065191 -0.105054 -0.029031 -0.063795 -0.074562 -0.047545 -0.059081 0.083048 -0.040564 0.076281 -0.096752
f 0.041918 -0.271506 0.280792 -0.320091 0.309062 0.428624 0.109720 0.175169 0.467484 0.183324 -0.391535 -0.043251 0.139983 0.806704 0.213976 -0.056839 -0.003362 0.301282 0.258253 0.394051 -0.390046 0.065847 0.540273 -0.333919 -0.320978 -0.068285 0.669144 0.035096 -0.179035 0.271238 -0.100263 0.298816 -0.057330 -0.396124 0.515141 -0.692779 0.566529 -0.075838 -0.668848 0.378721 -0.327892 0.401498 0.065990 0.351190 -0.016725 0.259317 -0.252294 0.251539 -0.583518 -0.178694 0.223924 -0.324946 -0.209911 0.405071 -0.054442 -0.931092 0.095774 0.201100 -0.397346 0.509827 0.310987 0.121937 0.422137 -0.081113 0.655004 0.615183 0.342921 -0.411547 -0.331075 -0.367562 0.372122 0.098802 0.391069 0.060755 -0.562482 1.095438 0.381924 0.455558 -0.287889 0.175964 -0.560973 -0.163949 -0.236004 -0.184444 0.070267 0.303098 0.077307 -0.214654 0.115156 0.264163 -0.002188 0.181590 0.049730 0.080394 -0.250699 -0.033276 0.461639 -0.151776 0.466580 0.842310 -0.196026 0.389775 0.637552 -0.265016 0.210339 -0.682430 0.161352 -0.422875 -0.053118 0.134746 0.284806 0.372335 -0.161020 0.542966 0.434763 0.413595 -0.554923 -0.038161 -0.136941 0.196392 -0.093170 1.047934 -0.021014 -0.770981 0.020698 0.851661 -0.080803 0.414347 -0.328918 -0.210393 0.344996 -0.166953 0.268956 0.152299 0.379667 0.079012 0.011297 0.398269 -0.196263 -0.389501 0.360674 -0.329560 0.216875 0.485273 0.152588 0.127282 0.226862 0.550859 0.490072 -0.351579
ʃʷ 0.210749 -0.049240 -0.110055 0.159418 -0.320565 0.243593 -0.105307 0.004966 0.088793 0.171736 -0.126347 -0.014456 0.167743 -0.122620 0.038478 -0.057703 -0.052591 0.054595 0.186515 0.218496 0.201228 -0.182503 0.086947 0.150359 -0.049156 0.037807 -0.032991 -0.117075 0.083403 0.081421 0.018795 -0.125571 -0.008170 0.188631 0.095494 0.231332 -0.025166 -0.189566 0.056406 0.034541 -0.120014 0.105506 0.020474 0.049558 0.240955 0.012352 0.275821 -0.079924 -0.235295 0.001316 -0.297333 0.156889 0.128686 0.083853 -0.211691 -0.102676 0.047890 0.288672 -0.190127 0.031784 -0.152719 0.038081 -0.042857 -0.172559 -0.041731 -0.042617 0.111535 0.089371 0.078246 -0.179199 0.178024 0.119899 -0.076298 0.168068 -0.066424 0.225518 0.111782 0.045347 0.025193 -0.210775 -0.115810 0.005088 -0.126860 -0.048496 0.152255 -0.105409 -0.124307 0.078225 -0.226747 0.044411 0.062683 -0.023984 -0.080740 0.186361 -0.289684 0.046958 0.038408 -0.095146 0.256494 0.125446 0.041701 -0.008127 -0.041118 0.073277 0.012663 -0.066314 0.021917 0.273499 -0.008583 -0.071305 -0.130741 0.044349 0.138837 0.123545 -0.001191 0.111132 0.233066 -0.164554 0.104220 -0.049685 0.113305 0.275611 0.166232 -0.010861 0.147206 0.066498 -0.091875 0.065437 -0.108403 -0.139829 -0.189757 -0.025642 -0.193931 0.072202 0.111406 0.005624 0.073731 -0.003874 0.118011 0.159422 -0.171324 0.380636 -0.096603 0.046218 0.147200 -0.137028 0.243125 -0.054787 -0.093367 -0.184810
kʲʼ 0.101735 0.113390 0.032315 -0.036814 0.042812 0.016858 0.114198 -0.032213 -0.036709 0.077728 0.018907 -0.019597 0.008306 -0.172674 -0.089915 -0.047185 -0.078125 0.116514 0.018947 0.027498 0.127586 -0.012523 -0.092318 0.084171 -0.000184 0.108552 0.055773 0.064128 0.074001 0.174141 -0.000029 -0.098413 0.075284 -0.186202 0.091479 0.151659 0.100175 -0.119682 -0.182497 0.021650 0.002505 0.130529 0.096447 0.122277 -0.023955 0.173248 0.085410 0.116862 -0.032236 0.066211 -0.059953 0.021450 -0.070640 -0.190899 -0.082697 -0.014606 0.074422 0.226450 0.184414 -0.024890 -0.034482 -0.202745 -0.051570 -0.110991 0.029311 0.010274 0.087959 0.089967 0.282676 0.066924 -0.009983 -0.067535 0.143416 0.013353 -0.079352 0.122539 -0.209496 -0.137081 -0.018183 -0.014836 0.077940 -0.019872 0.040850 0.154372 0.042212 0.077468 -0.212935 0.082430 0.009014 0.138398 0.083704 -0.119765 0.041854 -0.035881 0.010290 0.048050 -0.029131 0.073745 -0.008265 0.032884 0.174203 -0.044565 0.107104 0.077456 0.093760 -0.043213 0.025133 0.158794 0.038195 -0.065715 -0.217928 -0.005070 -0.009008 0.218353 0.096201 0.027163 0.000420 -0.187620 0.200938 0.039547 0.177421 0.085944 0.154412 0.174160 0.020611 -0.014019 -0.086767 -0.087532 -0.007072 -0.046550 -0.130823 0.028179 -0.003054 -0.017939 -0.160957 0.070122 0.013251 0.042343 0.204770 0.228221 -0.033475 0.076877 -0.040186 0.099695 -0.019741 -0.007492 0.078115 -0.224080 0.064868 -0.041521
pʼ 0.077200 0.107290 -0.008337 -0.039478 0.062701 0.066678 -0.053643 0.106588 -0.065011 -0.166990 -0.056139 0.008593 0.050453 0.296793 -0.031150 -0.024190 0.076493 0.044495 0.100483 0.122270 0.218204 -0.046907 0.180485 -0.099000 -0.078679 -0.118890 0.068743 0.156605 0.091489 0.124315 -0.051424 0.000648 0.019538 -0.097750 0.198540 0.064187 0.325252 -0.358876 -0.343185 0.115745 -0.010676 0.261863 0.034346 -0.018074 0.223522 0.164110 0.058590 0.283057 -0.107922 -0.037353 0.072924 0.209455 -0.221926 -0.030297 -0.063923 -0.114581 0.192949 0.038306 -0.347195 0.030833 -0.191942 -0.178697 -0.247196 -0.140630 0.222517 -0.081807 0.164846 0.081889 0.062840 0.010614 0.112304 -0.285411 0.180015 -0.167781 -0.107280 0.410321 0.274239 -0.121749 -0.255661 -0.126208 -0.187580 -0.053628 -0.182424 0.175916 -0.010272 0.075796 -0.411895 -0.032588 -0.048642 0.218635 -0.046000 0.078666 0.263192 -0.033152 0.043708 -0.066989 0.036843 0.145690 0.112695 0.347504 -0.028195 0.017919 0.132653 0.178970 0.275906 -0.198845 0.044576 0.043029 -0.116510 -0.187517 -0.032740 0.055930 0.371355 0.313756 0.131110 0.069882 0.051731 0.063474 0.099057 -0.091573 -0.002300 0.133147 0.168782 -0.144728 0.027427 0.099796 -0.057935 0.009408 -0.234985 0.122215 0.142902 -0.126425 0.121094 0.197318 0.066961 0.117782 -0.025989 -0.001172 0.035571 0.259296 0.354834 -0.095053 0.059956 0.076709 0.083896 0.143629 -0.015969 -0.130798 -0.160577 -0.126311
kʷʼ 0.166262 0.111567 0.143507 0.048274 -0.057092 -0.079747 0.122735 0.033317 -0.089570 -0.071873 0.130150 -0.047250 -0.251765 -0.107216 -0.059355 -0.160834 0.118503 -0.055185 -0.010961 0.265018 -0.046425 -0.005178 0.029251 0.055710 -0.218314 0.078821 -0.027488 -0.005189 -0.120343 0.092839 -0.050297 -0.162466 -0.191157 -0.080214 -0.168100 0.051765 -0.011404 0.116597 -0.093771 0.163747 0.148725 0.102383 0.067736 0.128115 0.161281 0.357549 -0.049182 0.170633 -0.037828 0.105551 -0.054645 0.107461 -0.072867 -0.034373 -0.220178 0.008500 0.110163 0.036655 -0.017041 0.164833 -0.121632 -0.027419 -0.037630 -0.054369 -0.019761 0.103585 0.330666 -0.020929 0.097955 0.202720 -0.034685 0.005517 0.007832 0.200899 -0.118416 0.207585 -0.103099 -0.165443 0.020188 -0.036997 0.022424 0.136934 0.027382 0.068673 0.250815 -0.032504 -0.250919 0.134171 0.115006 0.208326 0.066330 -0.094730 0.195560 0.065722 -0.237537 0.049945 -0.145750 0.047311 0.092721 0.197461 0.046317 -0.086055 0.026487 0.157971 0.034428 -0.279860 0.051361 0.117930 -0.134434 -0.111073 -0.122197 0.018696 0.042854 0.228043 -0.024131 0.058085 -0.007454 -0.042839 -0.073801 0.061586 0.076552 -0.032073 0.185501 -0.224371 -0.028256 -0.107184 -0.103205 0.073504 -0.047444 -0.276771 -0.004280 -0.093233 -0.114869 -0.044185 -0.002231 0.055303 0.124266 -0.058422 -0.010968 0.309851 0.063531 -0.001405 0.250172 0.115473 0.100302 -0.112504 0.179911 -0.141562 0.072726 0.031339
tʼ -0.020509 -0.028543 -0.021802 -0.009683 0.056143 -0.079031 0.040426 -0.033517 -0.009852 0.086983 0.070324 -0.005079 0.134323 -0.112624 0.039669 0.144821 -0.053158 0.060473 -0.046157 0.033139 0.083588 0.070787 0.045613 0.032169 0.084560 0.194654 0.157125 0.190430 0.144620 -0.009746 -0.050422 -0.126262 0.092390 -0.157465 0.172068 0.014536 0.216785 -0.051925 -0.043045 0.020083 0.001652 0.066598 0.023143 0.146908 -0.099197 0.002588 -0.018830 -0.019545 0.002844 0.023739 0.023739 0.024034 0.003168 -0.139756 -0.121970 -0.006531 0.042587 0.089748 0.151910 -0.098190 -0.048542 -0.032539 -0.085671 -0.199692 -0.036410 -0.031999 0.041688 0.118283 0.143442 -0.002066 0.039950 -0.150971 0.125697 -0.020038 -0.074990 0.191728 -0.059621 -0.055750 -0.068130 0.052542 -0.074276 -0.087857 0.045310 0.130227 -0.013852 0.012115 -0.105947 -0.059090 0.041175 -0.033262 0.032817 -0.061147 0.075599 -0.043029 0.122318 -0.005280 -0.045045 -0.015638 -0.128674 -0.026712 0.200609 -0.137612 -0.038671 0.039719 0.143501 -0.029143 -0.084957 0.025805 -0.013475 0.015397 -0.006316 0.006797 -0.047519 0.102309 0.151834 -0.016607 0.079075 -0.155773 0.154629 0.028161 -0.086481 -0.026457 0.096625 0.150787 0.104256 -0.116201 0.000526 -0.173672 -0.150291 0.122703 0.027383 -0.007052 -0.077666 0.052882 -0.049645 0.066087 0.081668 0.039112 0.119552 0.212973 -0.008900 0.093820 0.003616 0.046932 0.088897 -0.010115 0.043844 -0.187307 -0.038923 -0.057457
sʷ 0.065011 -0.200087 0.024177 0.065651 -0.109474 0.182953 -0.155825 -0.004573 -0.014066 -0.100446 0.080319 -0.106672 -0.022282 0.015501 0.049597 -0.221279 0.108608 -0.006540 0.096588 0.072629 -0.069187 -0.086505 0.173448 0.140561 -0.100042 0.027714 -0.007768 -0.082315 0.082315 0.113636 -0.068695 -0.141808 -0.116260 -0.055077 0.107355 0.202359 -0.040786 -0.014707 -0.023553 0.067129 -0.031649 -0.007245 -0.147247 0.185567 0.215631 0.068416 0.031544 0.003363 -0.280577 0.116764 -0.069137 0.079185 0.051564 0.017769 0.018522 -0.125525 -0.056163 0.242299 -0.201510 -0.033210 -0.034607 -0.063933 -0.074957 -0.124983 -0.069464 0.034103 0.120731 -0.152125 -0.062995 0.007902 -0.006792 0.063227 0.113770 -0.000887 -0.125696 0.299653 0.059624 -0.110776 -0.095426 -0.055917 0.040742 0.004339 -0.030211 -0.124120 0.152405 -0.122677 -0.232563 -0.060792 -0.029193 0.149629 0.174079 -0.084235 0.018214 0.127138 -0.207650 0.037350 -0.055260 0.042011 0.138166 0.256232 0.027046 0.093165 -0.024482 -0.004073 -0.069898 -0.098685 0.095310 0.190059 -0.094907 -0.108949 0.090795 0.148703 0.001526 0.068379 0.072410 0.173238 0.003714 0.010934 -0.021888 0.022419 0.053697 0.182221 -0.040679 -0.021464 0.098476 -0.027089 0.021613 0.050409 -0.059042 -0.063125 -0.058708 -0.014678 -0.100408 -0.013374 0.192316 0.063707 -0.118139 -0.130212 -0.022747 0.261954 -0.056458 0.139463 -0.034693 0.038908 0.077026 0.002075 0.129847 -0.042605 -0.045005 -0.018220
qʷ 0.243172 0.018727 -0.033865 0.032130 -0.076615 -0.209030 0.001156 -0.006618 -0.040005 -0.052705 0.179838 -0.057739 0.158788 -0.037238 0.012008 0.043896 0.106714 -0.092943 0.109305 0.399524 0.014424 -0.073467 0.156387 0.159140 -0.229196 0.078553 0.091801 0.031265 0.032948 0.082934 -0.071552 -0.121249 -0.158035 -0.021734 -0.002097 0.104813 0.204037 0.039425 -0.176499 0.196733 0.014051 -0.017154 -0.007872 0.086281 0.186988 0.142939 -0.052312 0.137279 -0.206977 0.061276 -0.043477 0.098005 -0.103388 -0.138205 -0.167355 -0.126440 0.135253 0.073942 -0.151291 0.156081 -0.140630 -0.008547 -0.149051 -0.173611 -0.017925 -0.073155 0.267801 -0.054436 -0.069252 0.074073 -0.038039 0.091426 0.080763 -0.004599 -0.259713 0.257511 -0.138094 0.043762 -0.021592 -0.068612 0.080152 0.084353 -0.120270 0.131999 0.299500 -0.092939 -0.183697 -0.143632 -0.115332 0.103833 0.024990 -0.003804 0.218852 0.175391 -0.149460 0.134711 0.033128 -0.115768 0.121132 0.230127 0.028195 -0.032915 0.032681 0.070503 -0.118105 -0.155956 0.012417 0.105232 -0.201915 -0.050861 -0.074612 0.185726 0.173433 0.028627 0.129489 0.125839 -0.215100 -0.150526 -0.173534 0.035444 0.022826 0.142769 0.051349 0.035731 0.021659 0.207970 -0.155144 0.076056 -0.132177 -0.173784 0.013457 -0.079699 -0.042463 -0.066568 0.131089 0.091783 0.097790 -0.015656 0.031047 0.093531 0.058859 0.078827 0.098351 0.107923 0.041086 0.012291 0.197942 -0.124105 0.002906 -0.051500
ɮ 0.067268 -0.168856 0.040770 0.034828 -0.214542 0.018673 -0.138352 0.027229 0.062187 -0.022782 0.060455 -0.067373 -0.030209 -0.068730 0.121557 -0.023840 0.060425 -0.044349 0.056156 0.018144 -0.083209 -0.119491 0.168596 0.096218 -0.024027 -0.057199 0.172653 -0.127896 0.017497 0.114969 0.068378 -0.059838 -0.079351 0.091691 0.055052 0.118130 -0.050828 0.015145 0.096203 -0.016270 0.042790 0.113124 -0.164208 -0.004938 0.014055 -0.016278 0.080708 -0.078659 -0.072576 0.170171 -0.146708 0.092952 0.090712 -0.033611 -0.052469 0.007122 -0.033170 0.121001 -0.162467 -0.114815 -0.004245 -0.064925 -0.000941 0.026110 -0.000377 -0.008143 0.097245 0.034667 -0.052830 -0.069444 0.105074 0.123188 -0.103670 -0.028096 -0.067924 0.095877 0.085612 -0.031432 -0.084998 -0.094925 -0.190173 0.012153 0.031977 0.011780 -0.024040 -0.056172 -0.080091 -0.037739 -0.032397 -0.048805 -0.014246 0.030110 -0.094666 -0.074662 -0.156900 0.007139 -0.016955 -0.134733 0.026917 0.027368 0.088357 -0.021490 -0.057843 0.065500 0.008324 -0.091554 -0.008671 0.054496 0.103796 -0.074652 -0.034363 -0.004843 -0.015652 0.057245 0.057120 0.067008 0.134107 -0.069954 -0.015843 -0.143453 0.120516 0.105332 0.077884 -0.166270 0.071861 0.088437 0.124795 -0.005796 0.025360 0.010139 -0.189014 0.201383 0.046493 0.081280 0.009037 -0.054007 -0.028423 -0.006138 0.010196 0.139229 0.019698 0.200755 0.006690 0.077059 0.032695 0.059303 0.049973 0.104780 -0.102016 -0.030632
rʲ 0.239592 -0.005678 0.068783 -0.017076 -0.680846 0.184903 -0.245868 0.093092 -0.534280 -0.111676 0.172641 -0.296877 0.051500 -0.221901 0.020196 -0.092555 -0.115040 -0.186113 0.219544 0.061727 -0.142267 0.074696 0.228822 0.446574 -0.151012 0.018931 0.165108 -0.351778 0.311949 0.289429 0.024422 -0.116115 -0.083198 0.107570 0.435405 0.344257 0.173610 -0.113780 -0.278537 0.168426 0.004592 0.076953 -0.339987 0.020332 0.287703 0.342736 0.179607 -0.293433 -0.349028 0.635443 -0.426096 0.223151 0.027244 -0.301688 -0.079974 -0.207903 0.057439 0.346737 -0.179935 -0.156674 -0.019549 -0.404456 -0.104589 -0.152470 -0.309656 -0.140761 0.435423 0.125339 0.308642 -0.200392 -0.096320 0.085375 0.160361 0.027675 -0.220581 0.183908 0.175043 -0.210236 0.004341 -0.136621 -0.410056 0.169102 -0.068705 -0.163392 0.321787 -0.028765 -0.242689 -0.165631 -0.129745 0.230902 0.138888 -0.152125 -0.205727 -0.062712 -0.194808 0.353749 -0.289164 0.079167 0.106919 0.207748 0.071789 -0.309504 -0.366739 0.175257 0.463083 0.158143 0.194840 0.305936 -0.191294 -0.159044 -0.095374 0.363841 0.073275 -0.107191 -0.081920 0.351099 0.466375 -0.316511 0.282987 -0.011269 0.269462 0.220292 0.134124 -0.176544 0.195767 0.304962 0.055548 0.272139 0.081664 -0.237460 -0.010163 0.309201 -0.161047 -0.102780 -0.051033 0.252330 0.008147 -0.017111 -0.184625 0.438764 0.032673 0.558847 0.037151 0.270220 0.188987 0.103825 0.467829 -0.011924 -0.153327 -0.258117
