<aar> -0.065903 0.028487 0.074190 -0.088875 -0.087196 0.084754 -0.101761 -0.051250 -0.046855 0.027652 0.054893 -0.004648 -0.010396 -0.055107 0.059540 0.110934 0.093727 -0.054822 0.149776 0.140352 0.090935 -0.080320 0.092261 0.003806 0.062880 -0.069635 -0.022663 -0.017433 0.046026 0.021153 -0.003157 -0.041738 -0.041321 -0.033795 0.037308 -0.093220 -0.097930 -0.011690 0.020755 0.082335 -0.112156 -0.016002 0.111468 0.006984 -0.052678 0.024843 -0.041520 -0.030665 -0.114604 -0.049190 -0.018065 0.006542 -0.046405 -0.077083 0.015100 0.017940 -0.043576 0.029239 0.023441 -0.019980 0.112366 0.037304 -0.033363 -0.038685 0.082535 -0.073825 0.104977 0.075517 -0.090073 0.021925 0.028967 0.130355 -0.029037 -0.063436 -0.113249 0.054335 -0.042346 -0.041817 0.003466 0.142716 -0.027259 0.056591 -0.112107 0.083025 -0.057264 -0.009377 0.149738 0.025619 -0.076168 -0.141121 -0.125175 0.085503 -0.105581 -0.068988 0.106636 0.121623 0.084497 0.050524 0.031298 -0.005457 0.011940 0.012369 0.083244 0.059298 -0.029563 -0.046028 0.015219 -0.028606 -0.081150 -0.092372 -0.064633 -0.071139 -0.018138 -0.049247 -0.062447 0.085335 0.040229 -0.009470 0.029423 0.070308 -0.021230 0.083732 0.072254 0.017785 0.029350 0.123167 0.000586 -0.096859 0.129181 -0.084087 -0.018882 -0.047016 -0.029162 -0.093174 -0.098924 -0.108396 0.016847 0.081537 0.123919 0.001528 0.031656 0.050503 -0.144562 0.004283 0.045553 -0.222023 0.141594 0.019466 -0.138092 0.037785
<abk> 0.488267 -0.054585 0.084698 0.192680 -0.155725 -0.003793 0.172971 -0.193621 0.076077 0.141279 0.054883 0.058415 0.176844 0.177358 0.060450 0.220638 0.234654 -0.020532 -0.311807 -0.140320 0.131444 -0.087081 0.121201 -0.007124 0.098037 -0.082374 -0.221651 -0.133281 0.054891 0.057597 0.037157 -0.098139 0.053271 0.025667 -0.051993 0.185198 -0.047695 0.150814 -0.167613 -0.143786 0.233911 -0.157555 -0.139390 -0.039218 -0.020540 -0.035872 0.223156 0.001329 0.005758 0.054226 -0.008761 -0.099118 0.089199 0.048531 0.190300 -0.311004 0.133824 -0.181608 0.142693 -0.116613 -0.122641 -0.111095 0.197538 0.042496 0.143629 0.119103 0.113711 -0.205215 0.150705 -0.172129 0.094659 0.024798 -0.228236 -0.305953 0.003118 0.157674 0.195811 0.153888 0.351625 0.108818 -0.031093 0.250650 -0.173391 0.158206 0.126732 -0.081387 0.151605 -0.189278 -0.119272 -0.131862 -0.012755 -0.078334 -0.012571 -0.018304 -0.018159 -0.075532 0.106801 -0.102438 0.071320 -0.217797 0.105511 0.049337 -0.152171 0.185683 0.040919 0.016917 0.112791 -0.044441 -0.112164 -0.007729 -0.061137 -0.114947 -0.218796 -0.196593 0.133632 0.059742 -0.072058 -0.036556 -0.350088 0.103454 -0.002963 -0.178067 0.081710 0.084690 0.176585 0.125909 0.162011 -0.162955 -0.098501 0.011236 -0.185773 -0.168572 0.196137 -0.000640 0.177002 0.103418 -0.090079 -0.093589 -0.174006 -0.110503 0.050900 -0.211164 0.254963 0.493909 -0.042167 0.038246 0.038982 -0.122238 -0.074145 0.128552
<aby> 0.108510 0.104229 -0.235757 0.070954 -0.004455 0.134863 0.077090 -0.035786 -0.062677 0.047897 -0.026676 0.013017 0.023919 -0.000854 -0.089417 -0.214821 0.098244 -0.056303 0.136552 -0.119894 0.086990 -0.011892 -0.151407 0.129083 0.028006 0.392955 -0.083987 -0.176584 -0.151131 -0.113978 -0.198820 -0.246566 -0.008359 0.111353 -0.121429 -0.048304 0.002586 0.157851 0.073912 -0.077084 0.240531 0.111832 0.009477 0.162184 0.099810 -0.060641 -0.018812 -0.026640 0.199580 0.124251 0.029007 0.125979 -0.072668 0.164417 0.123617 -0.142794 -0.096074 0.071095 0.034220 -0.085157 -0.041566 -0.062017 0.030865 -0.107255 0.144592 0.178864 -0.028615 -0.053652 -0.032811 -0.127071 0.009456 -0.147611 -0.138673 0.089676 -0.017888 0.035966 0.146436 -0.132648 -0.060542 -0.107237 -0.110827 -0.015271 -0.198966 -0.105892 -0.038911 -0.056715 -0.054907 0.145286 -0.237976 0.074723 -0.118468 -0.062155 -0.051738 -0.273934 0.245739 0.032290 0.137219 0.107876 -0.022776 -0.134507 0.066452 -0.033802 -0.064622 0.065793 0.011993 0.148575 0.086874 -0.132469 -0.012540 -0.056907 0.008735 -0.124356 0.133236 0.057908 0.158570 -0.236225 -0.019071 0.244394 0.173707 0.189973 -0.135372 -0.010559 -0.133275 0.004377 0.074579 -0.056401 -0.067130 0.228879 0.003151 0.072385 0.073674 0.010127 0.018943 0.061212 0.014947 0.068770 0.142205 0.019956 0.188517 0.047235 -0.007582 0.064263 0.013992 -0.093609 0.140180 0.185350 -0.168341 -0.041430 -0.074239 -0.097049
<ach> -0.097807 -0.057335 0.022047 0.038381 -0.071750 0.028023 -0.104503 -0.005551 0.015271 -0.027576 0.041022 -0.049633 0.018180 0.084661 -0.002088 -0.152001 0.108656 -0.032482 0.077371 0.066666 -0.065563 -0.110203 -0.098905 0.030057 -0.063656 0.065191 0.046889 0.125241 0.063320 -0.015443 -0.012925 -0.037520 -0.063935 0.063597 0.071593 -0.025999 -0.019735 -0.098572 0.111767 0.029154 0.100407 0.076050 -0.076629 0.112773 0.031543 -0.029892 -0.042962 -0.113335 0.124533 -0.073102 0.011262 0.061226 -0.066162 -0.007091 -0.005400 0.074165 -0.088294 0.105706 -0.045108 0.052792 0.046587 -0.087153 0.079474 -0.072794 0.025855 0.089759 0.038732 0.083040 0.134383 -0.161540 0.100774 0.099877 -0.143386 0.057940 0.010405 -0.096684 0.066946 0.022693 -0.063532 -0.101850 -0.026234 0.059741 -0.067947 0.026148 -0.044402 0.079261 0.108326 0.021213 -0.043927 0.018447 0.004518 -0.030531 -0.048814 -0.050834 -0.139260 0.018501 0.069833 -0.052922 0.038905 0.053289 0.099638 0.028952 0.088816 -0.020316 0.016187 0.064046 0.014084 0.066961 -0.046210 0.062303 0.032786 0.091996 0.015300 -0.045735 -0.037544 0.016292 -0.036851 0.078292 0.110493 0.020739 -0.089420 0.024547 0.095983 -0.107544 -0.062594 -0.004893 0.004708 -0.046981 -0.061802 -0.046503 -0.002267 -0.089586 0.091890 0.045993 -0.034301 -0.039919 -0.023101 -0.041573 -0.052696 -0.086103 0.010434 -0.075241 0.053549 -0.037037 0.078220 -0.059746 -0.051844 0.044125 -0.018317 0.084009
<ady> 0.002905 0.193088 0.356423 0.470005 -0.021147 0.187017 0.201377 -0.858283 0.219984 0.652659 0.132218 -0.133361 0.084742 0.318004 -0.248394 0.511875 0.563088 0.336602 -0.658334 -0.231190 0.070557 -0.536263 0.264280 0.247139 0.362603 -0.161757 -0.163082 -0.711623 -0.133745 0.115523 -0.422764 -0.267821 -0.113170 0.096621 -0.319803 0.160296 -0.218906 0.079053 0.014146 -0.340853 -0.093466 -0.153834 -0.096035 0.633346 -0.333244 -0.556713 0.446622 -0.188308 -0.056637 -0.157564 0.085911 0.069766 0.190451 0.653620 -0.132823 -0.290246 -0.540437 0.096173 0.698122 0.345514 -0.140786 -0.018593 0.239114 0.555723 0.883922 0.181751 0.489056 0.275670 0.938988 0.163680 0.094210 0.324902 -0.948907 0.482118 -0.029044 0.356555 0.612542 -0.094653 0.801274 0.123197 -0.548607 0.702148 -0.001254 -0.147637 0.305016 -0.036755 -0.226860 0.006978 -0.618553 0.566180 0.462126 0.124364 0.099053 0.554570 -0.506436 -0.018789 -0.111294 0.376020 0.339936 -0.698919 0.229645 -0.177558 -0.259828 0.088348 0.129964 -0.257482 0.485036 -0.087058 0.360534 0.160934 -0.406796 -0.343349 0.014634 -0.108477 0.179232 0.302982 0.267317 0.166548 -0.134172 0.232874 0.771572 -0.490486 -0.189817 0.250030 0.480325 -0.005477 0.178927 0.097928 -0.337478 -0.217284 0.387154 -0.055361 0.373371 0.089755 0.432777 -0.462523 0.325462 -0.181501 0.349536 -0.373129 -0.146951 -0.053333 -0.435610 0.549299 -0.048380 0.711595 0.210332 0.278319 -0.637295 -0.328848
<aek> 0.081820 0.036239 0.034147 -0.041321 0.050799 0.047610 0.115813 -0.086414 0.192612 0.181597 0.032056 -0.103993 0.107884 0.087782 -0.094457 0.036371 -0.069358 -0.051444 0.021454 0.036832 -0.052646 0.106748 -0.137780 0.078077 -0.020400 0.114767 -0.078996 -0.077253 -0.110586 0.119204 -0.007146 -0.133780 0.012744 0.008824 0.002946 0.075997 0.153324 -0.064065 0.127614 -0.064902 0.133481 0.052168 -0.056331 0.082396 0.091313 0.107177 0.060372 0.021057 0.008242 0.055498 0.048828 -0.016916 0.075212 0.135824 0.070253 -0.017828 -0.004641 -0.011542 0.034716 -0.001737 -0.118473 0.104173 0.071946 0.049943 -0.047453 -0.032442 0.054011 0.047472 0.074498 0.090139 0.027991 -0.026591 -0.159492 -0.004626 -0.082378 0.108695 0.039305 -0.139507 0.136206 0.001771 -0.127715 0.045152 -0.040676 -0.082303 -0.150798 -0.085278 0.015407 0.031679 -0.114434 0.032061 0.029336 -0.034113 0.111224 0.005368 0.040559 0.048272 0.053958 -0.013098 0.088614 -0.079803 0.022502 0.132522 0.040214 0.012449 -0.046112 -0.153227 -0.004737 -0.008435 0.129305 0.077865 -0.026854 -0.036485 0.022911 0.026882 0.110616 -0.024920 -0.003891 0.115572 -0.240724 0.013792 0.022056 -0.162234 0.115123 0.021668 0.020320 -0.019701 0.045123 -0.107666 -0.086587 -0.078751 0.209152 0.017377 0.099757 0.068411 0.117890 0.153828 -0.175406 0.069764 0.016421 -0.037893 -0.004410 0.028552 -0.015774 -0.077296 -0.021749 0.033894 0.062079 0.055564 0.039181 0.001236
<afr> -0.236418 0.242044 -0.151135 0.138717 -0.631931 -0.176281 -0.175460 0.467677 0.033956 0.847934 0.001391 0.426037 -0.225028 -0.031086 0.267236 -0.001042 0.219467 0.013770 0.239367 0.058499 0.211187 -0.384285 0.007769 -0.000063 0.051915 0.397503 0.170403 -0.736190 0.054404 0.030688 0.320720 0.672753 0.361115 -0.083701 -0.047596 0.021248 -0.144676 -0.082305 -0.036654 -0.375201 0.297913 0.091964 0.355119 -0.120225 -0.186869 -0.010157 -0.383250 -0.200773 -0.294899 -0.691610 0.004318 0.279287 0.266640 0.250214 -0.368827 -0.144122 -0.070292 0.111718 0.310126 -0.322131 -0.556141 0.063201 -0.822406 0.417134 -0.088644 -0.471871 -0.455172 -0.433055 -0.139886 -0.140623 0.023847 -0.098336 0.698254 -0.032230 -0.176472 0.328509 0.034392 -0.278558 -0.333454 -0.740909 -0.027301 0.072615 0.249532 -0.312399 -0.079454 0.352069 -0.088292 -0.251749 -0.161665 0.234383 0.969986 0.420429 -0.177183 0.336029 -0.556226 0.541599 0.076606 0.039139 -0.069170 0.348480 0.036762 0.277032 -0.087047 0.022385 -0.000328 0.212046 -0.608730 0.208296 -0.356941 0.001089 -0.369258 -0.198164 -0.089450 -0.363665 -0.299278 0.137449 -0.089213 0.436397 0.432807 0.212544 0.285354 -0.119055 0.291620 0.120177 -0.435803 0.194186 -0.310181 -0.103507 0.515100 -0.217241 0.097731 -0.356231 0.452098 0.289830 -0.286039 0.052571 -0.420367 0.181664 -0.033046 0.009388 0.408709 0.086757 -0.380013 -0.436045 -0.429456 0.162165 -0.001702 0.233128 -0.586151 0.339070
<agm> -0.109564 0.020332 0.004615 0.186559 0.087024 -0.076149 -0.018715 0.003100 -0.018990 0.005227 0.108763 -0.127735 -0.034218 -0.045892 0.064548 0.117822 0.049631 0.010879 0.038917 -0.072514 -0.035603 0.215822 -0.172468 -0.035810 0.117555 -0.070035 0.053297 0.021864 0.208401 0.000835 0.000715 -0.038443 0.058284 -0.010340 0.111041 -0.138695 0.103324 -0.135521 -0.027548 -0.080931 0.030426 0.011334 0.051797 -0.030430 -0.042385 0.075184 0.065686 -0.079513 -0.181247 0.083654 -0.019174 -0.063272 0.013765 0.005806 0.063350 0.092124 0.066683 -0.052802 0.083145 0.030989 0.063774 0.111262 0.010672 0.036351 -0.052791 -0.060706 0.116325 0.062910 0.049361 0.110256 -0.076052 0.014943 -0.016943 -0.052250 -0.072392 -0.003152 0.076598 0.116647 -0.005134 -0.028394 0.037531 0.060470 -0.058806 -0.046722 -0.095686 0.021454 0.177158 0.038015 0.018407 0.036277 -0.078487 -0.095412 0.147680 0.103745 0.121903 -0.045092 -0.072227 0.021819 0.125456 -0.030188 -0.029334 0.068012 -0.094479 -0.036059 0.063084 -0.079386 -0.022834 -0.014598 0.023974 0.072278 0.061523 0.156681 0.024913 -0.047354 -0.103110 0.082613 -0.044337 0.040085 -0.129438 0.164978 -0.035027 0.023029 -0.005001 0.085542 -0.028559 -0.036932 0.008772 -0.137442 0.074283 -0.157225 0.102270 0.149376 -0.053145 0.135863 0.025734 -0.011755 -0.025835 -0.017811 -0.026036 -0.102192 0.134407 -0.052622 -0.017878 0.027271 0.076930 0.029752 -0.040753 0.037330 0.131225 -0.083138
<aht> -0.012307 -0.018897 0.129515 0.300963 -0.014467 -0.248933 0.064027 -0.005733 0.142528 0.159629 0.049980 -0.055281 -0.003866 -0.045363 0.327495 0.085246 -0.012664 -0.024532 -0.291318 -0.292902 -0.147454 0.004397 -0.123845 -0.121384 0.141100 -0.239754 -0.163496 -0.096274 -0.002232 -0.019016 0.072658 -0.045667 -0.220096 -0.161604 0.232410 0.054480 0.092824 0.021254 0.107427 -0.074708 0.063679 -0.137705 0.002322 -0.143605 -0.124334 0.108589 0.165376 0.124158 -0.091422 0.024282 -0.072109 0.135111 -0.108588 -0.202391 0.046158 0.012587 0.119228 -0.106211 0.029961 -0.014375 -0.214545 -0.068387 -0.085415 -0.017145 0.234710 0.277201 -0.150805 0.073723 -0.158126 0.015399 -0.189465 -0.068748 -0.213614 -0.122936 0.081635 0.216594 0.074393 0.024259 0.270383 -0.003916 -0.094148 0.091868 -0.080331 0.338767 -0.043758 -0.388207 0.055512 -0.017465 0.123228 -0.150209 0.079158 -0.239234 0.228320 0.255816 0.151358 -0.394430 0.054874 -0.347094 0.122549 0.049862 -0.031450 -0.094313 0.187728 -0.122710 0.087071 -0.171500 -0.185602 0.013150 -0.105747 0.148127 -0.175036 0.261798 0.029421 -0.012913 -0.103884 0.146390 -0.389021 -0.157856 -0.225327 -0.301049 0.173725 -0.077542 0.098880 -0.012189 -0.057043 0.084308 0.115864 -0.255554 0.024720 -0.061440 0.380671 0.193895 -0.022422 -0.185749 0.035438 0.145840 -0.016635 0.108285 -0.316379 -0.369754 0.087500 -0.279290 0.147147 -0.092071 -0.124819 -0.059989 -0.083084 0.047685 0.215675 0.102421
<aia> -0.014009 -0.046332 0.085330 0.124026 0.110210 -0.021950 -0.026423 -0.075159 -0.098448 0.092198 -0.045506 0.075224 -0.036204 0.042989 0.120613 0.191642 0.042947 -0.010061 -0.024766 0.061204 -0.012195 0.063987 -0.083652 0.043058 -0.033133 0.024747 -0.006479 0.016648 0.124438 -0.029614 -0.073495 -0.039454 0.114035 0.003257 0.072407 -0.066622 0.115886 -0.084788 -0.166681 -0.055125 -0.067165 -0.067026 0.089495 0.067167 0.094734 -0.041535 -0.125005 0.012725 0.019662 -0.159294 -0.003373 -0.092081 0.076644 -0.070978 0.092878 0.094615 -0.039440 0.063101 -0.054912 0.099000 0.005553 0.049898 0.032226 0.059840 0.010984 -0.016236 0.081636 -0.085445 -0.125601 -0.037382 0.026486 -0.093789 0.087914 0.012330 0.076328 0.071336 0.069969 -0.055729 -0.040967 -0.053049 0.022172 0.059811 -0.081429 -0.104054 -0.098581 -0.019957 0.089319 -0.064246 0.039808 0.122516 0.120494 -0.132049 0.013925 0.023112 0.029052 0.104887 0.068043 0.027373 -0.013950 -0.073668 -0.104032 0.007252 0.040314 0.094920 0.039845 0.040346 0.072767 0.092402 -0.004190 0.075252 0.067773 -0.003392 -0.053947 0.033394 -0.054982 -0.083532 0.012818 0.017735 -0.112604 0.043268 0.111449 -0.074743 0.009879 -0.014123 -0.014046 -0.053658 0.051732 0.029090 -0.109594 0.008445 -0.157106 0.063580 -0.097022 0.064820 0.048623 -0.147917 0.002631 -0.038949 -0.028743 -0.000483 0.087291 0.111790 -0.069819 0.005963 0.069108 -0.007359 -0.083999 -0.043781 -0.051601 0.045911
<ain> -0.040802 0.005606 0.023062 0.340165 -0.607450 -0.198247 -0.085373 0.150080 0.115023 0.270130 -0.260457 -0.064529 -0.091138 -0.025870 0.107356 0.133580 0.302756 -0.266335 -0.033386 0.266628 -0.030663 -0.460713 -0.023328 0.084594 -0.151674 -0.029693 0.256878 -0.687360 -0.008230 -0.055563 0.114496 -0.217513 -0.164150 0.295209 0.042030 -0.100739 -0.001672 -0.544391 0.084864 -0.143570 -0.112342 0.095008 0.042138 -0.009531 -0.037344 -0.312106 -0.203527 -0.272891 -0.340090 0.054177 -0.187821 0.033891 -0.190598 -0.269153 0.346200 -0.171372 0.338767 0.166385 0.323835 0.148198 -0.434702 -0.289367 -0.324228 0.414526 -0.322967 0.114107 -0.322676 -0.082846 -0.143645 -0.265335 0.254226 -0.007906 0.174377 0.308613 -0.023821 0.223154 0.028484 0.033664 0.343854 0.042042 0.004654 0.094433 0.046669 -0.088981 0.286946 0.015701 -0.081090 -0.329087 0.130153 -0.113640 0.327529 0.164091 0.567251 0.027215 -0.203125 0.113707 -0.119561 0.041273 -0.001298 0.221074 -0.107440 -0.287728 0.094325 0.011067 0.065321 0.047290 -0.086688 -0.276073 -0.005252 0.214968 -0.397898 -0.537128 -0.007849 -0.055197 -0.113168 -0.067036 -0.280925 0.221765 0.080593 0.370116 -0.244336 0.266362 0.193951 -0.119485 0.022200 -0.007858 -0.116593 0.176044 0.209067 -0.380843 -0.367504 -0.444107 0.008258 0.171318 -0.045002 0.311406 -0.272064 -0.164180 0.130845 0.026359 -0.226291 -0.235709 -0.049875 0.239235 -0.427407 -0.450019 0.237679 -0.116982 0.002134 0.183314
<aka> 0.070063 0.159245 0.043918 -0.002278 -0.003209 0.071031 0.094467 0.024080 -0.021123 -0.050738 -0.048393 -0.010040 -0.075625 -0.063457 0.043419 -0.176874 0.008879 -0.140141 -0.060252 -0.079605 -0.129040 -0.066256 0.199273 -0.033468 -0.079869 0.008271 0.013238 0.100033 -0.040131 -0.019160 0.002157 -0.071054 -0.129571 -0.029559 0.021047 0.073709 -0.030132 0.023564 0.023101 0.041620 -0.069840 -0.091556 0.006592 -0.156731 -0.118407 0.024528 -0.043863 0.018426 0.267375 -0.085624 0.088385 0.054771 -0.075403 0.093154 -0.070006 -0.098835 -0.009166 -0.127374 -0.024972 0.057663 0.073182 0.100184 0.030733 -0.189093 -0.082552 0.028232 -0.177698 -0.073881 -0.066705 -0.121157 0.005049 -0.028448 -0.072637 0.006939 0.014171 -0.074907 -0.054278 -0.031955 -0.082357 -0.038697 -0.037276 0.069493 -0.059898 0.007030 0.089973 -0.114759 0.002592 -0.110493 0.054044 -0.077587 0.001101 0.077927 0.048238 0.016749 -0.113525 0.039612 -0.037094 0.100822 -0.135846 -0.000503 -0.026030 -0.090887 0.031885 -0.045662 0.092649 0.084849 -0.078259 -0.022543 -0.052985 -0.026920 0.132670 0.070871 -0.043160 0.061717 0.149445 0.149287 0.056141 0.026607 0.120001 -0.179666 -0.040339 0.130131 -0.053597 -0.087539 0.110412 -0.028699 -0.119660 -0.060069 0.004254 0.022117 0.132725 0.037032 0.036981 -0.027200 -0.178420 0.124048 0.091252 -0.214600 -0.044099 0.054584 -0.006316 0.128119 -0.074111 -0.177858 -0.163033 0.007834 -0.040460 -0.035434 -0.007449 0.049606
<akr> -0.033133 0.062433 -0.069642 -0.000629 -0.099982 -0.023175 0.081456 0.079828 0.080361 -0.048632 -0.042389 -0.007997 0.035010 -0.087610 -0.151495 -0.168725 0.011735 -0.046390 -0.074126 0.052632 -0.035139 0.060334 -0.016899 -0.034548 0.003576 -0.058724 -0.106506 0.075441 0.082330 -0.070795 0.119252 0.076966 -0.076417 -0.036732 0.196825 0.059855 -0.109984 -0.072570 -0.115231 0.087914 0.102180 0.090692 0.054069 -0.046738 0.030566 0.128367 -0.114475 0.065857 0.040282 -0.012348 0.030872 0.031676 -0.123231 0.000742 0.042953 0.066223 0.007535 0.007951 -0.093916 0.073084 -0.033936 -0.040331 0.047073 0.011905 -0.107161 0.050561 -0.109296 0.004441 0.167604 -0.004230 -0.098534 0.001413 -0.078118 -0.103612 0.009297 0.071967 0.048142 0.004012 0.029590 -0.018402 0.052417 -0.202072 -0.033737 0.094074 0.030775 0.030546 0.059253 0.066790 0.020659 -0.078986 -0.221767 0.145786 -0.050452 0.070789 0.023318 -0.066240 0.091235 -0.018761 -0.044056 0.115661 -0.002767 -0.104649 0.066446 0.047373 -0.059605 -0.015719 0.051172 -0.056165 0.049993 0.086899 -0.006332 -0.011840 0.084739 0.048222 -0.133255 -0.087963 0.115663 -0.018397 0.076801 0.000528 -0.080259 0.056989 -0.046943 0.042947 -0.094959 -0.006654 -0.049117 -0.103103 -0.000408 0.013792 -0.004862 -0.115069 0.145690 -0.009721 0.053727 0.025931 -0.167318 0.090469 0.003835 -0.013545 0.007716 -0.057521 -0.043473 0.092826 -0.093974 -0.063790 0.139813 -0.090569 0.093284 0.137301
<akz> -0.053476 -0.061314 0.086200 -0.164894 0.030850 0.118192 -0.058548 -0.034492 -0.080700 0.011294 0.043463 -0.041006 -0.082053 0.070887 -0.032968 -0.000871 -0.067790 -0.066191 -0.103654 0.096042 0.007712 -0.013190 0.196009 0.057591 0.061596 -0.224418 -0.130125 -0.046299 -0.035894 0.051291 0.261836 -0.000038 0.030823 -0.040865 0.055799 -0.080867 0.074266 -0.093069 -0.021630 0.129314 -0.043300 -0.138870 0.034234 0.082723 -0.080651 -0.059807 -0.150476 0.139207 0.007700 0.096373 0.024473 0.013523 -0.028262 -0.144019 -0.123191 -0.015099 0.027541 -0.035199 0.020644 -0.006642 0.148070 0.041258 -0.014067 0.026448 -0.043529 0.047330 -0.025240 0.001945 -0.025354 -0.060131 -0.067373 0.003676 0.132800 -0.059094 0.030643 0.049610 -0.014320 -0.063142 -0.013327 0.108246 0.043423 0.032656 -0.096332 -0.072741 0.029293 0.049603 0.016262 -0.011324 -0.017742 -0.024313 -0.130571 -0.058290 -0.008313 0.102426 -0.152939 -0.068441 -0.005140 -0.190025 0.048962 0.036304 -0.025914 0.015888 -0.038876 0.034305 -0.117325 -0.090679 0.068299 0.094798 0.254012 -0.006408 -0.028381 -0.110426 -0.092534 0.022575 0.086538 -0.027286 -0.096795 -0.103362 0.073511 0.088048 0.036188 -0.070626 -0.072790 0.009300 -0.064678 -0.081223 0.069000 -0.063797 0.033734 0.138562 -0.099127 -0.090939 -0.188264 -0.057953 0.058501 -0.004261 0.184718 0.071285 -0.020860 -0.047181 -0.018844 0.067428 0.001736 0.086504 0.127246 -0.031504 0.044620 -0.036323 0.170909 0.030625
<ale> -0.036975 0.222037 0.148002 0.217196 -0.113098 -0.100651 0.155301 -0.004823 0.010181 0.068581 -0.041451 0.059535 -0.054411 0.020878 -0.014989 -0.127635 0.063495 -0.008105 0.097322 0.120891 -0.104716 0.141953 -0.079109 0.003042 -0.058846 -0.045528 -0.045124 0.026562 0.083338 0.016768 -0.043694 -0.021176 0.114528 -0.141285 -0.093990 -0.080092 0.163302 -0.033465 -0.144825 -0.048089 0.114688 -0.065962 -0.081972 0.001099 0.041060 0.144124 0.097732 0.097492 0.175588 -0.102912 0.155960 -0.081523 -0.077013 0.009748 0.011833 -0.043703 -0.044121 -0.127999 0.008097 -0.069882 -0.007462 -0.119512 -0.062435 0.110270 -0.081226 0.097545 0.121723 -0.015501 0.190688 0.002486 -0.008529 -0.042465 -0.031085 0.047496 -0.028104 -0.082304 0.015872 -0.001734 -0.072133 -0.092381 -0.160221 -0.008194 -0.163593 -0.059110 -0.070209 -0.019678 0.248463 -0.134517 0.053944 -0.019299 -0.074259 -0.073489 -0.075364 -0.075221 0.048424 -0.002884 -0.002453 0.003456 0.095855 0.026412 0.028610 0.159735 -0.053945 0.045710 -0.087542 -0.001800 -0.028487 0.060570 -0.010253 0.067098 -0.178723 0.041517 0.082912 -0.105608 -0.082551 0.042211 0.030754 -0.033196 0.012108 0.026110 0.109846 -0.035474 -0.082846 0.128480 -0.090020 -0.112727 -0.162599 -0.122136 0.061386 -0.036687 -0.030084 -0.041009 0.163601 0.117045 0.057327 -0.076518 -0.027155 0.081550 -0.080873 -0.018420 0.115228 0.087912 0.094739 0.180380 0.032187 -0.012480 0.087214 -0.028845 -0.006095 0.070894
<alp> -0.299646 0.031519 0.020312 -0.020061 -0.050534 0.038415 -0.129160 0.216815 -0.007166 -0.084141 -0.038846 0.008908 -0.118180 0.039499 0.074139 -0.133030 -0.078425 -0.141974 0.154056 -0.107432 0.169324 0.066389 -0.168200 0.022259 0.010149 -0.002894 0.106543 0.053363 0.008152 -0.052047 -0.036508 0.155551 -0.003941 0.032714 -0.044471 -0.032871 -0.125330 0.041140 0.023689 -0.099058 0.118673 0.041082 -0.046355 -0.008736 0.005715 0.001179 -0.135150 -0.176189 0.064122 -0.025921 -0.025578 -0.003853 0.035668 0.001279 0.128952 0.050775 0.049182 0.027153 -0.097569 -0.057210 -0.009411 -0.054067 -0.020264 0.060230 -0.068663 0.159523 -0.045520 -0.025733 0.068874 0.049797 -0.008118 -0.047767 0.213854 0.011677 -0.081045 -0.288750 -0.189406 -0.018132 -0.266067 0.026522 -0.075101 -0.237706 0.151658 -0.089588 0.116018 0.229045 -0.180041 0.104899 0.064276 -0.183308 0.043515 -0.025180 -0.066949 -0.105299 -0.010579 0.163565 -0.008192 -0.045502 0.070558 -0.088840 0.072335 -0.052899 0.126012 -0.122485 -0.083435 0.060294 -0.134033 -0.089729 -0.134609 0.088249 0.004483 0.050289 0.062304 -0.125928 -0.049378 0.014587 0.023455 0.041131 0.119547 -0.108290 0.042209 0.194342 -0.124458 -0.189671 -0.042565 0.180782 -0.202005 0.019117 -0.014712 -0.033899 -0.005103 0.041161 -0.133003 -0.022086 -0.048150 -0.208032 -0.019807 -0.056180 0.040030 0.033780 0.056137 0.130184 -0.028775 -0.084548 -0.082890 0.077831 -0.152913 0.070100 0.022198 -0.023661
<alt> 0.025910 -0.118377 -0.086013 -0.056937 0.027184 0.136019 -0.082348 -0.379011 0.212845 0.042618 -0.147018 0.209550 0.217972 0.099203 -0.262942 -0.023121 -0.212192 0.015828 -0.132379 0.060809 0.158108 -0.078697 0.090687 0.165254 0.000515 0.153901 0.013239 -0.248001 -0.102815 0.155075 0.041678 -0.119273 0.029999 0.134280 -0.196046 0.140555 -0.289855 0.108055 -0.148391 0.064020 0.120952 0.027046 -0.130999 0.103878 0.150705 -0.029594 0.022356 -0.038368 0.072695 -0.002941 0.249611 0.165974 0.032010 -0.017612 -0.076578 -0.260373 -0.230333 0.120691 0.044545 -0.015633 -0.101417 -0.330896 0.153217 0.082770 0.139078 -0.174349 0.021794 -0.077930 0.043245 -0.062244 -0.148581 -0.044168 -0.107309 -0.138701 -0.185978 0.058211 0.071258 -0.067223 0.249806 -0.026501 0.024055 0.092459 0.053527 0.274495 -0.082065 -0.060443 -0.028862 -0.197342 -0.155730 -0.141191 -0.289373 0.167422 -0.088429 -0.050455 -0.069059 -0.089642 0.280123 0.170841 0.062598 -0.217750 0.118869 0.084026 -0.048188 0.019229 0.156635 0.031980 0.239335 0.089269 -0.159601 0.093987 -0.131935 -0.084367 -0.199040 0.001809 -0.076396 -0.195140 0.059190 -0.026356 0.133885 0.161651 -0.072491 -0.162994 0.039717 0.209180 0.090050 0.010473 -0.034482 -0.088601 -0.085359 0.047577 -0.038517 -0.169773 0.036905 -0.068547 0.101991 -0.015275 -0.150719 0.115224 0.061373 -0.132890 -0.133155 -0.218032 -0.088899 0.231672 0.141069 -0.064871 0.024141 0.134657 -0.057501 -0.000905
<amh> -0.298493 -0.145410 0.017041 0.252802 0.091608 -0.029574 0.061395 0.187931 -0.214323 -0.221881 -0.125363 -0.303604 -0.023805 0.080137 0.632745 -0.111594 -0.110720 0.191562 0.117040 -0.497958 -0.216761 0.147351 -0.167439 0.055964 0.175128 -0.221057 -0.200550 -0.119842 0.222735 -0.048681 0.249595 0.247267 -0.120686 0.056225 0.124865 -0.460455 0.142607 0.150099 -0.217947 0.101391 0.061431 0.109416 -0.044934 0.030005 -0.146054 0.267115 0.275758 -0.109919 -0.354121 -0.082686 0.139609 0.097202 -0.141227 0.095570 -0.087036 0.227676 0.083531 0.234638 -0.045121 0.152995 0.227285 -0.162947 0.157393 0.003083 0.325117 -0.071668 0.246551 -0.028748 -0.227512 0.352753 -0.372408 0.149921 0.051618 -0.101957 -0.201570 0.260428 0.138433 0.211494 -0.005917 0.086915 0.198687 -0.179446 -0.084407 -0.074773 0.009510 -0.339248 0.094469 -0.248619 -0.108012 0.081603 -0.591617 -0.166106 0.295957 0.153491 0.200333 -0.109519 -0.019641 -0.323404 0.299805 0.341938 -0.209826 0.205133 0.082217 -0.210611 -0.280411 -0.073112 -0.209311 0.089389 0.126217 -0.037663 -0.041020 0.167104 0.183344 -0.195482 -0.132678 0.097460 -0.221877 0.171875 -0.076053 -0.210012 0.181729 0.043454 -0.238384 -0.106933 -0.100749 0.057960 -0.095508 -0.063269 0.042739 -0.052827 0.154230 0.310109 -0.105347 -0.336821 -0.010401 -0.405641 0.020767 -0.335413 -0.362952 -0.041315 0.115193 0.190257 0.090877 -0.075898 0.268547 0.273956 0.040155 -0.083693 -0.111915 0.081135
<ami> -0.028269 0.030425 -0.068623 0.050053 0.033522 -0.130181 -0.046029 0.159364 -0.045075 -0.023157 -0.092793 0.026364 -0.046370 -0.090136 -0.005499 0.108671 0.123065 0.119599 -0.040114 -0.060262 0.132608 0.015397 -0.062618 -0.026281 0.082606 0.083750 0.110677 -0.102519 0.040985 0.015904 0.021567 0.069743 -0.003481 0.091042 0.111621 -0.073146 0.025697 -0.166552 -0.051523 -0.036824 0.016858 0.113268 0.179029 -0.033025 0.106886 -0.042667 0.007297 0.003555 -0.168145 0.034793 0.020512 0.108146 -0.033234 0.042549 0.059794 -0.055837 -0.043854 -0.008521 0.090990 -0.106404 -0.002374 -0.072994 0.020827 0.156157 0.082358 -0.059476 0.001281 0.049855 -0.017783 0.036827 0.042257 0.044293 0.108860 -0.109073 0.033073 0.121462 0.161592 0.017257 -0.013889 -0.026845 0.096847 0.047841 0.064380 -0.005448 -0.002853 -0.072942 0.051371 0.003134 0.111689 0.046296 0.114249 0.049071 -0.005978 0.022710 0.169519 -0.032018 -0.058302 0.001609 -0.021982 0.031758 -0.070346 -0.034986 0.000065 0.079392 -0.059610 -0.079465 -0.017105 -0.135648 -0.006135 0.079721 -0.023340 -0.045732 -0.043297 -0.022718 -0.003557 -0.027633 -0.045997 0.026938 -0.008725 0.086079 -0.079612 0.113286 -0.041636 -0.009369 0.055952 0.084390 -0.019613 0.041263 0.074394 -0.048301 0.170900 0.038289 0.035538 0.046106 -0.055001 -0.044223 0.041390 -0.092955 -0.008915 0.053678 -0.032124 0.065314 -0.141975 -0.090568 0.055424 -0.124671 -0.042967 0.017100 0.056642 -0.099069
<amm> -0.010913 0.058692 -0.056300 -0.031801 0.017402 0.050016 -0.103383 0.101307 0.074578 0.117358 -0.049621 0.147785 0.032883 -0.007550 0.066040 -0.055859 0.034722 0.053366 0.033376 -0.114463 -0.022198 -0.007578 -0.034767 -0.085242 0.051004 0.041708 -0.114542 -0.014737 -0.155077 -0.031963 -0.077584 0.110971 0.030517 -0.012037 -0.081061 -0.051682 0.039049 -0.043808 0.193371 0.023103 -0.047898 0.156796 0.160652 -0.025839 0.059444 0.104913 0.114547 0.092119 -0.068100 0.127803 -0.039689 -0.013967 -0.136903 0.003506 0.030041 0.000735 -0.134231 0.034220 0.131650 -0.039650 -0.117075 0.107780 -0.211171 -0.113402 0.044799 0.058714 -0.158044 0.011524 -0.020646 -0.207821 0.096217 0.086424 -0.069841 0.042573 0.065106 0.083480 0.026335 0.023297 -0.066288 -0.025620 0.049999 0.109193 -0.072828 0.073312 0.034013 -0.010870 0.004089 -0.049735 -0.140508 0.039809 0.102008 0.056721 0.093510 -0.070428 -0.096011 0.003315 -0.117470 -0.000014 -0.084633 0.097514 0.048825 -0.002129 0.071604 -0.056714 -0.027373 -0.107585 0.123202 0.065878 -0.068341 -0.099746 -0.015051 -0.021303 0.003693 0.150741 -0.067131 0.041960 0.067301 0.127699 0.062519 -0.008567 -0.186576 0.007864 0.064072 0.095586 -0.159007 0.049667 0.002972 0.089482 0.141031 -0.125745 0.026119 0.079768 0.096170 -0.042596 -0.038087 0.021111 -0.096636 0.086020 0.172145 0.019437 -0.005894 0.031464 -0.159315 -0.072811 0.112347 -0.008336 -0.035383 -0.002559 -0.177838 0.027980
<ang> 0.174747 -0.352919 -0.156581 -0.105692 0.103043 0.254389 -0.210873 -0.177061 0.334907 -0.367162 -0.231051 0.084920 -0.033095 0.196982 0.084056 -0.102384 -0.098921 -0.228628 0.051551 0.053717 0.104863 -0.170520 0.319399 0.178512 -0.132062 -0.063128 -0.505370 0.414446 0.578452 0.288708 -0.112927 -0.058532 0.200121 0.417851 -0.340963 0.291472 -0.248230 -0.608666 0.123989 0.420665 -0.073697 0.081120 0.372042 -0.721770 -0.075850 0.290538 -0.285253 -0.210741 -0.108981 0.316837 0.261668 -0.255297 0.143810 -0.116652 0.591186 0.350232 0.024881 0.240401 -0.395434 -0.182641 -0.608117 -0.570473 0.530751 0.590797 -0.027932 0.600691 0.169115 -0.369496 0.037763 -0.339473 -0.007112 -0.018223 0.196323 -0.535718 0.222180 -0.515212 -0.250985 0.095807 -0.352645 -0.412550 -0.002073 0.233429 -0.031397 -0.046655 -0.514274 0.873020 0.187100 0.366914 -0.792374 0.066064 -0.366115 0.249401 -0.696634 -0.834469 0.535996 0.516753 -0.022229 -0.212926 0.360413 -0.238035 -0.098347 -0.355744 -0.202691 0.175384 0.081646 0.122611 0.223592 -0.382167 0.081073 -0.124528 0.776655 0.011322 -0.043849 -0.178857 -0.059921 -1.002027 0.240915 0.157494 -0.586386 -0.154388 -0.110069 -0.018704 -0.123051 0.359477 -0.019394 -0.258000 0.609349 -0.268195 0.022107 0.026029 -0.947223 0.030057 0.605442 0.158128 -0.165670 -0.023817 0.130117 0.285623 0.431341 0.037725 0.321775 -0.624096 0.556905 0.144101 0.407752 0.995812 0.246998 -0.282050 0.422810 -0.346239
<ank> -0.041449 -0.002854 -0.078417 0.081457 -0.061993 0.128617 0.086123 -0.059272 0.159527 0.051797 0.005004 -0.006611 -0.013736 -0.052977 -0.088207 -0.056178 -0.040583 0.046031 -0.056920 -0.134496 0.099196 0.028627 -0.161149 0.100302 0.106476 0.078543 -0.119563 -0.160863 -0.183029 0.046746 -0.027818 0.000079 -0.088751 -0.001976 0.085820 0.047522 0.009558 -0.093569 0.082232 -0.025610 0.044730 0.175314 -0.045244 -0.041051 -0.018886 0.169515 0.040486 -0.019872 0.109014 -0.035723 0.048194 0.021654 -0.025578 0.010498 -0.064534 -0.069009 0.004478 -0.056745 0.121478 -0.015709 -0.087580 0.105988 0.097208 0.142792 0.063926 0.014244 -0.009297 -0.033349 0.083338 0.016952 0.050000 -0.007507 -0.211706 -0.111895 0.010713 0.066768 -0.060190 -0.141715 -0.062861 0.175106 -0.100187 -0.116212 0.006187 0.051367 -0.026078 -0.019406 0.068072 0.052903 -0.054324 -0.072174 -0.018632 0.016369 0.142572 -0.050113 0.044653 -0.092901 -0.016449 0.117337 -0.078566 -0.139432 0.019365 -0.016218 0.093187 0.002019 0.050881 -0.006574 -0.035022 -0.144279 -0.085783 -0.048750 0.034171 -0.128147 -0.095080 -0.011116 0.094885 -0.134930 0.007842 -0.059045 -0.002184 0.032224 0.019316 -0.012799 0.099790 0.054503 -0.075656 0.027595 -0.074583 -0.039654 0.052210 -0.127549 0.121117 -0.058455 0.020987 -0.003467 -0.057742 -0.043583 -0.157863 -0.110795 0.146916 -0.006314 0.170020 -0.207828 -0.132528 0.057284 -0.023190 0.018021 -0.022863 -0.060479 -0.019109 -0.037916
<apw> 0.079717 0.032038 0.051817 0.032003 -0.039076 0.045205 0.056054 -0.010517 0.004160 0.044432 -0.026297 -0.044077 -0.059713 -0.024337 0.044817 0.028111 0.063248 0.013642 0.107610 -0.003129 0.020793 0.010452 -0.082465 0.054733 0.057742 -0.007864 -0.140507 -0.088923 -0.008772 0.110528 -0.093387 -0.037913 -0.004153 0.109951 -0.137300 0.060230 0.076570 -0.036724 -0.001644 -0.004327 -0.010116 0.059855 0.088667 0.101643 0.088369 -0.036203 0.058982 -0.104531 -0.097484 -0.013947 -0.073586 -0.053587 0.023291 0.041180 0.131221 -0.002492 0.101594 0.045654 -0.030367 -0.087873 0.034086 0.080026 0.027795 0.060760 -0.065509 -0.038705 0.000152 0.056264 -0.093162 -0.029689 -0.035952 0.095034 -0.125067 0.041054 -0.045117 -0.106429 0.073898 0.139197 -0.036820 0.031160 0.073283 0.032451 0.074035 -0.088531 -0.098780 0.090670 0.068029 0.046377 0.006139 0.135788 -0.031944 -0.076635 -0.042873 -0.070502 -0.054403 0.045036 0.019090 -0.058721 0.118321 -0.035517 -0.013377 0.051011 0.096608 0.088514 -0.020877 0.077420 -0.020884 -0.019808 0.121795 0.049348 0.019780 0.082310 0.024702 -0.014048 0.050698 0.102300 0.046000 -0.005644 -0.023153 0.082094 0.004457 -0.028813 -0.029766 0.010144 -0.087861 0.021366 -0.001335 -0.054590 -0.062656 -0.055327 0.009090 -0.019404 0.053454 0.109348 -0.066134 -0.010126 0.093937 -0.042879 -0.097146 0.026680 -0.025893 -0.034519 0.017079 0.002397 0.114125 0.145341 -0.052399 0.093097 -0.014813 0.028779
<ara> -0.036717 0.047034 0.037468 -0.039466 0.521106 0.247130 -0.036659 0.005753 0.194690 0.760376 -0.512483 -0.001551 0.702455 0.224343 0.369593 0.118144 -0.300081 -0.096378 0.087623 -0.553307 -0.007587 -0.082524 -0.612150 -0.168777 0.071087 -0.036077 0.358228 -0.400259 -0.228303 0.300682 0.004956 -0.247855 -0.082307 0.253510 -0.463677 0.029929 0.073370 0.095649 0.182566 0.313399 0.180312 -0.313290 -0.186506 -0.704829 -0.190659 0.346949 0.052272 -0.405221 -0.313318 -0.151744 -0.178039 0.118500 -0.372757 0.141363 -0.067693 0.473830 0.208347 -0.225171 0.232764 0.144351 -0.330356 -0.382190 -0.379763 0.502003 0.613418 0.384645 0.605377 -0.180197 -0.459623 0.400784 -0.115408 0.163387 0.198691 -0.329651 0.180163 -0.296539 0.007746 -0.876468 -0.014795 -0.124248 -0.437536 -0.137345 0.735512 0.464108 -0.654860 -0.193755 0.052790 0.241306 -0.308060 -0.389355 0.580615 -0.126778 -0.116994 -0.293257 -0.155660 -0.026301 0.430160 -0.137561 0.335713 0.055016 -0.000106 0.230404 -0.269400 0.184849 -0.087785 -0.295351 0.469023 -0.097484 0.203599 -0.007157 0.056226 0.629711 0.027383 -0.075815 -0.272033 -0.346194 0.005202 0.121204 -0.274998 -0.709334 0.397830 0.521919 0.553746 0.182417 0.501107 -0.168715 -0.190588 -0.109529 -0.169874 0.076963 0.436286 0.411432 -0.003618 -0.063506 -0.260244 -0.230738 -0.166907 -0.043683 -0.328860 -0.134634 0.204889 0.165548 0.044043 -0.261939 0.209921 0.458741 0.007402 0.569027 0.101628 -0.230028
<arc> -0.233179 -0.392233 -0.444713 0.521235 -0.163523 -0.408380 -0.296473 -0.038522 0.380603 0.413994 -0.663677 0.849917 -0.060669 -0.150240 0.308461 0.034535 0.256152 0.211158 -0.231227 -0.151873 0.812208 -0.531695 0.198256 0.345409 -0.112168 -0.236469 -0.007442 -0.616847 -0.119360 0.176789 0.345638 -0.353574 0.259007 -0.057697 -0.414773 0.036274 0.004962 0.390956 0.015221 0.088623 -0.306461 -0.249678 0.374333 -0.782246 -0.310204 0.237713 -0.798611 -0.259775 0.120985 0.181062 -0.102724 -0.480304 0.098498 0.030428 -0.448636 0.510623 -0.093489 0.768923 0.356454 -0.540486 0.058993 -0.240634 0.450435 -0.025985 0.673328 0.646487 0.024765 -0.133194 -0.394351 0.044929 -0.498358 -0.096341 -0.293541 0.440802 0.080952 0.271409 -0.280019 0.195889 -0.388479 0.260008 -0.700849 0.104822 0.894980 0.630121 -0.102408 0.108425 -0.469242 0.279032 -0.017169 -0.209787 0.434132 0.446394 -0.646457 0.306249 -0.614466 -0.010386 -0.389703 -0.433983 -0.067326 0.338254 0.356231 0.103134 -0.360357 0.285214 0.037584 -0.065388 -0.477383 -0.499862 -0.179609 -0.497434 0.608756 0.485550 -0.021899 -0.632253 -0.380723 -0.499348 0.210317 0.152329 -0.133621 0.140371 0.158912 0.167675 -0.166480 0.205574 0.003648 0.366484 0.257767 0.030721 -0.228690 -0.091526 -0.007293 0.200813 -0.085242 -0.114731 0.108307 -0.551105 -0.036576 0.260439 -0.885518 0.457132 0.161609 -0.168106 -0.139081 0.114375 0.317373 0.479381 0.264546 0.557198 1.029373 -0.660503
<arg> -0.049674 0.038415 -0.070103 -0.358137 -0.008714 0.002258 -0.226991 -0.049644 0.058615 -0.165403 -0.084778 0.180960 0.086058 -0.104799 -0.026766 -0.297223 0.035152 0.061172 0.191614 0.137018 0.074223 -0.300051 -0.139405 0.122242 -0.027969 -0.124344 0.048159 -0.033435 -0.157068 0.055258 0.179615 -0.054354 0.041707 -0.050967 0.027562 -0.069560 -0.176145 -0.267301 -0.079263 0.157272 -0.150234 0.186879 0.011531 0.341005 0.086710 -0.145497 -0.172290 -0.153941 -0.372374 0.116484 -0.105703 0.070005 -0.328868 -0.042053 -0.211001 0.223207 -0.084563 0.064518 -0.182378 0.010146 -0.013212 0.048343 0.234223 -0.019822 0.293160 -0.039813 0.120271 -0.001093 0.041926 0.056117 -0.053912 0.203809 0.056234 -0.149072 -0.329689 -0.127152 0.133825 0.074173 -0.077893 -0.011559 0.069234 -0.238943 0.050872 -0.093194 0.056547 0.036205 0.152306 -0.160011 -0.152417 -0.271085 -0.262958 0.294776 -0.250173 -0.032188 -0.223305 0.085039 -0.013237 -0.012017 -0.292350 0.314177 -0.054607 -0.094070 -0.002490 -0.075205 -0.204123 -0.027852 -0.126506 -0.040983 -0.128166 -0.071634 -0.054956 -0.159602 -0.076420 0.041533 0.008569 -0.286225 0.124422 0.256715 0.036662 -0.050543 -0.331896 0.189591 -0.120335 0.216357 -0.158240 0.107644 -0.186926 0.067116 0.247036 -0.229081 -0.109819 -0.008315 -0.135196 0.086802 -0.092756 -0.161555 -0.110714 0.045520 0.402533 0.146234 -0.026816 0.095170 0.057872 0.364392 0.189405 -0.103016 0.240450 -0.201279 -0.001610 0.126425
<arn> 0.018036 0.086894 -0.058691 -0.060669 0.111100 -0.079322 -0.035878 0.066981 0.000481 -0.000350 0.051845 -0.052181 0.056879 -0.049566 -0.008628 0.075282 -0.086543 -0.009549 -0.087877 0.027826 -0.084331 -0.105693 -0.032057 -0.013663 0.034669 -0.103758 0.095149 0.138700 -0.090943 0.018732 0.164104 -0.065152 0.032624 -0.070078 0.174265 -0.098874 0.032569 -0.008983 -0.076264 0.160448 -0.054968 -0.037707 0.018127 0.047566 -0.059967 0.092017 -0.148584 0.064117 -0.044883 -0.102399 -0.117126 -0.022356 0.005423 -0.151914 -0.080176 -0.029697 0.061997 0.059769 -0.042896 -0.079688 0.131787 0.012499 -0.030214 -0.139046 0.074176 -0.029831 0.059765 0.014887 -0.125565 0.052249 0.015065 -0.080339 0.073195 -0.092107 0.087398 0.091195 0.091458 -0.042478 0.174350 0.112485 0.118282 -0.092820 0.077413 0.044860 -0.071039 -0.092104 0.009116 0.000803 -0.091824 -0.036637 -0.124514 0.101347 -0.039858 0.167006 -0.019507 -0.049815 -0.001737 -0.094227 -0.105002 0.070867 -0.092229 -0.091717 -0.005491 0.048140 -0.117887 0.107393 0.136518 0.012104 0.077100 0.050709 -0.075469 0.053576 0.057301 0.094948 0.130766 0.078630 -0.185971 -0.148914 -0.077962 -0.054471 -0.047507 -0.097679 -0.004628 -0.007257 -0.086201 -0.038674 0.069809 0.068061 -0.039128 0.063671 0.004614 0.049610 -0.187464 -0.217928 0.174876 0.039457 -0.041612 0.119555 0.122636 -0.122214 -0.073328 -0.019818 -0.033753 -0.149427 0.053038 -0.057831 0.130872 0.039381 0.140637 0.107308
<arz> -0.008089 -0.157404 0.047726 0.292321 -0.193267 0.122338 0.284043 -0.162440 0.004457 0.197215 0.080257 -0.480767 0.055419 0.330813 0.190782 -0.135770 0.002365 0.056442 -0.115682 -0.012057 -0.337302 0.267334 -0.083112 -0.008208 0.152907 -0.019486 -0.259781 0.377499 0.059039 -0.119350 -0.093685 -0.080594 0.076675 -0.145898 -0.131176 0.088251 0.071533 0.288038 -0.017890 0.066926 -0.172159 0.058463 -0.295803 -0.095010 -0.018312 0.034756 0.228157 0.095798 0.048462 0.047775 0.137608 -0.137419 0.015428 0.137997 0.363215 0.039389 0.156208 -0.431134 0.113971 -0.168688 -0.033838 -0.124938 -0.044283 0.002321 0.090680 0.139638 0.200969 0.116488 0.136684 -0.321175 0.011792 -0.162203 -0.027200 0.045847 -0.047941 -0.191320 -0.066945 0.220818 0.056118 0.328692 -0.349614 -0.015126 -0.303291 0.084583 -0.259609 -0.197360 0.073830 0.164461 0.082099 -0.087957 -0.420420 -0.347612 0.054071 -0.255443 0.279969 -0.111183 -0.041819 -0.122354 0.113717 -0.108862 -0.147840 -0.014147 0.130759 0.065768 0.314664 -0.033712 -0.064608 -0.049989 0.546156 0.073646 0.183359 0.084486 0.286106 -0.030138 0.080395 0.154310 -0.041386 -0.269917 -0.417099 -0.095916 0.189274 -0.106357 0.339821 0.071598 0.191773 -0.091560 -0.043250 0.022427 -0.170035 0.154125 -0.152888 0.229410 0.074384 -0.107906 -0.174093 0.232702 -0.239850 0.178891 -0.356033 -0.329129 -0.040678 -0.074034 0.137213 0.004587 0.100996 0.144540 -0.050927 -0.194861 0.184467 0.189637
<ast> -0.103050 -0.007080 -0.148349 0.301452 -0.208409 0.083471 -0.471658 0.267650 -0.137268 0.345015 -0.169576 0.205545 0.215228 -0.416105 0.032363 -0.262898 0.359654 -0.050320 -0.051344 0.147734 0.435909 -0.381555 -0.142986 -0.012702 -0.286381 0.222335 0.009956 -0.163269 0.036881 -0.207663 -0.295820 0.045908 0.218180 -0.068706 0.196174 -0.097296 -0.386774 -0.403289 -0.358078 0.010955 0.136401 0.225449 0.348407 0.209074 0.291378 -0.140846 0.238866 -0.352596 -0.295500 -0.013242 0.033489 -0.162544 -0.148076 0.219095 -0.209141 -0.139911 -0.129148 0.083138 0.365677 0.027118 -0.008613 -0.083574 -0.040542 0.222579 0.402978 -0.033009 0.014018 -0.050152 0.153414 -0.392746 0.243313 -0.126981 -0.246644 -0.220569 -0.031657 0.219550 0.202237 0.122459 0.082480 -0.048353 -0.249160 -0.036517 -0.504537 0.081623 -0.071141 0.004460 0.070967 -0.053708 -0.361943 -0.424382 0.213133 0.506971 -0.122875 -0.194195 -0.524217 0.087417 0.220558 0.028688 0.141026 0.147500 -0.111528 0.027817 0.028333 0.105925 0.235988 0.259263 -0.021874 -0.181796 -0.571205 -0.041576 -0.018730 -0.184132 0.159424 -0.304191 -0.006401 -0.216623 -0.202257 0.483610 0.311600 0.192892 -0.256037 0.009673 0.252266 -0.107788 0.150806 -0.065665 0.023054 0.214924 0.351692 -0.469047 -0.009321 -0.279985 0.299854 -0.057676 -0.349542 -0.084007 -0.348841 -0.167371 0.388143 0.323990 -0.215785 -0.029553 -0.119677 0.164285 0.251238 0.188698 0.101346 -0.047079 -0.149322 0.094462
<aud> -0.016143 -0.089868 -0.001429 0.024019 0.004322 -0.035018 -0.075666 -0.055727 -0.077016 -0.039333 -0.027949 0.100073 -0.048623 0.096597 0.089082 0.048377 0.004407 0.127648 0.026338 -0.071718 -0.027673 0.048307 -0.084839 -0.070064 0.124661 -0.089637 0.035847 -0.058074 0.038460 -0.060948 0.168966 -0.106605 -0.019147 0.079715 0.016341 0.056049 0.061162 -0.073061 -0.091616 -0.022301 -0.018757 0.004034 0.047386 0.143117 -0.096581 -0.024898 -0.069251 0.033661 -0.045427 0.032356 0.084594 -0.014148 0.077008 -0.075771 -0.106145 0.008575 -0.101896 0.114123 0.037970 -0.026439 0.010635 -0.023798 -0.062169 0.040958 0.140512 -0.051998 0.049845 -0.030281 -0.040924 0.028047 -0.024978 0.002999 0.024844 0.054082 -0.067398 0.097650 0.061698 0.075136 0.078117 0.050369 0.111733 0.013883 0.083307 -0.009010 0.088227 0.061156 0.066909 -0.130505 -0.057226 0.156189 -0.099891 -0.028348 -0.074283 0.129843 -0.077038 0.005763 -0.049870 0.018544 0.084859 -0.061070 0.043301 -0.070237 0.032578 -0.041123 0.062853 -0.095997 0.073085 0.001303 -0.042211 0.038397 -0.003682 -0.031886 0.073449 -0.001509 -0.049766 -0.044607 0.058263 -0.029021 -0.019568 0.107025 0.021225 0.064448 -0.102282 -0.011548 -0.071907 0.101563 0.118768 0.011720 -0.026384 0.098977 -0.063781 0.043136 -0.113498 0.125190 0.016701 -0.075024 0.067322 0.010138 -0.006756 0.024479 0.014602 0.040958 -0.054672 0.053231 0.085329 0.129456 0.052426 -0.014447 -0.001512 0.098570
<ava> -0.027085 0.213926 0.186171 0.113941 -0.056686 -0.035403 0.207484 0.075851 -0.148190 0.130637 0.022646 -0.213572 -0.053068 -0.083814 0.163388 0.164860 -0.081363 0.109607 -0.075264 0.079074 -0.087826 0.135861 -0.039591 -0.203012 0.171781 -0.256966 0.051848 0.216479 0.013684 -0.043937 0.083157 0.017628 0.120094 0.032993 0.428979 0.076686 0.086743 -0.000115 -0.076458 -0.056760 -0.136661 0.002188 -0.173311 0.047595 0.002675 0.058783 -0.089365 0.102235 -0.050344 -0.022221 0.090856 0.001644 0.073143 -0.171068 0.048538 -0.093331 0.120138 -0.214502 0.018847 0.095366 -0.004364 0.057047 -0.166515 -0.080321 0.040127 0.019876 0.057921 0.047176 -0.079633 -0.058400 -0.040604 0.074807 0.002974 -0.163340 -0.076841 0.141785 0.023325 0.116995 0.224486 0.035848 0.018283 -0.017351 -0.179878 0.063616 0.013062 -0.035845 0.185188 -0.035135 0.166978 -0.093318 -0.112490 -0.014908 0.189022 0.046993 -0.043894 -0.222851 -0.091732 -0.152842 0.051071 0.021436 -0.059081 0.018823 0.103625 0.124397 0.160630 0.092946 -0.097783 0.047735 0.244253 0.039937 -0.181616 -0.004032 0.024556 -0.010871 -0.001362 0.196090 -0.311200 -0.200088 -0.236536 -0.226853 0.102026 -0.116290 0.016860 0.086818 -0.030072 -0.087916 0.058601 -0.036453 -0.023340 0.111623 -0.021420 0.103944 -0.018858 -0.074986 0.213997 -0.030951 -0.090658 0.019548 -0.176501 -0.093862 -0.138357 0.085232 0.161623 0.119150 -0.033879 -0.170349 0.092072 -0.066951 0.097952 0.110766
<ayl> 0.116388 0.003628 0.005319 -0.173747 0.205691 -0.191551 -0.136530 -0.061137 0.139647 0.124576 0.219153 0.143405 -0.136088 -0.033707 0.182866 -0.067584 -0.068061 0.050936 -0.323328 -0.069267 -0.294638 -0.014022 0.174557 0.206208 -0.171262 -0.091988 -0.102979 -0.085853 0.011564 -0.046079 0.172551 -0.122534 0.107243 0.099692 -0.021924 -0.197327 0.014190 0.080600 0.078654 0.191678 -0.145913 -0.233478 -0.090936 -0.098770 -0.191953 0.015637 0.114115 0.120039 -0.067093 0.159237 0.205710 -0.193139 -0.111963 -0.245735 -0.262730 0.124168 0.170850 -0.167662 -0.015493 -0.044043 0.188293 -0.046971 0.115708 -0.139601 0.060009 0.202147 0.023178 -0.111762 0.036787 0.048380 -0.056014 0.052774 -0.004033 -0.025197 -0.076731 0.010538 -0.116366 0.083210 0.053150 0.250159 -0.088957 -0.050008 -0.011947 -0.046151 -0.074209 0.037006 0.046290 0.109802 0.055936 0.024884 0.033263 -0.242696 0.058921 0.030392 0.101948 -0.263292 -0.036110 -0.206165 0.099929 0.168206 -0.150187 -0.093031 -0.054714 0.003565 -0.050727 -0.196669 0.029877 0.062838 0.100250 0.053452 -0.054739 0.111533 -0.015294 -0.244335 -0.033572 0.069693 0.079085 -0.108072 -0.024217 -0.037927 0.156562 0.047399 -0.094143 -0.046308 0.111512 0.332898 0.025340 -0.078780 0.156168 0.076780 -0.034526 0.215215 -0.302852 -0.103989 -0.021291 -0.148140 0.199006 -0.193647 -0.268339 -0.052709 -0.168384 -0.066985 -0.034916 -0.014112 -0.017690 0.036586 0.061145 0.093163 0.148084 -0.194897
<aze> -0.114517 0.588690 0.225505 0.006225 -0.516040 -0.053826 -0.119433 0.220243 -0.165671 -0.058955 0.227883 -0.194933 0.098975 -0.351375 0.115322 -0.825646 -0.041016 -0.180258 0.012558 0.171923 -0.776105 0.442312 -0.062852 0.106048 -0.487436 -0.285600 -0.454370 0.113769 0.253318 -0.239391 -0.344534 0.633317 -0.043572 -0.448692 -0.109287 -0.148773 0.435256 0.227218 0.004514 -0.323026 0.142842 0.448996 0.208912 -0.579996 0.160938 0.223979 -0.162389 0.269288 0.659040 0.400712 0.274329 -0.291456 -0.313009 -0.021464 0.103853 0.218365 -0.470733 -0.607732 0.041997 0.241359 0.090057 -0.062348 -0.267560 0.265009 -0.038592 0.236748 -0.395915 0.213888 0.306295 -0.567565 0.364304 -0.019655 -0.038948 0.066543 0.254292 -0.194995 0.068406 -0.182387 -0.607157 -0.012113 -0.133225 -0.367630 -0.171245 0.276548 0.022804 0.723630 0.126930 0.215171 0.215145 0.298224 -0.348896 -0.801093 0.589329 -0.222465 0.101524 0.089428 -0.048808 -0.075544 0.158755 -0.071965 -0.173607 0.156505 0.399890 -0.119395 0.371786 -0.180845 0.039698 -0.098089 -0.478973 0.146476 -0.154747 -0.274494 -0.194501 0.043563 0.224931 0.116191 -0.133318 0.052383 -0.209461 0.160677 0.298621 0.182987 -0.084656 0.108419 -0.009889 -0.357336 -0.236016 -0.077845 0.301559 0.162892 0.013952 -0.184851 -0.075025 -0.037519 -0.264567 0.281143 -0.610013 -0.008410 0.045884 0.208522 0.473004 -0.089404 -0.239054 0.325137 0.090735 -0.000284 -0.214839 -0.358065 -0.112970 0.240933
<bak> 0.206777 -0.215233 0.080015 0.174822 -0.122288 -0.259060 0.533282 -0.812651 0.428144 -0.496468 0.330121 0.131745 0.064930 0.128429 -0.283336 -0.134624 -0.078573 0.019656 0.428951 -0.195087 0.100564 0.207537 -0.231723 0.263472 0.336995 -0.014852 0.141138 0.251822 0.342366 0.429425 -0.144412 -0.359780 0.385671 0.156555 -0.394284 0.249673 -0.337692 -0.304541 0.175327 -0.668032 0.158656 -0.476272 -0.121047 -0.148076 0.202701 0.268250 -0.150065 0.552508 0.264781 0.049003 0.094705 0.020796 -0.542544 0.122953 0.501047 0.368329 -0.165409 -0.065695 0.267697 0.045048 0.386427 -0.719967 -0.210336 0.557633 -0.202422 0.781509 -0.063135 -0.279674 0.145073 -0.372756 0.134425 0.271596 0.183902 0.204076 -0.835075 -0.153065 -0.346952 0.298637 0.000489 -0.026304 -0.406389 0.279619 -0.182179 0.074917 0.276262 1.087206 -0.034427 0.531034 0.217768 -0.383134 0.225773 -0.164473 -0.321635 -0.081948 0.212741 0.621429 -0.031901 -0.072060 -0.285661 -0.114132 0.645356 0.011555 -0.281308 0.315756 0.539319 -0.233846 0.371425 -0.138908 -0.151190 0.000926 0.236398 0.171401 0.011843 -0.479600 -0.094065 -0.147274 0.323547 -0.360429 -0.059355 0.155881 0.429204 0.316417 -0.215156 -0.119596 0.025331 0.034491 0.391625 -0.089091 -0.191512 -0.023217 -0.496929 -0.243898 0.358278 0.704601 0.141126 -0.119014 0.407061 -0.686354 -0.405476 -0.057082 -0.026357 -0.017896 0.814750 0.386276 -0.665767 0.024097 0.656913 0.718684 0.324296 -0.192543
<bal> -0.029005 -0.096193 -0.083549 0.115420 -0.036130 -0.009501 -0.086320 -0.095380 -0.024310 -0.036453 0.041745 -0.002699 -0.068229 -0.009941 -0.021180 -0.063135 -0.072090 -0.022044 0.196739 -0.009760 0.091565 0.037512 0.023832 0.046255 -0.019927 -0.004722 -0.063465 0.083477 0.056415 0.050640 -0.007393 -0.052294 0.018206 0.014428 -0.001883 0.041517 -0.160911 -0.011634 0.027814 -0.042656 0.125276 0.101822 -0.055577 -0.036279 0.126966 -0.000404 0.075978 -0.048987 0.054847 0.072517 -0.000640 0.023579 0.012280 -0.019393 0.089654 -0.000572 0.059884 0.001692 0.078685 -0.060605 -0.000393 -0.085306 -0.005148 -0.041011 0.036747 0.136681 0.071078 0.039595 0.164685 0.003671 0.045861 0.056900 -0.185229 -0.104225 0.034507 0.076346 -0.028028 -0.010793 0.070821 -0.073141 0.098414 0.045813 -0.001626 -0.005297 -0.017358 -0.061703 0.100702 -0.059901 0.041898 -0.096818 -0.011420 0.029141 0.022812 -0.017848 -0.031021 -0.083940 -0.048218 0.103490 -0.073179 0.071392 -0.036072 -0.012972 0.104311 0.046807 0.024311 0.062849 -0.077290 -0.025883 -0.131453 0.072471 0.012449 -0.134682 -0.115404 0.018395 -0.134797 0.082290 -0.080504 -0.016325 -0.022840 -0.001524 -0.140000 0.070582 -0.007440 -0.111211 0.111280 -0.092435 -0.100493 -0.120753 0.135140 0.002728 0.103000 -0.025393 0.129608 0.172712 -0.034098 -0.088686 0.031170 0.006896 0.040879 -0.057627 0.067563 -0.002626 -0.008989 0.099378 0.077531 -0.015383 -0.044369 -0.133427 0.031588 0.093429
<ban> -0.017961 -0.108680 -0.063760 0.100101 0.081150 0.052798 -0.116955 -0.064763 -0.021394 -0.072445 -0.081171 0.007872 0.155306 0.066381 -0.007676 0.031384 -0.102558 -0.058584 0.063204 -0.098861 0.028720 0.194165 -0.163717 0.064540 0.045318 -0.070403 -0.213067 -0.056821 0.098526 0.108645 -0.150011 -0.144047 -0.005828 -0.032183 -0.080447 -0.113113 -0.044279 -0.221662 0.035814 -0.030532 0.158127 0.156086 0.184504 0.052240 0.089530 -0.044218 0.103622 -0.117455 -0.125921 0.071940 -0.083536 0.001649 -0.184113 0.128805 0.094717 0.197576 -0.136241 -0.053914 0.054758 0.007803 -0.045607 0.088354 0.047585 0.067982 -0.053094 -0.022361 -0.033253 0.077647 0.086530 0.123715 -0.063440 -0.007612 -0.222608 0.096401 0.053461 -0.229662 -0.037142 -0.149277 0.036805 0.175968 -0.041840 -0.005559 0.105266 -0.040122 0.027423 0.000783 0.199853 0.073155 -0.064237 0.019515 0.081912 0.007097 0.082467 -0.061651 -0.024004 -0.049371 -0.050480 0.027030 0.026381 0.093400 -0.050737 0.002599 0.086573 0.074380 0.031266 -0.128713 0.141995 0.131073 -0.345948 0.019693 0.065531 0.105225 -0.117744 0.055112 -0.072393 -0.053158 0.129735 0.138956 -0.092982 0.178913 -0.160249 0.037311 0.137428 0.051115 0.099782 -0.059053 -0.081334 0.000438 -0.071084 -0.219101 0.140465 -0.046111 0.166239 -0.057705 -0.098931 0.056502 -0.182821 -0.159290 0.251515 0.037181 0.254491 -0.094344 -0.215690 0.086910 -0.065382 0.008509 -0.085582 -0.002773 -0.094109 -0.130381
<bar> 0.110577 -0.050390 0.061134 0.018803 0.094426 0.124567 -0.094175 -0.039770 -0.048556 0.088293 -0.084201 0.026282 0.014362 0.023992 -0.080009 -0.033064 -0.088687 0.049116 0.112938 0.067171 -0.010816 0.075880 -0.076956 0.099016 0.079475 -0.068536 -0.059122 -0.083515 -0.009240 0.020037 0.044521 0.039958 -0.083046 0.025857 -0.016811 -0.025441 -0.010315 0.006150 -0.063925 -0.003954 0.025034 -0.097646 0.109303 0.101607 0.025580 0.009225 -0.028090 0.013789 -0.037219 0.005698 0.108423 -0.011299 -0.087014 -0.018095 0.078341 -0.000727 0.075078 -0.065463 0.042786 0.014347 0.058153 0.011475 -0.041043 -0.033464 -0.053275 -0.102152 0.102123 0.042489 -0.006006 -0.134011 0.017171 -0.067718 0.029311 0.019221 0.068193 -0.107409 0.003998 0.018547 0.076681 -0.054767 -0.036377 0.064557 0.004095 0.088007 0.025465 -0.079669 -0.039626 0.101886 0.074372 0.107931 0.040163 -0.088356 0.045737 -0.015439 0.066828 0.095940 0.011471 -0.064281 0.066038 -0.138296 -0.028229 0.134709 0.077122 0.042252 0.135374 -0.035033 -0.071570 0.079232 -0.020209 0.011951 -0.051721 0.079672 0.061152 0.042651 -0.001819 0.019121 -0.017406 0.123442 -0.052172 -0.072118 0.071295 -0.012422 -0.099047 -0.057156 -0.014082 -0.096325 0.069252 0.117086 -0.095214 0.013187 0.084520 0.146447 0.110928 0.001674 -0.068052 0.072243 0.007550 -0.081218 -0.125506 0.033137 0.044109 -0.042956 0.051166 -0.081994 0.115027 0.191547 -0.051964 0.045657 -0.038315 -0.038211
<bbc> -0.123156 0.067241 0.015300 -0.025590 -0.029451 -0.079865 0.058037 0.011181 0.022605 -0.042934 -0.010217 -0.056841 0.019631 -0.091991 0.079190 0.010760 0.082019 0.065680 -0.044658 -0.001102 -0.106018 0.021834 -0.005081 -0.150320 0.093870 -0.123971 0.030420 0.019770 0.027026 0.073123 0.192747 0.098430 0.181834 -0.080429 0.124186 -0.073238 0.216348 -0.181994 -0.138028 0.079324 -0.154895 0.072279 -0.067553 -0.117632 -0.067904 -0.059758 0.035560 0.076476 -0.096979 0.049149 0.060599 -0.063335 -0.008934 -0.060550 -0.004865 0.187393 0.116531 -0.029612 0.057137 0.065484 -0.042084 0.118253 -0.048922 -0.116979 0.058231 -0.169167 -0.054673 0.023653 -0.020490 0.115387 0.002248 0.120229 0.149636 0.076243 -0.154531 0.057149 -0.080872 0.021803 -0.008659 -0.070436 -0.042577 -0.124218 -0.181748 -0.047134 -0.019605 0.115476 0.272248 0.036862 0.047982 -0.032225 -0.023640 0.016287 0.112661 0.126273 -0.000995 -0.013041 0.015263 -0.178105 0.010435 0.202083 -0.102712 0.113916 0.037362 -0.079815 0.023568 -0.016469 -0.092749 0.054893 0.218157 -0.078034 -0.017153 0.011685 -0.028277 -0.160120 -0.064289 0.227511 -0.169313 -0.164412 -0.189453 0.058233 0.081529 -0.093940 -0.061231 -0.036066 -0.234844 -0.087492 -0.033013 -0.038200 0.056410 -0.116256 -0.033297 0.084770 -0.066666 -0.120091 0.171409 -0.053844 0.020940 0.075308 -0.131503 -0.121245 -0.090061 0.002905 0.142888 -0.062290 0.065125 0.004402 0.113250 -0.065647 -0.051089 0.202600
<bcl> -0.098855 -0.003142 0.080726 0.050794 -0.006540 0.045485 -0.042370 -0.019838 -0.081700 -0.082946 -0.087437 0.028076 -0.007472 -0.029618 -0.110756 0.116110 0.038077 -0.100214 -0.099950 0.076369 0.119766 -0.068128 0.080291 0.005536 0.080434 -0.029159 -0.027460 0.035613 0.056645 0.107582 0.083834 0.048976 -0.023881 -0.062959 -0.081496 -0.058370 -0.052515 -0.054480 -0.010266 -0.051043 -0.017294 0.029762 -0.016049 -0.056309 0.078429 -0.067086 -0.096466 0.010279 -0.081677 -0.013742 0.031971 -0.005152 -0.048866 -0.085105 -0.079623 -0.081624 -0.057943 0.083600 0.000511 0.032887 -0.003793 0.030954 0.113234 0.080080 -0.046925 0.033425 -0.017601 -0.063377 -0.074131 0.012826 0.001854 0.079240 -0.045138 0.104025 0.008579 0.079204 0.041433 -0.063851 -0.078288 0.009234 0.006126 -0.060093 0.050226 -0.041184 -0.028101 0.078103 -0.121409 -0.070503 -0.003205 -0.012265 -0.092669 0.027556 0.050504 -0.055234 -0.100502 -0.035623 0.058678 -0.081809 0.003709 -0.109707 -0.019087 0.021944 -0.104321 -0.006893 -0.049113 0.069942 0.086804 0.078556 -0.062693 -0.066688 0.040072 0.107494 -0.116364 -0.051098 -0.069752 -0.028278 -0.030954 -0.041648 0.064174 -0.013609 0.048988 0.070440 -0.095479 0.052079 0.121760 0.067381 -0.025230 -0.039009 -0.043672 0.013067 0.024310 -0.041719 0.037678 0.060219 -0.087233 -0.040043 0.011440 0.047199 -0.075064 -0.074246 -0.063436 -0.104219 -0.030689 0.000863 -0.076676 -0.011721 -0.030069 -0.025188 -0.056142 -0.068204
<bdr> -0.029954 -0.033448 -0.026105 -0.262188 0.013799 -0.066816 0.002548 0.146107 -0.208564 -0.099416 -0.155821 0.043040 -0.092539 -0.219491 -0.034582 0.172917 -0.061117 0.006346 0.035481 0.081376 0.066704 0.037323 0.195250 -0.154078 -0.011890 -0.270879 0.078001 0.141558 -0.000840 0.065789 0.044831 0.214736 -0.060818 0.031379 0.220797 -0.090707 0.021980 -0.064763 -0.034337 0.026159 -0.246084 0.045255 -0.034091 0.043386 -0.167956 -0.022873 -0.177038 0.016837 0.183607 -0.155788 0.045458 -0.085426 -0.138301 0.044462 -0.188503 -0.045206 -0.037024 -0.099319 -0.042379 0.016963 0.101344 0.205640 -0.148548 -0.010448 -0.000259 0.062591 -0.065023 0.042518 0.095680 0.028395 0.085508 0.032937 0.086630 -0.228745 0.040070 0.144835 0.066974 -0.076167 -0.133491 0.121612 0.038433 -0.095861 0.016774 0.075431 0.090434 0.041721 0.092175 -0.108756 0.067868 0.035107 0.023621 0.152895 -0.059079 0.165639 -0.200879 -0.184441 -0.090498 -0.108303 0.024904 -0.057931 0.063262 0.047152 -0.073561 0.120687 -0.139627 -0.000239 0.099481 -0.004488 0.212032 0.004959 -0.005924 -0.112608 0.062321 -0.013705 -0.021886 0.058561 -0.089549 -0.081314 -0.087475 -0.108575 -0.011209 0.154145 -0.062721 0.081512 -0.184563 -0.130517 -0.052896 0.107558 0.122388 0.170800 -0.002750 0.020945 -0.042999 -0.078814 0.003027 -0.143149 0.072687 0.093409 -0.047278 -0.070023 -0.184879 0.177892 -0.073564 -0.009473 0.012472 -0.055618 0.020056 -0.174061 0.220226 0.210562
<bel> 0.019758 -0.073138 -0.116655 0.138664 0.106616 0.050484 -0.121030 -0.222460 0.120869 0.135120 -0.129277 0.232602 0.135298 0.075935 0.001730 -0.024085 0.096425 -0.057350 -0.049576 0.089564 0.126545 -0.157559 -0.037041 -0.078610 -0.015195 -0.033297 -0.056749 -0.077353 0.099298 0.148821 -0.113297 0.002333 0.091197 -0.027209 0.010133 0.044972 -0.168903 -0.051921 -0.027654 -0.056048 -0.040016 0.028194 -0.015287 0.017437 -0.056879 -0.125230 -0.034143 -0.131418 -0.145290 0.070259 -0.014253 0.046407 -0.047549 -0.061610 -0.019155 0.057501 -0.079385 0.292399 0.077078 -0.116060 -0.163106 -0.004333 -0.095128 0.080342 0.006174 -0.094425 -0.113773 0.052488 0.037585 -0.023736 -0.150316 0.092141 0.022411 -0.003385 -0.193902 0.175517 0.136939 -0.009419 0.109913 -0.047264 -0.060528 0.032285 0.079904 0.074962 0.243438 0.175612 0.060826 -0.077167 -0.076386 0.020990 0.264399 0.049747 -0.115046 0.105796 -0.038594 0.167021 -0.015549 0.081964 -0.211693 0.019691 0.030877 -0.031329 -0.152492 -0.046742 -0.038444 -0.082113 -0.006070 0.030531 -0.261678 0.044713 -0.147434 -0.007630 -0.075202 -0.021769 -0.087651 -0.062547 -0.008604 0.122204 0.124620 0.073811 -0.000738 -0.063605 -0.095949 -0.000950 0.079116 0.116109 0.070836 0.079739 -0.034449 -0.155617 -0.013550 -0.114312 0.114014 0.037823 0.058943 -0.082781 0.042865 -0.069017 0.118406 -0.019589 0.126065 -0.164352 -0.071941 0.175561 0.005653 -0.070924 0.080655 0.166355 -0.042702 -0.071155
<ben> -0.086429 -0.136563 0.113330 -0.307713 0.154290 -0.311607 -0.354991 0.279992 -0.065324 0.082829 0.212218 -0.057763 0.203191 -0.013131 0.199322 -0.332208 0.139304 -0.069084 0.039326 -0.283595 -0.602883 0.169962 -0.332363 -0.020623 0.222473 0.089730 -0.350020 -0.296729 -0.384973 -0.375738 -0.385289 -0.102285 0.023610 -0.050155 -0.092281 -0.289014 0.052988 0.109485 -0.086757 0.076875 0.162800 0.097555 0.363655 -0.332209 0.409971 -0.124949 0.363433 -0.123145 -0.296160 0.443841 -0.156118 -0.325525 -0.442286 -0.108705 -0.143709 0.279029 0.154180 -0.177927 -0.059560 0.182629 -0.184239 0.242656 -0.043004 -0.131018 -0.028285 -0.040548 -0.041173 0.028269 -0.254114 -0.046523 0.115013 0.166193 -0.348491 0.195511 0.228713 0.013232 0.030789 0.057447 0.086146 0.496302 0.141865 0.116048 -0.213662 0.111754 0.161153 -0.322867 0.147736 0.281264 -0.048058 0.066226 0.065185 -0.206125 0.482141 -0.004342 0.339263 -0.086325 -0.094118 -0.187114 0.088914 0.243913 -0.112848 0.301630 0.212297 0.070583 0.066436 -0.355353 0.044879 0.117637 -0.473679 -0.131229 0.106075 0.112056 0.093439 0.096274 0.219292 -0.016142 -0.056566 0.206364 -0.363029 0.162002 -0.146890 0.144957 0.177937 0.059816 0.272343 0.375787 -0.034893 -0.227558 -0.064146 -0.008395 0.082697 0.196496 -0.222065 -0.014208 -0.114452 0.038358 0.010286 -0.322499 -0.187447 0.066344 0.060140 -0.319600 0.042744 0.201479 -0.082766 -0.111947 0.090046 -0.154677 -0.225995 0.000100
<bis> 0.040435 -0.022725 -0.119214 0.163009 0.070028 -0.007944 0.010234 0.034276 0.008942 0.055875 0.019834 0.034038 -0.082891 0.020951 -0.069801 -0.031128 0.054023 -0.092894 0.058853 -0.059908 0.053819 0.023486 -0.132076 0.054481 0.020420 0.060357 0.168366 0.066657 0.037073 0.033996 -0.102343 0.048119 0.038627 -0.014240 -0.048015 0.070882 0.141746 -0.113646 0.012789 0.011670 0.017142 0.070860 0.044966 0.039817 0.012616 0.027666 -0.086497 0.056945 0.076944 -0.059648 -0.030634 -0.069428 0.002464 0.043747 0.016972 -0.058316 -0.015187 -0.059178 0.106854 -0.025754 -0.019035 0.096650 0.080344 -0.055746 -0.048713 0.054800 -0.038668 -0.036861 -0.033676 0.087708 -0.027073 -0.046192 0.042799 -0.018949 0.008069 -0.095989 0.060720 0.018548 0.044211 0.045812 0.040327 0.112041 -0.042416 -0.063633 0.036761 -0.020194 -0.040502 -0.059900 -0.098325 -0.104185 -0.070337 0.108632 0.088839 -0.054038 0.033300 -0.084757 0.059188 0.031142 0.003941 -0.004121 0.008865 0.054833 0.031687 -0.032931 0.016320 -0.072619 0.013406 0.056426 0.103785 0.014205 0.069083 -0.067433 -0.054086 0.117559 -0.042205 0.097091 -0.010829 -0.023114 -0.080817 -0.018014 -0.092806 -0.066837 0.022265 -0.031921 -0.068245 0.030508 -0.150361 0.081925 -0.024115 0.055618 0.015460 -0.071428 0.033289 0.047231 0.053270 0.112275 -0.040165 -0.004595 0.002704 -0.107189 -0.060068 -0.000283 -0.024841 -0.052969 -0.027411 0.047186 0.041901 0.068724 0.079872 0.002250
<bjn> 0.122360 0.024773 -0.101921 0.005043 -0.057365 -0.053235 0.009182 0.059505 -0.132666 0.002148 -0.110732 -0.033768 -0.041664 0.051073 0.063575 -0.134059 -0.117449 -0.093095 0.037033 0.000127 -0.023135 0.112424 -0.091208 -0.104152 -0.095865 0.002913 -0.099398 0.173843 0.069255 -0.024971 0.027647 -0.028496 -0.108550 -0.182355 0.011318 0.134604 -0.018137 -0.108952 -0.135588 -0.162198 0.160712 0.175582 0.086734 -0.137059 -0.004034 0.179905 -0.019288 -0.004376 0.125428 0.188579 0.086284 0.031377 -0.007062 0.249343 0.004967 -0.139402 -0.114733 -0.038910 -0.027307 -0.022484 0.100614 -0.019791 -0.092579 0.399850 0.064441 0.153263 -0.005008 -0.019079 0.003678 -0.200626 0.153845 0.008514 0.014429 -0.312088 0.115297 -0.116765 0.024039 -0.156989 -0.253027 -0.007042 -0.019497 -0.003930 0.074284 0.166305 0.031485 0.063323 0.086017 0.179628 -0.111751 0.079321 -0.172239 0.068512 0.119572 -0.106677 0.213638 -0.140436 0.158641 -0.037176 -0.036078 -0.109054 0.083792 -0.131387 -0.007302 0.028178 -0.031314 0.166043 -0.031615 -0.007501 -0.016400 0.067779 0.139013 -0.150014 0.050702 -0.027443 0.045235 -0.051467 0.158693 0.126930 0.129597 -0.145557 -0.067811 0.042122 -0.053903 0.248286 0.010751 -0.142450 -0.062903 0.081533 0.101736 -0.039702 0.108359 -0.120787 0.206865 -0.013193 -0.046618 0.013494 -0.069784 -0.060586 0.069560 0.018491 0.105268 0.025193 0.036804 0.070576 0.042894 0.059079 0.099963 -0.099058 0.066623 0.020983
<bnn> 0.102457 -0.126048 0.041488 0.089212 0.054049 0.045389 -0.024648 -0.094222 -0.002810 -0.074524 0.062528 0.026682 -0.005177 0.040895 0.030145 -0.019220 -0.130710 -0.040169 -0.098405 0.022145 -0.060899 -0.119121 -0.047169 0.066445 0.077230 0.087717 -0.263653 -0.011914 -0.142467 -0.144296 0.024612 -0.011232 -0.149807 0.064559 -0.143341 0.102491 -0.016201 0.030474 0.106897 0.000207 0.147426 0.068735 0.063944 0.006145 -0.001134 0.159929 0.061733 -0.031977 0.049380 0.202068 0.048636 0.160002 -0.124997 0.062881 -0.080957 -0.256608 0.016754 -0.027686 0.016111 0.053901 -0.010189 0.047776 -0.043442 -0.059744 -0.013802 0.157472 -0.015296 -0.035370 -0.006717 -0.051213 -0.089846 -0.122568 -0.076205 -0.047954 0.174859 0.222854 0.001614 -0.027938 0.009438 0.131175 0.001018 -0.135911 -0.161357 0.145325 -0.109642 -0.166969 0.023843 -0.002135 -0.215368 0.093968 -0.084779 0.069703 -0.106449 -0.087647 0.087521 -0.145774 0.070291 0.080870 0.099141 -0.095315 0.133298 -0.031654 -0.005113 -0.090066 0.126777 -0.014615 0.105592 -0.156727 -0.063710 0.069760 0.129671 -0.114104 0.081558 0.214402 0.105115 -0.007096 0.176742 -0.113781 0.132070 0.047611 0.013222 -0.005872 -0.056063 0.168599 0.089511 -0.043137 0.061241 0.002883 0.031987 -0.066487 0.071521 -0.065506 0.207167 -0.028079 -0.072262 0.104123 0.079210 0.072853 0.102478 -0.019591 0.046150 -0.100409 -0.157096 -0.000668 0.082614 0.061320 0.018169 -0.020140 0.063723 0.157466
<bod> 0.022998 -0.073633 -0.060807 0.088764 0.058600 0.016964 -0.002283 -0.026359 0.006679 0.109856 -0.014860 0.055136 0.114779 0.165214 -0.091525 0.027444 -0.054470 -0.005168 -0.056828 -0.096540 -0.034108 0.089562 0.115942 -0.074968 0.152606 -0.032113 -0.122188 -0.200624 0.000435 0.005967 -0.011942 -0.096553 0.054235 -0.153264 -0.060569 -0.052896 0.082520 0.094804 -0.165444 0.109628 0.001187 -0.178777 -0.017794 0.125600 -0.027537 -0.043679 -0.080047 -0.070959 -0.087452 -0.069548 -0.075945 0.003569 0.203131 -0.027182 -0.090876 0.068492 -0.045488 0.216533 0.072210 -0.020320 0.068750 0.084140 0.084265 -0.021619 0.011691 0.033387 0.055236 -0.054301 -0.109044 -0.006999 -0.043359 0.025899 0.027874 0.088544 -0.060664 0.130343 -0.027417 0.040332 0.157735 0.069889 0.060145 0.049956 0.034862 -0.117398 0.067077 0.006158 0.125240 -0.000153 -0.017376 0.056693 -0.032234 -0.129622 -0.019349 0.095087 -0.008213 0.069264 -0.041675 -0.051513 -0.065192 -0.008817 -0.052438 0.058977 -0.072906 0.077554 -0.039767 0.039199 0.008923 0.054078 0.155902 -0.004453 0.123870 0.075395 -0.048017 0.024193 0.244657 -0.086064 -0.031087 0.067380 -0.006228 0.071112 0.034829 -0.153597 -0.068039 -0.046263 0.049531 0.122514 0.011131 0.094264 -0.146221 0.013879 0.029528 0.032206 -0.243095 -0.177176 0.010906 -0.058074 0.044522 0.084247 -0.133810 -0.020711 0.061674 0.131925 0.104238 -0.140577 0.089575 0.142862 -0.022175 -0.010661 -0.025489 0.103512
<bos> -0.043674 0.200975 0.176184 0.113466 -0.036045 -0.074276 -0.078366 -0.258815 -0.013132 0.203451 -0.121184 0.120350 0.119615 -0.078014 0.102977 -0.347212 0.039161 0.154491 0.077088 -0.217020 -0.051597 -0.016147 0.050692 0.067664 0.003843 -0.010688 -0.178259 -0.240976 -0.051750 0.026389 -0.277967 0.380867 0.121638 -0.004559 -0.185342 0.127994 0.167713 -0.139274 0.014829 -0.116912 0.268829 0.209865 0.151125 -0.007325 0.098274 -0.027278 0.223816 0.017668 -0.196001 0.008797 -0.075706 0.253078 -0.087022 0.088217 -0.018313 0.080047 -0.104232 -0.055044 0.151925 -0.085564 -0.308818 -0.040694 -0.261844 0.056203 -0.037037 -0.301195 0.062308 0.076467 0.132897 -0.046400 0.235857 0.019114 -0.280763 0.241301 -0.222732 -0.106706 0.161295 -0.308671 -0.094718 -0.415821 -0.404378 0.008646 0.087824 0.248749 0.074238 0.194993 -0.140600 0.008802 -0.041409 0.063428 0.047697 0.017323 0.121508 -0.091357 -0.306026 0.177136 -0.019820 0.163393 0.005000 0.109261 0.100668 0.219478 -0.196173 0.235875 0.120234 0.078460 0.047080 0.086236 -0.275684 0.016561 -0.169901 -0.097373 0.139360 -0.103795 0.160652 -0.053981 0.273697 0.194222 -0.057040 -0.048880 0.074150 -0.173895 0.041651 -0.048220 -0.191078 -0.068723 -0.117911 0.078343 -0.070959 -0.152367 0.252634 0.018253 0.308429 0.171347 -0.361890 -0.036559 -0.115529 -0.055997 0.188180 0.086606 0.449676 -0.103870 -0.171134 -0.068731 0.116088 0.092658 -0.014351 0.199048 -0.213894 -0.101054
<bre> -0.618661 0.087904 0.037340 0.344911 -0.241887 -0.139478 -0.368402 -0.186049 0.334765 -0.508559 0.664088 -0.347020 -0.583668 0.599469 0.273069 0.119763 -0.596135 -0.160367 0.772055 0.157676 -0.435874 0.358726 -0.138153 -0.192468 0.077254 -0.288763 0.322737 0.659042 0.457653 0.327368 -0.018220 0.655140 -0.535800 0.452150 0.185259 0.288286 -0.275428 -0.277277 0.346765 -0.097890 0.398239 0.047281 -0.022129 0.444433 0.464431 0.493818 0.203863 0.191855 -0.095259 -0.072221 0.001388 -0.206422 -0.002127 -0.018002 0.046516 0.514510 0.057557 0.021103 0.283871 -0.285895 -0.017633 -0.142196 -0.050400 -0.104437 -0.741296 0.135933 -0.383177 0.008391 -0.048952 -0.161074 0.302847 0.114088 0.078627 0.377094 -0.260760 -0.347627 -0.798649 0.299181 0.202859 -0.305140 -0.028562 0.141571 -0.280419 -0.004474 0.058282 0.768396 -0.038870 0.179746 0.142396 -0.368850 -0.096204 -0.329843 -0.201940 -0.130914 0.347419 -0.064042 0.254853 0.249984 0.573811 0.246597 0.279818 -0.265291 0.382380 0.146110 -0.321351 -0.264098 -0.022395 -0.057464 -0.155777 0.423471 0.059806 -0.165948 -0.180062 0.134490 -0.342085 0.583522 0.096175 0.275451 -0.286133 -0.455472 0.208685 0.390347 0.394065 -0.481413 -0.411398 0.636395 -0.235042 -0.629327 0.581842 -0.205218 -0.063691 -0.461418 0.196880 0.483557 -0.215311 0.208606 0.077269 -0.346209 -0.192764 -0.027712 -0.422030 0.153975 0.233051 -0.178749 -0.680620 0.157167 0.042360 0.025985 -0.430515 0.117855
<brg> 0.008394 -0.039124 -0.106146 -0.102373 0.150609 -0.026191 -0.059239 -0.130476 0.003474 0.043183 -0.063589 0.023862 0.115917 0.044687 -0.004950 -0.067694 -0.088257 0.098804 -0.083543 0.017125 0.174369 0.016893 0.002223 0.118701 -0.056130 -0.109428 -0.026939 0.017409 0.007085 0.074243 0.032328 -0.042686 0.105196 0.001267 -0.128475 -0.009984 0.028301 0.069147 -0.018662 0.119997 -0.046326 -0.128636 0.052255 0.123418 0.080331 0.048134 -0.042440 0.002154 0.077084 0.011018 -0.006550 -0.057610 0.061121 0.040440 -0.024809 -0.039468 -0.124158 0.103759 0.027250 -0.030948 0.128402 -0.107382 0.022958 -0.054531 -0.009941 -0.037929 0.112539 -0.011484 -0.060671 0.101961 -0.117806 0.084282 0.055877 -0.027040 -0.047401 0.040910 -0.077971 0.089709 0.014100 0.114837 0.003941 -0.035841 0.169213 0.028522 0.003334 -0.046841 0.009103 0.064736 -0.026070 -0.084169 -0.072178 0.143549 0.045857 0.093496 -0.146609 -0.070840 0.025212 0.079565 -0.002611 -0.109470 0.030091 0.077392 -0.076518 0.018332 0.017717 0.053058 -0.073385 0.082406 0.057727 -0.104881 0.017224 0.066900 0.049850 0.039423 0.076710 -0.019394 -0.057037 0.052911 -0.036664 0.015114 0.030211 -0.098892 -0.077122 0.006174 0.044273 0.014761 0.061574 -0.016227 -0.156334 0.025647 -0.071487 -0.098011 -0.137571 0.069165 0.051027 -0.072165 0.078316 -0.111981 0.067049 -0.019923 0.049070 0.009441 -0.054337 0.008485 0.056339 0.018902 -0.004376 0.014153 0.113065 -0.008696
<btf> -0.175213 -0.113079 0.051999 -0.144543 -0.081143 -0.154629 -0.026624 0.097026 -0.028798 -0.054400 0.109833 -0.114407 -0.125635 0.008201 -0.046773 -0.151140 0.007348 -0.010875 0.135542 0.100820 -0.154424 0.128596 0.067648 0.017552 -0.027480 -0.022322 0.009496 0.214190 0.138621 0.051010 0.117302 0.196332 0.038451 -0.017532 0.082818 -0.026420 -0.024740 -0.077135 -0.122301 0.120720 0.061785 0.095250 0.121143 -0.070355 0.154606 0.046433 0.048990 0.104322 -0.064515 0.099968 0.072992 -0.139530 0.085912 0.000346 -0.044630 0.077246 -0.019231 -0.142425 0.044595 0.025563 0.086813 0.080576 -0.067578 0.149461 0.068446 0.069579 0.188670 0.136569 -0.020821 0.069767 -0.069672 0.003860 -0.018041 -0.078717 0.013958 -0.121003 -0.105552 0.071205 -0.096781 -0.035294 -0.057891 -0.138755 -0.183258 -0.197532 -0.003273 0.168194 0.070332 -0.028265 0.133409 -0.018231 -0.097616 0.040329 0.030481 -0.010575 -0.002230 -0.065789 0.036741 -0.045514 0.041278 0.022597 -0.131633 -0.103322 0.072813 -0.050835 -0.128743 -0.080091 0.071615 0.078240 0.073216 0.105822 0.088364 0.002160 -0.022358 -0.046620 -0.155854 0.170072 0.056762 -0.031935 -0.088554 0.064213 -0.032439 0.043522 0.052667 0.031990 -0.183281 -0.062801 -0.004913 0.058143 0.113392 0.030518 0.067719 0.052192 -0.023139 0.047081 0.034647 -0.019413 -0.022331 -0.018989 -0.048141 -0.057812 -0.001635 -0.040936 0.015594 -0.022001 -0.088735 0.050429 0.072900 -0.049530 0.004052 0.057003
<bua> -0.007856 0.126029 0.159367 -0.077453 -0.075157 0.036429 -0.160847 -0.219480 0.007039 0.074433 0.053576 -0.035482 0.100963 0.174839 -0.120321 -0.130172 -0.090248 0.095409 0.051797 0.050862 0.215753 0.055394 0.118048 -0.047073 0.053892 0.144389 -0.138775 0.174343 0.128857 0.014947 -0.108286 0.067253 0.022097 0.147212 -0.129851 0.136666 -0.098179 0.042130 0.055236 -0.045084 0.290367 0.004949 0.106421 0.206012 0.073557 0.023305 -0.039598 -0.008827 0.112040 0.000355 0.019054 -0.055153 0.022293 0.238681 0.156978 0.297969 -0.192043 0.148708 0.109679 -0.092152 -0.203941 -0.008199 -0.129908 0.133426 -0.056557 -0.050057 -0.120061 -0.071094 0.204812 -0.261308 0.101004 0.051700 -0.140709 0.123811 -0.135534 -0.405929 0.034328 -0.016922 0.052169 -0.074293 0.015509 -0.113781 0.200320 -0.161169 0.061662 0.519737 -0.051372 0.102702 0.016321 0.043538 -0.113236 -0.070485 -0.000217 -0.094755 -0.193060 0.171170 0.293106 0.138211 0.201304 -0.290047 0.113067 -0.046568 0.042012 0.066298 0.060725 0.229013 0.004075 -0.083354 0.068366 0.014594 -0.000356 0.032797 -0.108524 0.045876 -0.084422 -0.128082 0.173701 0.056089 0.051308 0.046537 -0.050099 -0.010716 -0.142487 0.000207 0.038256 -0.097063 -0.073838 -0.034181 0.014858 0.076591 0.063892 -0.064376 -0.005336 0.115694 -0.003578 0.040315 -0.105498 -0.057818 0.085416 -0.001198 0.189155 -0.188696 0.018542 0.293537 0.024125 0.268866 0.009328 0.166158 -0.055583 -0.221549
<bul> 0.087578 -0.431265 0.699724 0.225972 -0.046523 -0.399679 -0.225290 -0.543306 0.561966 -0.282410 0.357181 -0.300996 0.263190 0.127221 0.114603 -0.086376 -0.171342 0.445638 0.234908 0.478521 -0.182561 0.466833 -0.204630 0.543992 0.501388 0.156153 0.083109 -0.833919 0.117400 -0.522676 -0.280806 0.007350 0.020570 -0.432421 0.126652 0.322526 -0.525544 0.018240 -0.187016 0.850423 -0.231239 -0.056175 -0.285156 -0.128987 0.292438 -0.381928 -0.356828 0.043742 -1.068889 0.396415 -0.036087 0.196914 -0.708862 0.055264 0.265343 0.931994 -0.169903 0.115134 -0.683991 0.086445 0.333545 -0.196327 -0.075367 -0.331182 0.210214 -0.621570 0.560905 0.048762 -0.320485 -0.134405 -0.077243 -0.028739 0.107719 0.475493 -0.587022 -0.271864 0.257787 -0.442172 -0.114450 -0.087071 -0.572170 0.096111 0.256320 -0.021641 0.116426 -0.223849 0.490490 0.453121 0.388518 0.775512 -0.131909 0.445800 -0.604300 -0.149493 -0.088961 -0.098935 0.092212 -0.128911 -0.511325 0.074163 -0.298027 0.441575 -0.571639 -0.470559 0.388263 0.010326 -0.089366 0.336514 -0.103170 -0.164124 -0.101993 -0.134403 0.001722 0.457443 -0.324035 -0.709880 -0.423069 -0.122565 -0.246500 -0.092621 -0.725114 -0.358958 -0.459276 -0.105483 0.328171 0.331315 0.797378 0.537314 0.128238 -0.316193 -0.426878 0.420722 -0.951659 -0.542470 -0.261845 -0.570664 -0.167486 0.168346 -0.031916 -0.478280 0.585051 -0.461847 -0.573597 0.369397 0.036809 -0.536781 0.280071 0.233212 0.281999 -0.014512
<byq> -0.252527 -0.098536 0.014925 -0.057720 -0.002620 0.221566 0.093217 -0.037541 -0.000195 0.043159 -0.118722 0.022158 0.111293 0.097993 -0.031482 0.075499 -0.040829 0.062025 0.040216 -0.011896 0.232125 0.003628 0.001561 0.050696 -0.033879 0.062653 -0.050952 -0.005489 -0.056945 -0.009400 -0.112070 -0.129662 -0.057155 -0.045649 -0.138952 -0.054033 0.052746 -0.023306 -0.142395 -0.042119 -0.044335 0.084931 0.078377 0.181899 -0.066116 0.130278 -0.217895 -0.164324 -0.075837 -0.019320 -0.091342 0.055816 0.037257 0.030367 0.024647 0.005080 -0.072877 0.160694 -0.140408 0.072934 0.048412 0.158165 0.082170 0.064345 0.002864 -0.067888 0.145779 0.128302 -0.076204 0.180044 -0.146249 -0.030824 -0.043788 -0.075257 0.078249 -0.026246 -0.006558 -0.109785 -0.065425 0.283256 -0.043186 -0.052880 0.094081 0.038819 0.018130 -0.125945 0.062600 -0.064886 -0.021606 -0.081470 -0.175763 0.073351 0.072076 0.115313 -0.097769 0.024483 0.177817 0.008825 0.021410 -0.002326 0.103643 0.029364 0.035337 -0.051814 -0.082840 0.117464 -0.084517 -0.141510 -0.102440 -0.171748 0.104463 0.236846 0.039488 -0.036023 0.104809 0.049860 0.097865 0.066179 0.063931 -0.018387 -0.119317 0.045902 -0.111029 0.141255 0.020339 -0.124482 -0.020107 0.134416 -0.141584 -0.023502 0.094267 -0.086671 -0.029696 0.019416 0.098235 0.047739 0.053528 0.071658 0.126677 0.012649 0.020376 0.131503 -0.141514 0.057923 0.039768 0.100227 -0.137333 0.063660 0.092791 0.072596
<bzq> -0.143882 -0.072979 0.101479 -0.010926 0.014899 -0.002697 0.103561 0.022887 0.030719 -0.001484 -0.012340 -0.027053 0.108701 0.135144 -0.153058 0.055242 -0.139131 0.143572 0.131102 0.011427 0.030569 0.115574 -0.033272 0.188096 0.065362 0.015430 -0.045840 -0.085464 0.009849 -0.085570 -0.166002 0.030137 -0.145468 0.115266 -0.022594 0.026160 -0.097826 0.039885 -0.046952 -0.003503 0.014477 0.021703 -0.024602 0.055544 0.054959 0.072310 -0.029579 0.055825 0.167903 0.047007 0.137295 0.067793 0.054400 0.058293 0.010204 -0.073696 -0.055845 -0.008242 0.012110 -0.054141 0.091838 -0.067086 0.083181 0.049387 0.022003 -0.031799 0.184165 -0.059547 -0.035890 0.008214 0.041671 -0.067932 -0.104810 -0.036366 0.008136 -0.020337 0.077551 -0.122422 0.106018 0.141577 0.053981 -0.047419 -0.025943 0.058187 0.049365 -0.002004 0.029932 0.059193 -0.077153 0.125976 0.037648 -0.043362 0.049866 -0.019910 0.116853 -0.046660 0.172295 0.157093 0.178103 -0.176480 0.043764 -0.000542 0.023467 0.014444 -0.067462 -0.117367 -0.024890 -0.079115 -0.053106 -0.052208 -0.009207 0.081164 -0.031461 0.051145 0.093010 -0.060713 0.019562 -0.092110 0.018530 0.011366 -0.097263 0.034167 0.104196 -0.007762 0.129391 -0.127848 0.078858 -0.101912 -0.073634 -0.028212 0.105020 0.072728 -0.006187 0.000989 0.079565 -0.000599 0.040197 -0.081091 -0.029691 -0.096046 0.069008 -0.115946 -0.100845 -0.024910 -0.086314 0.081130 0.011020 0.077593 0.056016 -0.051378
<cat> -0.087729 0.177392 -0.170761 -0.266559 -0.112691 0.249310 -0.535995 0.205622 0.260122 0.072991 -0.094325 -0.271104 0.124560 -0.006230 0.059840 -0.049657 0.195627 0.021921 0.609894 -0.145591 0.369225 0.289953 -0.503764 -0.355251 -0.208719 -0.467571 0.020231 -0.608531 -0.110153 0.129331 0.155584 -0.159328 -0.060142 0.557859 -0.189499 -0.363497 -0.319427 -0.869344 -0.635533 0.175287 0.152310 0.475246 0.286239 0.279475 0.089228 0.115400 0.119980 -0.304423 -0.716379 0.266373 0.095352 0.005792 -0.013910 0.426175 0.320688 0.225555 0.457611 -0.424032 0.597895 0.146653 0.056147 0.538987 0.084040 0.095687 0.109932 -0.159186 0.556124 0.406398 0.258087 0.214209 0.060973 0.486641 -0.298437 0.391764 -0.476173 -0.117544 -0.050416 -0.129942 0.025454 0.103389 0.120085 0.049306 -0.137511 0.271909 0.068680 -0.094306 0.791337 -0.325403 -0.317904 -0.488803 0.017301 0.272800 0.593042 -0.286026 0.259195 0.098866 0.228252 0.462015 0.101000 0.251805 0.093286 0.166683 0.122969 -0.094402 -0.319994 -0.389270 0.207660 0.277428 -0.037988 0.208205 0.193415 -0.057580 0.403874 0.019139 -0.381505 0.528068 0.292105 0.072750 0.376245 -0.409928 -0.480544 0.192267 0.155855 0.239545 -0.125046 -0.337454 0.003349 -0.215239 0.658034 -0.368393 0.453507 0.146962 0.146783 0.401771 -0.486948 0.306184 -0.406876 -0.340029 0.926582 -0.228126 0.381140 -0.494397 -0.592033 0.158015 -0.009320 -0.226079 -0.186087 0.143074 -0.564837 -0.099977
<ccc> -0.183903 -0.065430 -0.099836 0.027186 0.016537 0.063387 0.096686 -0.097481 0.083931 0.042792 -0.090329 0.102663 0.140504 0.084192 -0.100181 0.050934 0.016636 0.036841 -0.058368 0.080189 0.210454 0.044430 0.041812 0.189113 -0.145429 -0.017276 0.183536 -0.147947 0.075996 0.122779 -0.018464 -0.076843 -0.037818 -0.036725 -0.146716 0.203518 0.016942 -0.019988 -0.068857 0.037963 0.064499 -0.103923 -0.060628 0.018351 -0.074621 -0.078871 -0.186387 -0.172527 0.114291 -0.038397 0.007323 0.078270 0.151189 0.088549 0.047479 -0.044512 -0.053498 0.093494 -0.029454 0.042243 -0.126530 -0.042069 0.049728 0.029891 0.027504 0.025636 0.026102 -0.081907 -0.008120 0.128422 -0.155190 0.045466 0.053527 0.016246 -0.073226 -0.000497 -0.056545 0.042017 -0.026935 0.208443 -0.017882 -0.060882 0.081680 -0.061833 0.112558 0.094311 -0.122889 -0.085397 0.079288 -0.084480 -0.107963 0.059986 -0.023510 0.014095 0.048832 -0.036367 0.192454 -0.006118 0.132084 -0.108105 0.099445 0.010103 0.069339 -0.110374 0.081174 0.125152 0.006379 -0.093913 -0.015896 0.004907 0.065942 0.046048 -0.006328 0.002748 0.126091 -0.183249 0.073687 -0.104112 -0.074819 0.055109 -0.030541 -0.012478 0.039694 -0.044482 0.113186 -0.079060 -0.003957 -0.018684 -0.214733 0.152231 -0.031652 -0.096315 0.049332 -0.106091 0.146652 -0.012899 -0.051063 -0.010453 0.141232 -0.156933 0.072133 0.016646 -0.087408 0.181382 0.053688 0.022577 -0.071355 -0.036684 0.197977 -0.071166
<ceb> 0.024404 0.010629 -0.059736 -0.294258 0.023131 -0.056460 -0.027013 0.108718 -0.118188 -0.088388 -0.113363 0.127673 -0.010015 -0.022040 -0.103729 0.023812 -0.105937 -0.028859 -0.160958 -0.001410 0.072703 -0.074907 0.018259 0.028393 -0.295475 0.011052 0.248252 -0.068811 -0.155857 0.011003 -0.002168 -0.083943 0.079969 0.001807 -0.050750 0.116224 -0.016927 0.042808 0.162393 -0.070413 -0.029593 0.008687 0.038777 -0.025416 -0.076599 0.071751 -0.164032 0.121248 0.260223 0.039666 0.030576 0.017462 -0.053085 0.035227 -0.090427 -0.191722 -0.149210 -0.082943 0.050036 -0.054990 -0.063709 -0.094324 0.041131 0.055123 -0.100828 0.085503 -0.182635 -0.086502 0.019890 -0.032392 0.102875 0.052627 -0.047555 -0.018874 0.105598 -0.139877 -0.074986 -0.096945 -0.036857 0.004105 0.019952 0.119132 -0.011384 0.196020 0.008507 -0.118049 0.017076 0.070621 -0.113095 -0.141446 0.129130 0.149095 -0.031478 0.092860 -0.018100 0.003096 -0.109019 0.009425 -0.185344 0.041476 0.099641 0.163804 -0.002554 -0.013638 0.073759 0.046423 0.077955 0.096057 -0.061238 0.050957 0.087053 -0.095625 -0.061749 0.128958 -0.061030 0.072157 0.013396 0.033646 0.047875 -0.172111 -0.049730 0.025615 -0.005206 -0.058657 -0.063897 0.004497 -0.042989 0.065046 0.007586 0.053750 0.237513 -0.006625 0.150931 -0.160548 0.001731 0.090768 0.032675 -0.079702 0.004451 -0.080709 -0.018035 -0.091273 -0.164453 -0.170759 -0.041453 -0.092831 -0.188603 -0.246330 0.135863 -0.014495
<ces> -0.075670 -0.240229 -0.065688 -0.148949 0.194919 0.004642 -0.154083 -0.252446 -0.002253 -0.027245 -0.176806 -0.113903 0.036019 0.275265 0.297033 0.190963 0.502788 -0.178902 0.300048 0.656219 0.100261 0.451200 0.624174 0.474623 -0.708860 -0.523301 0.172361 -0.233832 0.112219 0.074183 0.728344 0.288627 0.148967 0.035753 -0.788497 0.232264 -0.040843 -0.145754 -0.584070 0.329055 0.172556 -0.661467 0.512769 -0.200352 -0.114640 -0.298094 -0.006212 0.007062 0.020574 0.436733 -0.193246 -0.918265 -0.006803 0.233010 0.710197 -0.726277 0.394528 0.189895 -0.089467 0.185663 -0.216201 -0.107969 0.384346 0.108671 0.382239 -0.717262 0.536206 -0.185459 0.092971 -0.167364 0.401028 0.032366 0.024683 0.452376 0.155889 0.052913 -0.040077 0.560575 0.136545 -0.478734 0.193639 0.662349 0.466979 -0.190468 0.036878 0.222595 0.098058 -0.273558 -0.638362 0.593525 0.537209 -0.121323 -0.058536 0.164729 0.033461 -0.225567 -0.197161 0.076134 0.241587 0.259912 -0.702795 0.484563 -0.616704 0.255388 -0.176427 -0.372232 -0.715561 0.744031 -0.440934 -0.338272 0.185974 -0.508099 -0.678984 0.218836 0.122407 0.074909 0.181182 0.450933 -0.271776 0.664187 0.526256 0.210003 -0.292908 0.232607 0.024575 0.444776 -0.043390 0.268441 -0.020513 0.763075 -0.594550 0.074288 0.227143 0.565151 0.267587 -0.404049 0.032263 -0.408143 -0.549751 0.444596 0.629982 -0.106455 0.408462 0.494643 0.346274 0.347248 0.528506 0.216507 -0.159242 -0.137110
<cha> -0.116555 0.028351 -0.042664 -0.129084 -0.092466 -0.061354 0.214518 0.095126 0.050191 -0.186002 0.061469 0.029742 0.104337 -0.064915 -0.021151 -0.196897 0.007063 0.019281 0.238861 -0.180860 0.047395 0.073249 -0.135741 -0.067418 -0.027468 0.195216 0.106084 0.218340 -0.052807 -0.037432 -0.252144 -0.168121 -0.145399 0.094482 -0.073894 -0.092134 0.065571 -0.163756 0.061829 -0.219744 0.134168 0.000349 0.002303 -0.175893 0.097873 0.038495 -0.083595 -0.135170 0.186787 -0.027597 0.068474 0.022434 0.014331 0.111757 0.164318 0.136235 -0.027792 -0.110457 0.027946 -0.008816 -0.168168 -0.085756 0.188276 0.243390 -0.195437 0.147972 0.010360 0.022420 -0.061948 -0.044733 0.011646 -0.105802 -0.013463 -0.068454 -0.148695 -0.040545 -0.122447 -0.097711 -0.023912 0.003655 -0.070942 -0.056405 -0.020986 -0.094044 0.061922 0.225237 -0.021380 0.059723 0.089808 -0.179362 -0.140126 -0.062263 -0.088417 -0.094393 0.149199 0.060892 -0.014293 0.152193 0.164346 -0.106718 0.099135 -0.135119 0.045774 -0.130035 -0.084598 -0.044213 -0.149900 -0.160654 -0.029857 0.080422 0.035553 0.037376 0.022990 0.045259 -0.148655 -0.165081 0.116194 0.016083 -0.074587 0.021659 -0.106418 0.107680 -0.054283 -0.043135 0.061685 -0.082287 0.039408 -0.055481 0.034322 0.002416 0.111913 0.049156 0.208404 0.192284 -0.010060 0.014944 -0.117691 -0.064143 0.123083 0.044649 0.095566 -0.036185 0.063995 -0.032818 0.200639 0.227163 -0.064786 0.154191 0.117198 -0.136629
<chk> 0.157283 0.024533 0.063349 0.107317 -0.134167 -0.064316 0.168068 0.007908 -0.002146 -0.010452 0.063375 -0.022948 -0.005837 -0.034171 0.110801 -0.123423 -0.004237 0.097394 0.007179 -0.114452 -0.145260 0.044713 -0.123443 -0.098064 0.105369 0.102247 -0.084322 0.138427 -0.089213 -0.068608 -0.091656 0.008905 0.043596 -0.091525 -0.057193 0.025065 0.108433 0.003199 0.041693 -0.052658 0.169085 0.010313 -0.069030 -0.016948 0.061443 0.041892 0.069019 0.093919 0.128564 -0.069169 0.138782 0.031415 0.035504 0.076495 -0.019785 -0.081871 -0.098204 -0.049213 0.042217 0.024758 -0.015840 0.027315 -0.029511 0.060666 -0.022316 0.124637 0.074232 0.095699 -0.061916 0.002281 -0.019143 -0.070479 -0.022058 -0.056451 0.058070 0.079901 0.074373 0.092303 -0.028913 0.054139 -0.141577 0.073172 -0.033739 0.029589 0.059353 -0.077440 0.019819 0.136189 -0.014106 0.045541 0.054121 -0.214999 0.090259 -0.019527 -0.015490 0.026079 0.039287 0.043766 -0.029771 -0.023184 -0.060342 -0.111174 -0.071567 0.007555 0.145962 -0.154265 -0.090838 0.067200 -0.033587 -0.011732 0.039928 -0.050223 0.029433 -0.067389 -0.044089 0.014812 0.047146 -0.056772 -0.086393 -0.016957 0.101925 0.011272 -0.016611 0.025987 -0.040559 -0.005082 -0.096648 -0.101525 0.071150 -0.015361 -0.050375 0.073338 0.162660 -0.036351 -0.007381 0.157741 0.007589 -0.029195 -0.048878 -0.112279 0.138510 -0.126813 0.105022 -0.149449 -0.068020 -0.072710 -0.072793 0.054661 0.077093 0.078278
<chm> 0.069398 0.051746 -0.058111 0.058619 -0.096028 -0.044603 0.015898 -0.158205 0.066107 0.029435 0.114468 -0.033621 0.030224 0.017742 0.110912 -0.041475 0.094678 0.025875 -0.051305 0.029849 0.029681 0.116366 0.090280 -0.063879 0.041734 0.020515 -0.102552 -0.010886 0.058827 0.085756 -0.003029 0.012457 -0.071765 0.069063 0.044422 0.100597 0.059582 0.010183 0.062429 -0.055560 0.066104 -0.012768 -0.082141 0.103779 -0.009126 0.031980 0.098855 0.087889 0.012677 -0.021382 0.051852 0.018985 0.008955 -0.096860 0.047506 -0.001139 -0.017637 0.077887 0.104281 -0.079228 -0.028380 0.045956 0.067345 -0.095904 -0.030347 -0.014317 0.090123 0.060588 0.048296 -0.063795 0.055416 -0.080336 -0.114200 0.014607 -0.049982 -0.028722 0.091439 0.100517 0.111356 0.070755 0.099826 0.102290 0.085735 0.105916 -0.040478 0.022460 -0.012471 0.043792 0.037988 -0.073217 -0.070942 -0.102862 0.092511 0.067417 -0.128499 0.054889 0.013848 -0.073384 0.030566 0.117363 0.090037 -0.045799 0.037981 0.039124 0.036392 -0.028188 -0.024928 -0.082981 -0.050855 0.084797 0.027914 -0.049225 0.074634 0.035954 0.051128 -0.102883 0.026256 0.034400 -0.118867 -0.019628 -0.063712 -0.024152 0.017375 -0.007902 0.012717 0.017187 -0.045266 0.010472 0.089799 0.052635 -0.115100 0.000675 0.097649 0.102217 -0.082731 -0.003138 -0.032627 -0.106184 -0.114067 -0.092912 -0.046970 -0.064598 -0.052166 0.089990 0.038123 0.085918 0.041438 -0.067327 -0.008722 0.104063
<chr> -0.054747 -0.101375 0.027994 0.035024 0.076311 0.002564 -0.005397 -0.031947 -0.059042 -0.032500 -0.045210 0.133513 0.108696 0.212356 -0.045890 0.032621 0.086359 0.050993 0.038565 -0.123685 -0.123928 -0.029146 0.120563 0.047622 0.024213 0.103191 0.013747 -0.031005 -0.023345 -0.100532 0.088311 -0.128869 0.004814 -0.059973 -0.121845 -0.008073 0.054198 0.033558 -0.188605 0.035610 0.058834 -0.056802 -0.055629 0.128255 0.011348 0.040828 0.084922 -0.016198 -0.023192 -0.039967 -0.079687 -0.130128 0.008039 -0.038525 -0.086137 -0.105079 0.015854 0.086032 -0.036556 -0.020498 0.113326 -0.078391 0.050492 -0.041612 -0.043875 -0.073260 0.016321 -0.021770 -0.103943 -0.014134 0.017625 0.041785 0.103512 -0.001939 -0.111933 0.058481 0.018315 -0.027429 -0.005989 0.021969 0.064016 -0.075277 -0.002377 -0.134534 0.015898 0.005794 0.062007 -0.115269 -0.014740 0.190712 -0.127528 0.059755 0.015386 0.096014 0.022523 -0.037709 -0.046049 -0.120983 -0.039443 0.051443 0.084357 0.029506 -0.028534 0.009425 -0.012075 0.086710 -0.080775 -0.046785 0.116979 -0.165684 0.090181 -0.028609 0.079085 0.018883 0.020736 -0.101665 0.012191 -0.040254 -0.015954 0.145040 -0.080086 -0.135640 -0.004405 -0.024801 0.013808 0.099252 0.001736 0.030130 0.006817 -0.009888 -0.100713 0.067506 -0.056584 0.016675 0.140081 -0.084914 0.202568 -0.000371 -0.032430 0.014452 -0.024431 -0.037699 -0.021031 -0.051427 -0.012788 0.188058 -0.062177 0.138730 -0.035889 -0.018848
<chu> -0.045313 -0.007221 -0.053443 -0.074002 -0.030467 -0.003730 -0.086692 -0.115461 0.107266 0.047724 -0.148480 -0.081611 0.037336 0.128671 0.004138 0.012062 -0.012474 0.054261 0.026794 0.128441 0.007320 -0.098304 0.033827 0.068824 -0.041460 0.100992 -0.111353 -0.104903 0.087388 0.037972 0.055446 -0.063710 -0.054967 -0.004542 0.139984 0.015137 -0.112163 -0.208833 -0.114224 0.067811 -0.022635 0.076244 0.083330 0.164934 0.026036 -0.048008 -0.052447 -0.172075 -0.051102 0.149798 0.060889 0.041245 0.028203 0.015659 0.111775 -0.048090 -0.031879 -0.016104 0.176225 -0.072137 0.056669 0.086908 0.092190 0.063251 0.018831 -0.020759 0.100092 -0.041291 0.141794 0.025385 0.056350 0.125348 -0.049215 -0.051691 0.019752 0.020767 0.112119 0.117827 -0.079501 0.027137 -0.010260 -0.068565 -0.016740 0.023331 -0.117088 0.029761 0.075312 -0.090176 -0.202519 0.002122 -0.170718 0.092381 -0.005558 -0.037581 0.228791 0.095115 0.134763 0.108433 0.016092 -0.032031 -0.036284 0.060902 0.014207 0.029634 0.154905 0.128830 -0.046097 -0.003192 -0.054911 0.002780 0.090551 0.000549 -0.099101 -0.037576 0.060530 0.062303 -0.025410 0.105583 -0.001934 0.052154 -0.186601 -0.045706 -0.064531 0.120221 0.170096 -0.085681 -0.120922 0.179208 0.028188 0.004781 -0.085214 -0.109530 0.164419 0.051238 0.058179 0.059882 -0.138369 0.062391 0.144787 -0.174198 0.084531 -0.167369 0.012013 0.003431 0.025806 -0.065759 0.091310 -0.166016 -0.066242 0.092217
<chv> 0.007556 -0.027796 0.003362 0.184749 -0.182868 -0.179411 0.202709 -0.069641 0.058265 0.189807 -0.117824 0.019115 -0.145021 -0.373780 -0.109650 -0.153611 -0.053916 0.066435 -0.019663 -0.032344 -0.127717 -0.059402 -0.149015 -0.046586 0.193349 -0.091738 -0.264389 0.212094 -0.358336 -0.197015 -0.096146 -0.122531 0.056566 -0.181546 0.166470 -0.218270 0.199468 -0.337912 -0.090666 0.094382 0.084454 0.299232 0.019017 -0.094071 -0.081505 0.217606 0.090295 0.259891 -0.105616 0.154996 0.038402 0.185482 -0.266345 -0.022974 -0.135522 0.098631 -0.194305 -0.390144 0.023306 -0.142097 0.044602 -0.055044 -0.055949 0.120782 0.202498 0.183630 -0.051457 -0.120695 -0.017116 -0.018032 -0.380320 -0.271171 -0.203648 -0.151568 0.026506 0.246331 0.086468 0.034898 0.074669 0.034620 -0.169551 0.015482 -0.145658 0.043910 0.034023 -0.198647 0.353418 -0.034674 0.118990 -0.117700 -0.101523 0.311287 0.090807 -0.076491 -0.074900 -0.164411 -0.286232 -0.012378 -0.032280 0.511884 -0.157790 -0.320078 0.172808 0.147440 0.103332 -0.062675 -0.322078 -0.139630 -0.310008 -0.114178 -0.075592 0.108843 0.120367 0.091778 -0.124698 0.048711 -0.284164 -0.186015 -0.114575 -0.142968 -0.070844 0.241437 0.075841 0.100317 -0.053586 -0.033762 -0.185800 -0.036778 0.441919 -0.029528 0.332551 -0.004956 0.255934 -0.028417 -0.198047 0.070959 0.009792 -0.154079 -0.159214 -0.213369 0.072830 -0.170941 0.059804 0.142147 -0.025275 -0.228103 0.233449 -0.362787 0.017993 0.085629
<chy> -0.051782 -0.045729 0.037663 0.209404 0.027594 0.122719 0.181712 -0.020734 -0.033523 0.138227 0.060370 -0.003409 -0.098026 0.068551 0.095273 0.161859 0.018120 0.020309 -0.082704 -0.129296 0.002264 0.132199 -0.146145 -0.020630 -0.024173 0.181310 0.024944 -0.033752 -0.029246 -0.008752 -0.024240 -0.037221 -0.041230 -0.024993 -0.152445 0.173106 0.053925 0.135097 -0.007838 -0.188419 0.009481 -0.142393 -0.094353 -0.047627 -0.045137 0.013851 -0.006558 0.072057 0.133366 -0.065000 0.121584 -0.097232 0.132923 0.027183 0.070324 0.026458 0.094239 0.036523 -0.036024 0.002664 0.039348 -0.046639 -0.102437 0.003073 -0.120475 0.071910 -0.008580 -0.097435 -0.014183 0.106494 -0.024955 0.026690 0.081916 0.098694 -0.039558 -0.114793 0.089551 -0.045356 -0.072403 -0.020955 -0.126683 0.043735 0.067456 -0.179120 0.105795 0.134422 -0.105881 0.052361 -0.036402 0.086421 0.128743 -0.119222 0.013944 0.083587 -0.094054 -0.007984 0.062571 -0.124232 0.151207 -0.019071 0.081886 0.029412 -0.034033 -0.105287 0.059756 0.010269 0.013028 0.086825 -0.037030 0.050442 0.077574 0.029750 -0.109219 -0.108400 0.087962 0.066021 0.061595 0.101315 -0.014671 -0.008135 0.213629 0.066790 0.021523 -0.123857 0.011189 -0.002046 0.055756 0.155196 -0.174331 0.077436 -0.073653 0.087127 -0.098300 0.005890 0.033484 0.067641 0.158598 -0.000833 -0.230687 0.167592 0.144557 0.050353 -0.009233 -0.171020 -0.076845 0.182619 -0.007887 0.148287 0.055656 -0.098529
<cia> -0.061166 -0.066025 0.029717 -0.053940 -0.093777 0.027007 0.093785 0.006079 -0.008044 -0.077410 0.090885 0.021479 -0.013540 0.033574 0.090569 -0.015988 0.058009 0.055904 -0.092630 0.049507 -0.009767 0.026798 -0.055127 0.079050 0.033830 -0.006140 -0.128534 -0.088747 0.099478 0.088798 0.053798 0.056059 -0.048366 0.003129 0.025754 -0.056612 -0.049020 0.039849 0.063381 0.018739 -0.027455 -0.125607 -0.100982 0.018691 -0.055684 -0.128825 0.081974 0.019742 0.026878 0.045592 0.014875 -0.064759 -0.031601 0.063484 -0.013987 0.000462 0.061731 0.010312 0.018252 0.041117 -0.059386 -0.037642 0.043475 -0.029369 -0.087260 0.064683 -0.058435 -0.023727 -0.003431 0.029822 0.012159 -0.016779 0.024963 -0.008172 -0.006123 0.068083 -0.086363 0.103617 0.150960 0.002318 0.087193 -0.074934 0.047191 0.082320 -0.094264 0.079476 -0.031425 -0.129525 -0.089388 -0.038144 0.032289 -0.094142 0.089692 0.009637 0.014120 0.101643 -0.110082 -0.056234 -0.001318 -0.023568 0.069357 -0.044575 -0.010284 0.096361 -0.008563 0.085580 0.050737 0.103671 0.065978 -0.014597 -0.055799 0.054657 0.059718 -0.067881 0.058643 0.058109 -0.043715 -0.073321 -0.105214 -0.057357 0.044259 -0.001038 -0.001698 0.059980 0.021356 -0.005243 0.123725 0.071396 0.095998 0.004503 0.021210 -0.109041 -0.106077 -0.044495 -0.075689 -0.061589 0.051902 0.018950 0.041988 -0.124333 -0.071519 0.052575 -0.050746 0.019684 0.006987 -0.005042 0.041828 -0.069121 -0.041201 -0.075927
<cic> -0.117104 -0.173828 -0.064355 -0.068217 0.028175 0.168713 -0.013719 0.042372 -0.082016 0.001423 0.011357 0.025883 -0.016870 -0.016854 -0.049597 0.125326 -0.026075 0.043993 -0.101370 0.021792 0.117754 0.051711 0.020255 0.197677 0.067704 -0.026178 0.056554 -0.147360 0.128116 0.014181 0.026298 -0.102899 -0.015119 -0.023832 -0.066828 0.016650 0.011216 0.083475 -0.000916 0.127817 -0.115869 -0.163180 -0.087968 0.110324 0.062416 -0.066159 -0.057972 -0.147937 -0.090061 -0.066607 0.018049 -0.070792 0.020523 0.052586 -0.032169 -0.066948 -0.070703 0.014810 -0.162773 0.023414 -0.033953 0.006178 0.037458 0.017976 0.126422 -0.041432 0.040604 0.081320 0.031144 0.060782 -0.160974 -0.008700 0.038492 0.080222 0.047604 -0.038071 0.002260 -0.058962 -0.106234 0.187313 -0.040027 -0.045594 0.166380 0.016511 -0.077193 0.029419 0.022770 -0.120908 0.025030 -0.034304 -0.088427 0.128643 -0.038175 0.108916 -0.092304 -0.002960 0.038156 -0.070349 -0.062069 -0.046187 -0.016412 0.015659 -0.078736 0.036546 0.037289 -0.033070 -0.052975 -0.055749 0.062628 -0.012065 0.014815 0.078211 0.059202 -0.062324 -0.055724 -0.038022 -0.015687 0.057985 0.058055 0.061130 0.067092 -0.048051 -0.047528 0.011135 0.138022 -0.054164 -0.021401 -0.062711 -0.115907 0.131277 -0.005032 -0.101141 -0.051404 0.025347 0.135997 -0.045135 -0.029996 -0.013142 0.103692 -0.034307 -0.010235 0.011672 -0.027837 0.040040 -0.011868 0.031181 0.017485 0.034374 0.043629 -0.047240
<cjs> 0.024558 0.111818 -0.191873 -0.003581 -0.068908 0.017793 -0.181977 -0.185319 -0.171871 0.035004 -0.292230 0.285289 0.031255 -0.001292 -0.130318 -0.245122 -0.093043 -0.091124 0.161566 0.016051 0.399184 -0.162730 0.011945 0.106637 -0.069660 0.038289 -0.143900 -0.024083 0.037428 0.159079 -0.029197 -0.005621 0.066005 0.086678 -0.187532 0.145519 -0.236363 -0.201827 0.013469 0.037484 0.082345 -0.021349 0.040082 0.125695 0.007587 -0.019112 -0.050088 -0.104994 -0.052677 0.044874 0.005254 0.236149 -0.018815 0.193494 0.048673 -0.238273 -0.235767 -0.116339 0.127924 -0.188972 0.019045 -0.258563 0.145305 0.363446 0.116646 0.405095 0.061723 -0.125643 0.259401 -0.312428 -0.283183 -0.046584 -0.284599 0.114106 0.029880 0.085600 -0.020664 0.179982 -0.351597 -0.022931 -0.199096 0.016702 0.146677 0.223585 -0.022876 0.045251 -0.055203 0.010526 -0.337069 0.106963 0.050816 0.387538 -0.154294 -0.215383 0.008139 0.048103 -0.218809 0.042707 -0.100326 -0.112242 0.162252 -0.139175 -0.019523 0.046220 -0.052756 0.214473 0.065813 -0.222000 -0.158102 -0.001075 0.093122 -0.139063 -0.102065 -0.272237 -0.137385 -0.095976 0.147575 0.026405 0.129967 -0.029707 -0.088480 0.161238 -0.201406 0.048766 0.104437 -0.008344 -0.095336 0.202941 -0.194330 -0.025297 -0.065132 -0.228151 0.384866 0.226987 0.034979 -0.025083 -0.179963 0.045398 0.311955 0.083578 0.163581 -0.330720 0.076279 0.354549 0.047330 -0.124240 -0.019211 -0.025423 0.241425 -0.108560
<cmn> -0.204986 0.203310 -0.051518 0.208245 -0.016021 0.150964 -0.109806 0.386096 -0.100021 0.048040 -0.357378 -0.139740 0.110019 -0.233074 0.332255 0.013254 -0.030450 -0.052109 0.100875 -0.014174 0.155195 0.066027 -0.017343 -0.131383 -0.113308 0.034402 0.178897 0.077303 -0.014931 0.034808 -0.154541 0.129670 -0.014837 -0.167304 0.009910 0.002961 0.155818 0.072345 -0.090150 -0.037824 -0.367293 0.174161 0.022416 -0.152554 -0.243416 0.101285 0.076510 -0.157838 -0.034718 -0.009784 -0.021513 0.107585 0.067139 0.098885 -0.072624 0.063081 0.062193 -0.027678 0.077822 0.071662 0.032552 0.091541 0.038176 0.100570 0.143145 0.075124 0.130119 -0.015494 0.045559 0.111263 -0.029995 -0.089545 -0.136238 0.048946 0.105497 -0.074599 -0.013208 -0.302339 -0.121722 0.032146 -0.153914 -0.280852 -0.020261 -0.126902 0.091514 -0.301939 -0.162155 -0.155456 0.129838 -0.175069 -0.127742 -0.030043 0.104196 -0.066487 -0.024270 -0.149635 -0.029945 -0.006389 0.014606 -0.045868 0.031667 0.123020 0.101670 -0.087122 -0.116151 -0.038951 0.023227 -0.164790 0.194283 0.139624 0.141430 0.063625 0.275708 0.029464 -0.001999 0.095745 -0.147181 0.270077 0.421229 -0.152918 0.065123 0.236383 0.050425 0.036611 0.082607 -0.380171 -0.162598 0.133054 0.123076 -0.009457 0.238213 0.107445 0.209690 -0.139412 -0.121038 -0.212409 0.051444 0.254594 0.260774 -0.059595 -0.045998 0.262905 0.019501 -0.117477 0.122460 0.043662 -0.353708 -0.228424 0.050110 -0.011544
