<blank> 0.084274 0.091230 0.092203 0.084916 0.054625 0.090543 -0.093060 0.002611 0.096721 -0.047379 -0.046621 -0.086237 -0.029231 0.074463 0.095110 0.022620 -0.016501 0.075037 -0.072767 -0.034723
<unk> -0.014882 0.006835 0.015265 0.016185 -0.022463 0.032034 -0.088426 0.025268 -0.010859 -0.070996 -0.076577 -0.029019 0.053675 0.052796 -0.036634 -0.005564 -0.072392 -0.089842 0.057060 -0.016834
<s> 0.014145 -0.079741 -0.020246 0.014862 0.054542 -0.079467 -0.094586 -0.035297 0.055384 0.090401 0.081105 0.071398 -0.050435 0.097628 -0.025652 -0.021522 0.066214 0.093045 -0.095486 -0.001501
</s> -0.096669 -0.085442 0.045346 -0.080228 -0.012078 0.066006 -0.037553 -0.056902 0.030906 -0.067033 0.090888 0.018548 -0.071604 0.086481 -0.067485 0.000306 -0.016638 0.020085 -0.021655 0.032044
aar -0.048611 0.014004 -0.014020 0.057328 0.201397 0.032627 -0.044344 0.144730 -0.036038 -0.056451 0.039889 -0.023460 0.253950 0.093874 0.014985 0.022437 -0.159622 0.101467 -0.158573 -0.084251
abk 0.380581 -0.166621 0.261046 -0.348097 -0.271283 0.171605 0.207667 -0.179131 -0.494658 0.306626 0.104377 0.124111 0.113429 -0.437946 0.273304 0.634205 0.144591 -0.220875 0.363290 0.412209
aby 0.196331 0.145642 -0.205097 0.342002 -0.088728 0.114914 -0.012298 0.353006 0.023962 -0.402369 0.092149 0.204705 0.097273 -0.429954 0.533115 0.279624 -0.240685 0.198508 0.104905 -0.066490
ach 0.182967 -0.070633 -0.051361 0.316283 0.105098 0.125887 0.171392 0.092580 -0.010324 -0.176162 -0.069555 -0.038118 0.187950 -0.010359 0.230699 -0.057073 0.125006 -0.179449 0.046994 0.042794
ady 0.056097 -1.236255 0.554248 -0.233022 0.379709 -0.885367 0.066706 0.778080 -0.361700 -0.166090 -0.408656 -0.742982 1.084421 -0.934200 0.085248 -0.256598 -0.204125 0.923292 1.715895 0.420869
aek -0.059964 0.004442 0.110414 0.056836 0.013737 0.244551 -0.212834 0.369723 0.168067 -0.192916 0.065332 -0.074412 -0.259393 -0.032105 0.224414 0.399964 -0.056625 0.037504 0.503075 -0.021012
afr -0.784077 0.660471 0.037350 1.319575 0.585980 -1.366243 -0.131444 -0.732400 0.175475 -1.142148 -0.561166 1.075249 1.256624 0.621173 1.392188 -0.103879 -0.805652 -0.749594 1.453477 0.058946
agm 0.025631 0.085187 -0.144307 -0.444428 -0.299868 -0.257658 0.029896 0.317959 -0.169989 0.268580 0.283255 -0.233240 -0.045001 -0.327401 -0.207010 -0.029567 -0.147131 -0.290429 0.053752 0.290136
aht 0.240461 -0.379467 0.155430 -0.346692 -0.615991 -0.263951 -0.430515 0.425996 -0.117644 -0.377104 0.369328 -0.694569 -0.516573 -0.313075 0.067018 0.080728 -0.171400 -0.451037 0.496598 0.178784
aia -0.123818 0.135780 -0.072715 -0.074360 0.016099 0.098070 -0.196385 -0.059316 0.076182 -0.066373 -0.151446 0.061842 -0.143442 -0.263843 0.229970 0.175216 -0.138518 -0.101931 0.208630 -0.029731
ain 0.285638 0.065993 0.474596 -0.045000 0.422155 0.097276 0.745520 -0.949523 -0.505406 -1.176536 -0.213656 0.204544 0.858312 -0.301814 1.216586 0.613031 -0.400639 -0.983693 -0.549489 -0.610106
aka 0.345827 0.129602 0.015633 0.248519 -0.261770 0.018347 0.069785 0.074006 -0.132453 -0.265611 -0.181593 0.006869 0.151700 -0.134552 0.175481 0.046915 -0.184593 -0.168688 0.022998 0.004767
akr 0.225859 -0.034773 0.099062 0.047652 -0.072975 0.046966 0.008807 0.061515 0.037367 -0.130129 -0.053198 -0.065941 0.041746 0.172264 0.276443 -0.243318 0.283217 -0.010110 -0.051561 0.014590
akz 0.016199 -0.093185 0.004098 0.057968 -0.219746 -0.318424 -0.010795 -0.119498 0.032144 0.163166 -0.048740 -0.159305 0.296306 -0.062874 -0.341468 -0.262293 -0.128926 0.045693 -0.562898 -0.038550
ale -0.149057 -0.028926 0.153625 -0.076243 0.105161 0.117697 0.039857 -0.087061 0.164084 -0.001677 -0.099469 -0.012715 0.257921 0.011357 0.288239 -0.066957 -0.139952 -0.212334 0.517378 0.250692
alp 0.227290 0.283780 0.087163 0.292967 -0.224886 0.289797 -0.162610 -0.226317 -0.007139 -0.366729 0.075979 -0.425163 0.056864 0.156085 0.500596 -0.307109 0.045050 -0.131509 0.140223 0.127305
alt 0.063795 -0.057607 0.103335 0.466168 0.077179 -0.013093 0.010889 0.455852 -0.021095 0.289067 0.171775 0.067311 -0.418303 0.043740 0.440598 0.371224 0.010647 0.397172 -0.112662 -0.236431
amh -0.023756 -0.161744 -0.105132 -0.639252 -0.433007 -0.294257 0.480061 0.168018 -0.515648 -0.564122 0.361151 0.421986 -0.693312 -0.625856 -0.386418 -0.004049 -0.460765 0.265385 -0.383610 -0.232428
ami 0.198902 0.122214 0.076813 0.216801 -0.003711 0.223816 0.145391 0.031886 -0.062137 -0.404473 0.253339 -0.006394 0.271040 0.191556 0.571127 -0.123629 0.031951 -0.257342 0.221004 -0.188496
amm 0.091100 0.593077 -0.020117 -0.014619 -0.084571 0.257210 0.467581 0.198441 -0.040664 -0.052960 -0.163377 0.379247 0.481411 0.164453 0.486380 -0.135827 -0.165973 -0.412271 0.084427 -0.789666
ang 2.181125 -0.617205 0.998184 0.177842 0.726223 0.215965 -2.277636 0.762061 0.096980 -0.116877 1.153395 -1.701059 -0.370824 0.271483 0.701348 0.632956 0.549890 -0.411318 -0.790074 -0.155603
ank 0.275545 0.499312 0.223162 0.290582 -0.420850 0.237405 0.352171 0.356658 0.048917 -0.090087 0.145995 0.148094 0.276088 -0.316551 0.247722 0.197384 -0.084745 0.055727 0.281970 -0.040164
apw 0.104888 -0.119539 -0.007745 -0.162426 0.010689 0.142858 -0.171143 -0.063419 0.072950 -0.072533 0.009396 0.011519 -0.130643 -0.001433 0.024706 0.029198 -0.032051 -0.002772 0.355948 0.158971
ara 0.770636 -0.628139 0.534066 -0.158375 0.192964 -0.051105 -0.641437 0.424082 0.373339 -1.207609 0.871701 -0.211628 0.266532 -0.495338 -0.249488 1.108292 -0.609117 0.227358 1.468255 0.247112
arc 1.106398 -0.931617 -0.638025 0.470467 0.819662 0.017045 -0.909721 -0.018450 -0.210389 -0.770135 0.642076 -0.584076 0.204971 0.026638 -0.465171 -0.256063 -0.338436 0.358935 1.102611 -0.076499
arg 0.062285 0.569437 -0.132943 0.696880 0.129836 0.142216 1.022342 0.741424 0.392021 -0.163455 0.082867 -0.175902 0.735348 0.300337 0.758977 0.299397 -0.667488 0.440531 -0.211790 -0.918485
arn -0.076851 0.111137 0.018624 -0.087884 -0.073790 -0.036269 0.034766 0.015600 0.114061 -0.111472 -0.060886 -0.090867 0.053857 0.078837 -0.059990 -0.361639 -0.006786 -0.116571 -0.371110 -0.048229
arz 0.150857 0.411957 0.449575 -0.151911 -0.395802 -0.459145 -0.200711 0.528878 0.608903 -1.588737 -0.706728 0.348443 0.108467 -0.177182 -0.284488 0.028891 -0.697777 -0.450130 0.017362 0.425553
ast -0.105848 0.061502 -0.030294 0.662996 0.557254 0.882997 0.223092 1.475430 0.618728 -0.757246 -0.059941 -0.434038 0.568794 0.324029 0.874024 1.163359 -0.399174 -0.015223 -0.261314 -0.974323
aud 0.037164 -0.007258 0.095090 -0.117370 0.130878 -0.071609 0.093462 0.097839 -0.080067 -0.023972 0.111608 0.032559 0.080791 -0.115022 -0.154002 -0.030330 -0.068595 0.074540 0.011786 -0.068051
ava 0.096616 0.332899 -0.076888 0.009031 -0.494360 0.136286 0.426751 0.327797 -0.255625 -0.290460 0.131635 -0.028581 0.018801 -0.355274 -0.372393 0.116932 -0.059159 -0.525491 -0.122051 0.329209
ayl 0.383519 -0.063866 0.186145 -0.271941 -0.434907 -0.309456 -0.250260 -0.304861 0.417412 -0.374078 0.814152 -0.048003 0.605668 -0.541733 -0.916994 0.081024 -0.002550 0.125024 -0.141470 -0.241540
aze 0.441118 -0.134657 -0.716693 -0.358639 -0.700648 1.624054 -1.168249 -0.865266 -0.450399 -1.698331 -0.663644 0.407536 0.158765 -0.942929 0.465702 -1.557090 -1.527820 0.650908 0.143987 0.445387
bak 1.000580 -0.150582 0.196732 0.115357 -0.174179 0.157309 -1.566975 -0.378310 -0.635053 0.014439 1.461006 -0.890094 -0.246280 0.014444 -0.260143 -0.327868 0.212848 -1.111455 0.664163 0.549722
bal -0.007302 0.094479 0.066461 0.246020 -0.094715 0.358187 -0.012995 0.251925 0.218929 -0.295199 0.046177 -0.004406 -0.122969 -0.126813 0.419244 0.247772 0.164773 -0.130940 0.253684 -0.046338
ban 0.148898 -0.174919 0.185560 0.354624 0.064327 0.057259 0.466267 0.329667 0.053692 -0.258415 0.039029 0.250270 -0.107907 -0.003246 0.444133 -0.062468 0.016909 0.220020 -0.091246 -0.075696
bar -0.064821 -0.013093 0.064747 -0.146199 0.156477 0.061150 -0.141333 -0.044983 0.266614 -0.113105 -0.249174 0.220712 -0.285858 -0.168253 0.082975 0.100500 0.119391 0.085107 0.255470 0.197033
bbc 0.042301 0.287541 -0.290719 -0.189061 -0.222187 -0.126491 0.164811 0.141711 0.028169 0.042078 0.104290 0.156816 0.028672 -0.105664 -0.240723 -0.283126 -0.312008 -0.478375 -0.065810 0.181864
bcl -0.056876 -0.052149 0.061620 0.032152 0.125404 0.082719 -0.019797 0.062641 -0.005768 -0.048046 0.064986 0.078193 0.002448 0.080270 -0.012563 0.072245 -0.007662 0.120864 -0.083458 0.028032
bdr 0.016119 0.006425 0.092546 0.186302 -0.368711 -0.288612 0.129685 0.085401 0.116492 -0.140744 -0.059355 0.067549 0.291090 -0.239835 -0.336984 -0.127611 -0.235277 -0.197364 -0.204912 -0.035318
bel 0.055026 -0.003946 -0.075143 0.081208 0.288983 0.405643 0.088203 -0.094122 -0.101316 0.060128 0.075854 0.039005 0.182052 0.095177 0.266501 0.483363 0.005515 0.051283 0.168625 -0.301001
ben -0.145149 -0.114509 -0.063408 -1.099104 -0.323343 0.390554 0.568033 -0.313523 0.237216 -0.373706 -0.004526 0.106976 -0.384672 -0.557710 0.100930 -0.229125 0.257772 0.018582 -0.169220 -0.228235
bis 0.120404 0.174116 -0.034298 -0.036552 -0.182836 0.045009 0.147087 0.178658 -0.032745 -0.152154 -0.061616 0.098941 -0.012334 0.000375 0.109971 0.054313 0.058648 -0.097135 -0.020694 -0.056333
bjn 0.263080 0.463387 0.306229 0.194939 -0.273090 0.304365 0.287522 0.296451 0.168578 -0.365656 0.123106 -0.108008 0.287015 -0.047617 0.527908 -0.330078 -0.021098 -0.176299 0.189250 0.022093
bnn 0.198341 0.015838 0.417959 0.132081 -0.225781 0.666895 0.045603 0.412041 -0.001674 -0.312765 0.066862 0.091897 0.126682 -0.017105 0.309580 0.401750 0.264734 0.013068 0.257283 -0.007909
bod -0.160774 0.030923 -0.252064 -0.056842 0.102214 -0.173751 0.470281 0.161763 0.007794 -0.244375 0.073075 0.008598 -0.288344 -0.275889 -0.097761 -0.042765 -0.363463 0.127748 0.011202 -0.250510
bos 0.198190 -0.252589 0.087833 0.610230 0.101655 0.665217 -0.064251 -0.185298 0.221264 -0.341366 -0.444544 0.233602 0.227014 -0.341836 1.202518 -0.008283 0.245445 -0.037689 0.884885 -0.189366
bre 0.934984 1.547170 0.283409 0.019344 -0.235736 0.820808 -0.110099 0.045482 0.642406 0.166032 0.161994 -0.613532 -0.041853 1.570052 0.201848 -1.797710 -1.342165 0.218068 -0.616604 1.445526
brg 0.067743 -0.212146 0.116116 -0.073917 -0.021541 -0.041902 0.017514 0.009752 -0.107897 0.119177 0.041700 -0.090715 -0.034468 -0.162304 -0.046920 -0.046745 0.075818 0.094638 -0.034898 -0.131960
btf 0.177033 -0.064025 0.247322 0.099377 -0.239668 0.097822 -0.140291 0.063007 0.011402 -0.102020 0.008478 -0.078805 -0.021244 0.195627 0.163616 -0.197440 0.065825 -0.094731 0.003816 0.056145
bua 0.187963 0.125764 0.588482 0.214841 0.069109 -0.110267 -0.170396 0.051333 0.083029 -0.351722 0.149423 -0.602237 0.181379 -0.123734 0.679788 -0.458048 0.470285 0.296508 0.244376 0.333219
bul 0.098121 0.741466 -0.455521 -0.914695 0.887208 -0.480097 -0.556871 -1.145818 -0.046704 0.788314 -0.357233 0.380790 0.573958 0.599422 0.087245 0.269203 0.129216 0.476823 -1.055495 -0.424566
byq 0.253878 -0.192371 -0.140468 0.473294 0.121257 -0.078039 0.406838 0.482432 0.092655 -0.343709 0.026465 0.156893 -0.027637 0.010882 0.301061 0.061495 -0.103814 -0.129532 0.272094 0.037189
bzq 0.003260 0.127622 0.180347 0.032194 -0.065876 0.162377 -0.151612 0.113332 0.162153 -0.188265 -0.051203 -0.049628 -0.013027 0.052634 0.280100 0.124863 0.271020 0.006735 0.190221 0.013805
cat -0.191239 -0.476071 -0.589743 0.273786 0.030291 0.270178 0.742002 1.694096 1.012637 0.388027 -0.677404 0.348148 0.348174 1.075472 1.644348 -0.765084 -1.058384 0.680457 -0.565146 -0.897417
ccc 0.147666 -0.248036 0.049279 0.329568 0.142706 0.066987 0.004426 0.381411 -0.357819 0.195007 0.572065 -0.371359 -0.074237 0.051761 0.090666 0.361347 -0.029003 0.433219 -0.119229 -0.300175
ceb 0.310665 0.287642 0.027779 0.183896 -0.156796 0.193934 0.280526 0.285639 0.205222 -0.400635 -0.089965 0.080478 0.383115 -0.182845 0.271339 0.024880 -0.198135 -0.117097 0.096227 -0.177525
ces -0.775974 -0.759950 0.231539 0.605110 1.241888 0.508028 -0.777342 -0.668888 -0.200241 0.232811 -0.255117 -0.594401 0.685281 -1.083339 0.342137 0.333570 -0.512584 0.457794 -0.762798 1.183873
cha 0.409432 0.259432 0.365072 0.022442 -0.353435 0.194817 -0.099638 0.161961 -0.026530 -0.241170 0.142633 -0.249673 -0.210294 0.045975 0.355815 -0.456330 0.159113 -0.120345 0.165682 0.030303
chk 0.069408 -0.007621 0.012325 -0.094568 -0.077360 0.140198 -0.136038 0.157782 0.067067 -0.034606 -0.173846 -0.004699 0.010763 0.084299 0.026265 0.113036 0.069946 -0.089615 0.182531 0.065077
chm 0.068638 0.092791 -0.077515 -0.072284 0.041076 0.049948 0.072340 0.058212 -0.032343 0.100298 -0.022303 -0.092424 0.014638 -0.017670 -0.106751 -0.104161 0.002390 0.057580 0.068339 0.071833
chr -0.098925 -0.080655 -0.168555 0.005980 0.117296 -0.099636 0.108122 0.049421 0.019837 -0.035638 -0.023184 0.121317 -0.019499 -0.117461 0.005257 0.037938 -0.190452 0.012170 0.106047 -0.025715
chu -0.005975 -0.139898 -0.063949 0.283463 0.107907 0.252376 -0.051004 0.246292 -0.122277 -0.040218 0.149497 0.045999 -0.166357 0.043511 0.365551 0.130772 0.032661 0.301577 -0.050485 -0.341884
chv 0.604144 0.694473 0.268275 -0.084983 -1.079957 0.020231 -0.364984 0.392500 -0.463816 -0.808532 0.302699 -0.279387 0.343989 -0.073067 0.158099 -0.934830 -0.347660 -1.024818 -0.098298 0.333219
chy -0.141383 -0.532715 0.062279 0.184650 0.158579 -0.090147 -0.394535 -0.084885 0.060841 -0.053332 0.239617 -0.355662 -0.013873 -0.074497 0.140855 -0.040019 0.012239 0.142910 0.079153 0.279399
cia -0.051211 0.004814 0.021354 0.093086 0.105204 -0.097424 0.080554 0.014242 -0.015408 0.089951 0.058144 -0.091020 -0.003476 -0.085981 0.040417 0.077898 -0.079807 0.078704 -0.036276 -0.109097
cic 0.022170 -0.278060 -0.069852 0.164751 0.063541 -0.080392 -0.059105 0.078714 -0.185652 0.167871 0.022462 -0.216430 -0.046118 -0.148159 -0.152216 0.097917 -0.198181 0.200093 -0.008369 -0.032708
cjs 0.686704 -0.193988 0.186199 0.478414 -0.280535 0.152745 -0.517354 -0.046860 -0.224893 0.084492 0.540442 -0.673423 -0.403838 0.294632 0.574263 0.237375 0.174873 0.387061 -0.261088 -0.370256
cmn -0.047161 0.312708 -0.030125 -0.126197 -0.576822 0.471608 0.383875 0.769070 -0.105823 -1.392905 0.774555 0.003127 0.206314 -1.219107 0.479797 0.254237 -0.474682 0.462533 -0.436731 -0.405543
com -0.013885 0.130568 -0.033822 -0.174770 -0.004942 0.087871 -0.031660 0.135341 0.081582 0.291300 0.175700 -0.132010 0.045394 -0.140648 0.127921 0.182649 -0.103304 0.064453 -0.014978 -0.136514
cor 0.169105 -0.105895 -0.351692 -0.603977 0.078488 0.364931 -0.103531 0.317202 0.052671 -0.506282 -0.173882 0.477676 0.527171 -0.120777 0.559700 1.032396 0.035423 -0.633822 0.885944 -0.458536
cos -0.241054 0.053440 0.361035 0.383951 0.043553 0.347829 0.052012 -0.024279 0.163623 -0.417553 -0.139504 -0.141203 -0.004621 0.191638 0.146252 0.258211 0.191770 -0.162201 -0.275765 -0.082323
crh 0.187041 0.079842 0.004130 0.158512 -0.770689 0.456030 0.291142 0.503607 0.521927 -0.902933 -0.195319 0.155955 0.388537 -0.217878 0.259299 0.682346 0.226428 -0.463908 0.580574 -0.110012
cri -0.058846 0.368362 0.394834 0.557821 0.088531 0.405566 0.232506 0.472216 0.083006 -0.432133 0.148837 0.046967 0.957508 -0.110583 0.178891 0.017182 0.048509 0.214826 -0.059077 -0.707186
csb 0.050064 -0.302042 0.080520 -0.101822 0.212827 0.386846 0.232238 0.163826 -0.100686 0.621663 0.596356 0.493428 0.792112 -0.521654 -0.427711 0.891033 0.042346 0.089462 0.323641 -0.149968
cym 0.328812 0.454957 -0.842774 -2.438804 0.897904 -1.023571 -0.895545 -0.142005 0.511479 0.418344 0.038425 0.091504 -0.100141 -0.340847 1.211497 0.511046 1.126119 0.006921 1.088527 -1.053998
dan 0.630467 0.014359 0.409530 0.604367 -1.484636 0.108928 -0.340338 0.129598 1.029183 -0.037002 -0.685294 -0.066298 -0.633023 0.464558 -0.233720 0.401898 -0.205489 0.435724 1.641725 -1.659288
deu -0.518808 -0.156553 0.976450 0.400808 0.210471 0.123145 -0.100392 -0.561911 0.340243 -0.268868 -0.719350 0.547142 -1.274040 0.442589 0.255703 -0.289611 1.090072 0.824320 0.446938 0.678196
dlm 0.442826 -0.011590 -0.017726 -0.079941 -0.030433 0.041443 -0.502478 0.227021 0.027688 -0.365984 -0.051619 0.069421 -0.046167 0.127580 0.236971 0.173728 0.176761 0.131572 -0.022966 0.007993
dob 0.049739 -0.113048 0.023468 0.095476 0.138126 0.244109 -0.037837 -0.080047 0.075261 -0.273480 0.040426 0.027752 0.057811 -0.118085 0.364415 0.458712 0.135514 0.147300 0.371958 0.059746
dru 0.083879 0.202345 -0.069703 0.040458 0.111781 0.096766 0.246661 0.155794 0.044371 -0.209185 0.040477 0.112119 0.404274 -0.001335 0.113495 -0.060454 -0.258100 -0.117776 -0.114544 -0.198480
dsb -0.533411 -0.542158 0.694098 -0.286442 1.042063 -0.564275 0.016026 -0.625390 -1.489694 1.415182 1.187095 0.807175 1.206401 -0.447474 0.735448 0.857254 0.244228 -0.792522 1.362895 -0.659903
dum 0.051004 -0.084440 0.133138 -0.088461 0.100516 -0.068450 -0.109346 0.027002 0.292605 0.100122 -0.405583 0.243000 -0.256917 -0.085845 0.161512 0.147693 0.114359 0.168440 0.468188 0.181477
egl -0.143636 0.105670 -0.484844 0.305494 0.404949 0.348009 0.018845 0.523629 0.409202 0.445838 0.616570 -0.117990 0.109231 -0.531855 -0.257761 0.177030 -0.113755 0.537311 -0.081266 -0.056096
egy 0.194849 0.010861 -0.228328 -0.147221 0.055572 -0.323357 -1.034759 0.077458 0.760248 -2.035743 -0.307146 0.480247 0.335033 -0.488849 0.135096 0.304968 -0.520490 0.306878 0.317489 -1.458384
ell -0.124563 0.094466 -0.526958 0.069799 0.119500 0.088223 -0.233154 -0.704765 -0.347254 0.129040 -0.178879 -0.545314 0.376872 0.308208 0.179725 -0.874480 0.520920 -0.613490 -0.402105 -0.399022
eng 0.392178 -0.734400 -0.837565 0.232528 -0.843629 0.389138 -0.645884 0.801326 0.509249 -0.487060 -0.326223 0.619568 -0.101015 0.185076 0.225258 0.499445 0.995056 -0.776314 0.869570 0.753616
enm -0.157230 -0.013476 -0.122005 -0.015331 0.053203 0.210216 -0.018767 -0.136019 0.079475 0.030357 -0.044959 0.149288 0.053742 -0.057011 0.147177 0.129759 0.009214 0.062793 0.082118 0.112478
epo -0.533901 -0.997629 -0.512268 1.218485 -0.656698 -0.874578 -0.774979 0.191667 -0.479880 0.484534 0.085382 -0.655607 0.077644 0.035637 0.535984 1.176798 0.245030 0.398541 -0.527980 -0.990823
est 0.394876 0.417122 0.537974 0.634845 -0.372086 0.868706 0.202883 0.236698 -0.125011 -0.567126 0.145280 -0.471559 -0.139399 -0.017252 0.395147 0.383237 -0.090693 -0.261888 0.064498 -0.261869
ett 0.087387 0.026033 0.026466 0.091240 0.133691 0.228790 -0.151414 -0.158001 0.059115 -0.131665 0.006355 -0.164203 0.105853 0.148481 0.384272 -0.087684 0.162359 0.055915 0.167650 0.155809
eus -0.968816 0.870437 0.830608 -1.119084 -0.774706 -0.210788 -0.102314 0.507983 0.424900 -0.907632 -0.078737 -0.719059 -0.336881 -1.847093 -0.378920 -0.065513 -1.277206 -0.400244 -0.207499 0.518156
ewe 0.481134 1.194547 0.131049 -0.677708 -1.286749 -0.121913 0.310365 0.829016 0.137942 -0.981357 -0.027050 0.631715 0.957689 -0.725043 -0.081848 -0.162336 -0.574943 -0.624416 0.300868 -0.038420
fao -0.567933 0.951437 0.337440 -0.269939 0.321342 1.201690 -0.431967 0.506908 -0.129835 -0.284234 -2.650729 0.035080 -0.148824 -0.654482 -0.163032 1.523244 -0.140693 -1.078909 0.258383 -0.171381
fas 0.687864 -0.218945 -0.146173 0.758954 -0.401889 0.454987 -1.252865 0.222227 -0.215422 -0.414772 0.023203 -0.071038 0.243109 -0.360835 -0.839691 -1.273490 -0.263170 -0.082147 -0.197091 -0.070545
fij 0.009137 0.047827 0.180541 0.281810 -0.164568 0.220807 0.194016 0.179265 0.182617 -0.656194 -0.028247 -0.024815 -0.020253 0.035694 0.350604 -0.090097 -0.296944 -0.256322 -0.104290 0.001465
fin -1.156856 0.181620 0.036413 0.765724 -0.375611 -0.997529 -0.496773 -0.427241 0.920274 -0.215199 -0.050907 -1.571167 -0.224223 -0.356218 -0.928451 -0.478103 0.064065 -0.655768 -0.545731 -0.569654
fra -0.000002 0.943159 0.609680 0.017982 -0.393223 -0.250224 0.480924 0.487415 -0.206806 -0.184091 -0.422896 0.103801 1.304381 1.184815 0.202670 -0.924874 1.454511 0.223474 -0.400041 -0.099641
frk -0.002519 0.221587 0.379754 0.237698 -0.310233 0.293024 0.238144 0.095989 0.360818 -0.124248 0.224520 -0.185416 0.030374 0.082325 0.280732 -0.121815 0.185779 -0.216097 0.162907 0.058782
frm 0.183724 0.069158 -0.029140 0.352377 0.436408 0.786492 0.390919 0.205055 -0.283518 -0.811566 0.681895 -0.127632 0.610600 0.253042 0.357782 -0.031365 -0.097053 0.170526 -0.381852 -0.617875
fro -0.187327 0.054736 -0.096780 0.221899 -0.039749 0.084879 -0.061974 0.294902 -0.143252 0.098282 0.050465 -0.015102 -0.014600 -0.136949 0.243085 0.445662 -0.029615 0.502939 -0.278571 -0.063196
frp -0.281486 0.745992 0.638722 0.594114 -0.764359 0.215204 0.690847 1.299435 0.460685 -1.223714 -0.379881 -0.127208 1.585987 0.542880 0.749932 0.058800 0.313101 -0.372293 0.497302 -0.264612
fry 0.159488 -0.009232 0.182188 0.091564 -0.144844 0.473118 0.177836 -0.033070 0.034257 -0.247826 0.040156 -0.169409 0.175903 0.041581 0.358687 -0.232092 0.211958 -0.077267 0.169274 0.193956
gag -0.010294 -0.113281 0.090420 0.215658 -0.031525 -0.001635 -0.011960 -0.115138 -0.053546 -0.047823 -0.078322 -0.090091 -0.063700 0.113353 0.293075 0.088201 -0.068847 -0.012775 0.060165 -0.024687
gem 0.290692 -0.048384 -0.427855 1.072188 0.120273 1.107290 -0.493411 -0.734381 0.117830 0.809552 0.805352 -2.057526 0.026314 0.622738 0.787583 0.018011 0.216856 0.371604 0.755227 0.226274
gla 1.291353 0.817282 0.439016 -0.051343 -0.251986 0.182400 1.273164 0.140414 0.778075 -0.638236 0.374459 1.055798 1.001371 -0.284899 1.377692 0.361024 -0.823042 -0.684943 0.640513 0.083822
gle 1.068156 1.540507 -0.393725 -1.459170 -0.382443 0.035200 1.264296 0.141805 0.764571 0.197735 0.596835 0.895044 -0.139022 -0.347368 -0.034192 0.371845 0.212258 -1.141865 1.001974 1.147262
glg -0.481983 1.022499 -0.597873 0.545605 0.515371 0.963630 1.886136 1.126338 -0.659996 -0.377331 -0.130091 -0.284008 0.495562 -0.047877 0.135751 0.609088 -1.195560 0.103925 -0.070791 -0.423660
glv -0.072384 0.383487 0.446427 0.620309 -0.640015 0.782597 0.983253 1.621881 0.551581 -1.196337 -0.304218 0.319534 0.997407 -0.134072 1.060014 0.038262 -0.204290 -0.406259 0.785148 0.392765
gml -0.003938 -0.200744 -0.064825 0.176914 -0.313011 0.182499 -0.014703 0.133662 0.064512 -0.242586 0.078577 -0.109137 -0.301874 -0.212286 0.523665 -0.055236 0.113213 0.247184 0.270504 0.027334
goh 0.040524 0.032032 -0.137185 0.189145 0.013565 -0.209668 0.185747 -0.176512 -0.202656 0.010848 -0.064535 0.217324 0.097174 -0.150483 0.011140 0.401040 -0.247434 -0.120961 0.089312 0.044963
got 0.200118 0.149574 -0.272531 -0.199454 0.525057 0.073662 -0.045066 -0.171500 -0.199895 0.019378 0.007789 -0.472493 -0.156578 0.216222 0.370691 0.179743 -0.094505 0.004098 0.041788 0.151307
grc 0.335967 -0.258223 -0.212616 0.289582 -0.001393 0.296408 -0.552791 0.896605 -0.444365 -0.297540 0.220008 0.328709 -1.136749 0.377066 -0.179985 0.279830 -0.788225 0.714138 -0.052218 -0.170743
gsw 0.204844 -0.208691 0.375082 0.269753 -0.217272 0.245327 -0.197247 0.177997 0.329858 -0.047730 -0.127935 0.117633 -0.336770 -0.167192 0.449871 0.006640 0.274204 0.186906 0.602223 0.102872
guj -0.095628 0.372805 -0.256150 -0.598216 0.011294 0.056848 0.395533 -0.087046 0.153597 0.269514 0.012475 0.124402 -0.080250 -0.164356 -0.020489 -0.053652 -0.136940 -0.043953 0.096039 -0.053516
gvf -0.114174 0.301595 0.038558 -0.310136 0.137301 0.464706 -0.455897 -0.636801 0.105393 -0.407997 -0.220040 0.028287 0.085984 0.009943 0.205538 -0.028813 0.089625 -0.306923 0.330069 0.384919
haw 0.415789 0.060162 -0.041213 -0.189499 -0.933194 -0.471317 0.207409 0.766752 -0.044983 -0.055714 0.159105 -0.173356 -0.130088 -0.594780 0.013417 -0.628373 -0.252005 -0.709437 0.166096 0.291340
hbs 0.069174 -1.641620 -0.277393 0.084772 0.086312 -0.291229 -0.190765 -0.179619 -1.684802 1.567079 0.783677 -1.082678 -0.551644 0.071679 0.919322 0.193631 0.120499 0.923731 -0.200996 -0.009344
hdn -0.020060 0.080149 0.079354 0.163789 0.105750 0.099062 0.162488 0.063832 -0.175869 -0.163055 -0.098270 -0.067028 -0.019840 0.141094 0.058443 0.067647 0.121838 -0.106847 -0.090251 0.068542
heb -0.875800 -0.237842 -0.066561 0.753730 0.418874 0.248838 0.099158 -0.303851 -0.656739 -1.089177 -0.614470 0.734707 -0.677606 -0.801169 -0.220351 -0.157225 -0.374805 -0.357716 0.649738 0.011967
hif 0.120731 -0.331845 0.426013 0.200224 -0.235832 0.070931 0.102818 0.660481 0.565875 -0.143118 0.355554 -0.139343 0.050319 -0.290975 0.589963 0.372829 -0.059496 0.310174 0.873959 0.592249
hil 0.238744 0.254796 0.121941 -0.129992 -0.140768 -0.090621 0.076837 0.194612 0.020892 0.206750 -0.101133 0.239215 0.081774 -0.415357 -0.233987 0.191911 0.223701 0.196986 0.043927 -0.120844
hin 0.037008 0.164995 0.684059 -0.872590 -0.801907 0.052798 -0.340910 -0.467759 0.210408 -0.784299 0.043360 0.361898 0.192310 0.062002 -0.809784 -0.579621 -0.137892 0.404062 -0.095033 0.339667
hrv 0.207718 -0.098685 -0.594975 -0.111576 -0.145222 0.203887 0.043204 0.550523 0.292566 0.326394 0.153046 0.143124 0.140356 -0.045033 -0.095069 -0.128956 -0.557742 0.205441 -0.122098 -0.372235
hrx 0.082079 0.208563 0.216788 -0.049470 -0.018523 0.190215 -0.052272 0.269839 0.213182 -0.301164 -0.401547 0.133541 -0.370228 0.044052 0.460840 0.468661 0.218755 -0.145934 0.790810 0.042396
hsb 0.062075 0.060947 0.220684 0.517696 -0.118786 0.152238 0.570013 -0.487266 -0.446220 0.025136 0.121630 0.552873 0.449684 -0.164972 0.546159 0.648118 -0.580768 -0.199839 0.211204 -0.624100
hts 0.093436 -0.030755 0.047768 -0.224836 -0.477584 -0.427398 0.232425 0.775612 -0.107741 -0.277240 0.292761 -0.516765 -0.269755 -0.376580 -0.237492 0.003843 -0.364362 -0.584706 -0.090488 0.388633
hun 0.235753 -1.537098 1.004495 -0.720549 -0.991706 -0.451460 0.103119 -0.835096 -0.353041 0.170840 -0.650431 -0.694666 0.175964 0.307801 -0.332105 -0.212571 -0.197884 -0.237162 -1.541860 0.310081
hye -0.120643 -0.170055 0.349126 -0.228023 -0.312471 -0.490195 -0.158184 0.082279 -0.683691 -0.120583 0.362153 -0.019282 -0.417925 -0.441296 -0.989170 -0.341815 -0.072510 -0.403179 -0.151848 0.159888
ido -0.617553 -0.315086 -0.656191 0.237453 0.157910 0.278396 -0.773813 -0.608055 -0.858384 0.352276 -0.438444 1.301629 0.740636 0.535824 0.866663 0.420650 0.192216 -0.015887 0.315326 -1.394110
iii 0.036886 0.245396 -0.484972 -0.134446 -0.077717 0.453382 0.291446 0.539481 -0.199440 -0.239528 0.067364 -0.022417 -0.352589 -0.642853 0.782262 0.439508 -0.511851 0.575337 0.281387 -0.522539
ile 0.147131 0.050570 0.163759 0.135837 -0.016675 0.170681 0.043221 0.246906 -0.117594 0.006550 0.094335 -0.141362 -0.007420 -0.031731 -0.023575 0.137889 0.026798 0.288247 -0.076221 -0.223411
ina -0.099351 0.042982 -0.502136 0.589552 0.142871 0.388310 0.094219 0.932549 0.047354 -0.685144 0.487819 -0.335217 0.076732 0.560980 0.654009 0.893646 -0.520799 0.726177 0.075907 -0.237700
ind 0.168444 -0.482708 -0.128157 0.029734 -0.135614 -0.771745 0.544600 0.613695 0.579503 0.385986 0.103921 0.001206 0.247806 -0.203180 0.782146 -0.248475 -0.794577 0.241501 0.235530 -0.191640
isd 0.149064 -0.145082 -0.046949 0.295025 0.099657 0.367946 0.051728 0.088926 -0.226669 -0.320295 0.067351 -0.001608 -0.035353 -0.003654 0.449145 0.347101 0.149289 -0.000957 0.413736 -0.060501
isl 1.474308 0.469822 -0.948048 0.419152 0.353671 0.231786 0.211785 -1.152931 -2.140742 -0.111282 -1.061329 -0.103067 -0.811461 -0.128517 0.002616 0.749153 0.010746 -1.163128 0.646934 -0.408855
ita 0.764777 0.372309 -0.042291 0.392189 0.470784 1.122787 -1.203118 0.378782 -0.009854 -0.270635 -0.563423 0.520429 0.501340 0.315781 0.863245 0.882661 0.072470 1.852293 -0.707303 -0.257746
itl 0.065083 0.060335 0.152993 -0.512678 -0.689839 -0.295407 0.321076 0.521344 -0.026382 -0.035319 0.529485 -0.085707 -0.212318 -0.274413 -0.533962 -0.152789 -0.344416 -0.822368 -0.104996 0.152238
jbo 0.280159 -0.749119 1.293925 1.010969 1.917647 -1.817219 -1.286401 0.846684 -0.972046 -0.175579 1.747268 -0.357706 -0.212197 0.872660 -0.574752 -0.384274 -1.004942 1.385990 0.502184 0.003100
jpn -0.109866 0.376595 -0.300527 -0.110593 -0.521426 -0.197201 0.719070 -0.161750 0.136222 -0.922160 -0.291052 0.046766 -0.023799 -0.288544 0.151603 -0.106902 -0.726824 0.245138 -0.181652 -0.937639
kaa 0.341060 -0.196688 0.132758 0.352106 -0.069792 0.310685 -0.394210 -0.088515 -0.170572 -0.172393 0.303572 -0.487273 -0.121492 0.215390 0.410589 0.231072 0.155441 -0.133236 0.135656 -0.147946
kab -0.120660 0.042766 0.059755 0.193696 -0.062647 0.260559 -0.125431 0.072241 0.160135 0.000885 0.132812 0.070672 -0.118368 -0.267777 0.043310 0.238716 -0.046045 -0.012565 0.190293 0.039970
kac 0.027872 -0.609439 1.230070 -0.844105 -1.778407 -0.759930 0.483860 0.357589 1.196557 -0.087962 0.824912 0.444384 -0.999622 0.055268 0.215999 -0.104489 -0.428189 -1.183947 -1.133048 -0.391008
kan 0.039460 -0.173930 -0.156509 -0.226526 0.152265 -0.040685 0.411499 -0.402866 -0.118418 -0.247742 0.121571 -0.150234 0.046394 0.140698 0.232839 0.070847 0.011087 0.481296 -0.218357 -0.381050
kat -0.047609 0.052135 -0.084910 -0.572579 -0.795891 0.103637 -0.518445 -0.219960 -0.753074 0.346901 0.129865 0.068807 -0.772644 -0.248102 -0.333916 -0.388339 -0.253167 -0.182915 -0.326204 0.903049
kay -0.033060 -0.127850 0.115870 0.109252 0.069351 0.024244 0.079937 0.093828 0.024078 0.065493 0.109033 -0.097993 0.090424 -0.000465 0.019130 -0.017393 0.028679 0.070195 0.026144 0.055228
kaz 0.266081 -0.093214 0.029421 0.113617 -0.097660 0.405561 -0.562762 0.039775 0.142451 -0.333655 0.238416 -0.494575 -0.215930 -0.068396 0.310715 -0.311667 0.541117 0.277014 0.165461 0.287401
kbd 0.924058 -0.098179 1.173034 -0.994239 -1.178989 -1.078759 -0.534240 2.135814 0.037560 1.212874 -0.647517 1.164535 0.965765 -1.029878 -0.212914 -0.819637 -0.032423 0.102956 0.904805 0.529162
kca -0.031050 0.228361 0.092003 -0.185741 -0.157003 0.013502 0.104638 0.156106 0.118256 -0.126699 -0.084757 0.045359 0.091849 -0.097376 0.003869 -0.071152 -0.012134 -0.174555 -0.073004 -0.001226
kgp 0.140975 0.010197 -0.117718 0.123910 0.172453 -0.201853 0.120276 0.079602 -0.162545 0.434947 0.253988 0.086208 0.110418 -0.353647 -0.046762 0.328726 0.008747 0.333850 -0.074918 -0.042877
khb -0.062933 0.064134 -0.023310 0.343311 -0.095876 0.389972 0.205818 -0.107976 0.043854 0.146246 -0.119300 -0.044010 -0.190925 0.028899 0.287369 0.165998 0.174463 0.032890 -0.292614 0.105268
khm 0.056933 0.939153 -0.407955 -0.275874 -0.782437 0.473089 -0.402886 -0.311843 0.344146 -0.780814 0.419750 0.350830 0.370120 -0.820504 0.379598 -0.013440 -0.471971 0.092088 -0.226845 -0.019969
kij 0.070435 0.038739 0.335938 0.195882 -0.190685 0.363192 0.017601 0.246709 0.205220 -0.470149 -0.148931 -0.001602 0.046878 0.060023 0.292338 0.233297 0.066383 0.095359 0.452635 0.105288
kin 0.028530 0.057919 0.344857 -0.168630 -0.141389 0.139819 -0.072946 0.077908 0.134341 -0.397516 -0.589790 0.202037 0.152972 0.090073 0.335270 0.140908 -0.018121 -0.320242 0.596762 0.066365
kld -0.389720 -0.138208 -0.185059 0.496339 -0.207904 0.200993 0.217131 0.113481 0.099532 -0.152742 0.124136 -0.215450 0.184979 0.002896 0.205534 0.762719 0.101807 -0.262155 0.767647 -0.260308
kor 0.154269 0.461885 -0.070770 0.282004 -1.023746 0.183662 0.496734 0.181478 -0.270905 -0.676796 0.256939 -0.381050 -0.433337 -0.613147 -0.058276 -0.223258 -0.705911 0.320915 0.139489 -0.575995
krc -0.023288 0.167125 -0.008499 -0.004770 0.179176 0.078535 0.094645 0.261260 0.129079 -0.190824 0.038859 0.015867 -0.036521 -0.291313 0.118145 0.046908 -0.148965 -0.015730 0.314804 0.182825
krl -0.230217 0.276534 0.100954 0.113975 0.026956 0.255447 -0.006492 0.040472 0.195241 0.036339 -0.293951 0.231801 -0.106957 -0.090185 0.266026 0.280562 -0.012667 -0.000440 0.318949 0.085998
kur -0.080268 -0.064583 1.005952 -0.789197 0.068608 0.394901 -0.840812 -0.831180 0.477585 -0.908191 0.656164 0.683226 0.205821 0.326481 0.582808 0.012041 -0.833188 -0.195369 1.178088 -0.579254
kyu -0.199218 -0.006453 -0.195690 0.050095 0.075234 0.041785 0.032270 -0.192449 -0.028109 0.042654 -0.201300 -0.146894 -0.261309 -0.086536 -0.077333 -0.056647 -0.041244 0.008908 -0.205778 -0.092981
lad 0.139645 0.045867 0.031869 0.174062 0.017722 0.226143 0.028032 0.341294 -0.002578 -0.012322 0.140488 -0.037121 0.141806 -0.134900 0.152609 0.123824 -0.131619 0.079858 -0.067312 -0.143888
lao -0.174296 -0.025056 -0.838969 0.462151 -0.401288 -0.049466 0.236363 -0.296822 0.218225 -0.392615 0.563348 -0.362533 -0.768975 -0.579070 0.838471 0.011217 -0.111090 0.189392 -0.504224 0.078394
lat -0.848103 -0.095373 -1.205945 -0.601887 0.118306 -0.534981 -1.410937 -0.469841 -0.539648 -0.879397 0.961570 -0.765427 -0.058697 1.208616 -0.351139 1.508669 -0.341157 0.959301 0.826946 0.063925
lav 0.259803 -0.270494 0.177537 1.202403 -0.337174 0.551166 0.039603 -0.095657 -0.082137 -0.055384 0.297165 0.038354 0.272744 -0.576827 0.396125 0.186551 -0.778780 0.158144 -0.274641 -0.542019
lez 0.179671 -0.300519 0.261150 0.282070 0.111154 0.112836 -0.020088 0.134006 -0.068433 0.170534 0.111346 0.000207 -0.082865 -0.200832 0.454637 0.402314 0.079605 0.239138 0.490085 -0.022264
lfn 0.007248 0.267700 0.132692 0.234365 -0.232405 0.324483 -0.019586 0.052043 0.022282 -0.322416 0.179407 -0.288262 0.315039 0.130316 0.351154 0.169179 -0.182877 -0.195810 -0.076619 -0.014900
lij 0.172792 0.559314 -0.504224 0.195633 -0.006287 -0.336891 -0.186553 1.001832 0.062100 0.059745 0.423278 -0.034834 0.362591 -0.400181 0.567096 0.031321 -0.722880 0.349953 -0.194294 -0.521025
lim 0.388335 -0.026771 0.452368 0.438189 -0.190864 0.392557 -0.217147 0.040370 0.191701 -0.094026 -0.159396 -0.077400 -0.301345 -0.035852 0.522193 0.168534 0.203741 -0.340833 0.734029 0.371058
lit -0.468644 -1.009245 -0.729552 -0.893750 0.207495 1.130881 0.196672 -0.093627 0.212237 1.432006 0.477129 0.463736 -0.405284 -0.722766 -0.730753 0.089264 0.630610 0.404288 0.568112 0.271968
lnd 0.094820 -0.138698 0.021806 -0.067316 -0.097049 -0.081286 -0.319941 0.146956 -0.006252 0.046015 0.237004 0.091544 0.011738 -0.108715 0.092050 -0.068514 -0.178563 0.105813 0.211996 -0.115013
ltc 0.000136 0.062358 -0.201868 -0.003865 0.206496 -0.098563 0.136356 -0.035142 -0.116722 -0.157297 0.105319 0.075489 -0.040022 0.059842 0.021489 -0.048544 -0.086637 -0.038337 0.028441 0.024460
ltg -0.162029 0.078032 -0.038722 -0.149627 -0.069919 0.144888 -0.062439 -0.047534 0.063273 -0.063773 -0.105772 0.117617 -0.155516 -0.233849 -0.052532 -0.006013 -0.000497 0.066512 0.267514 0.276457
ltz 0.718810 -0.226513 1.218458 0.362311 0.926176 -0.585022 0.790416 0.935071 0.509090 -0.524031 0.080979 -0.896909 -1.386741 -0.579094 0.085173 -1.432561 1.880454 0.169820 0.398444 -0.275978
luo 0.079683 0.128542 0.144002 -0.036284 -0.374068 0.071346 0.225190 0.201640 0.293729 -0.106834 -0.087529 0.099597 0.059092 -0.017977 0.324040 -0.451276 -0.027547 -0.214070 -0.058389 0.478660
mal 0.274790 0.140179 -0.026785 -0.276730 -0.190274 0.164372 0.198233 -0.112826 -0.139700 0.264026 -0.232782 -0.213730 -0.211952 -0.003934 -0.055850 0.131312 -0.437221 0.377846 0.078462 -0.204479
mdf 0.077600 -0.283329 0.276655 0.063404 0.108348 0.343551 0.010556 0.402357 0.325199 -0.041916 0.263636 0.170935 0.070940 -0.495336 0.206418 0.456524 0.295872 -0.156171 0.612072 0.245017
mhn -0.034929 -0.005440 -0.108733 -0.003783 -0.021828 -0.105815 0.101348 0.031809 0.122682 -0.076686 -0.034810 -0.012620 0.033876 0.048916 0.058220 0.058691 -0.060203 -0.149656 0.180005 0.018553
mkd -0.215685 -0.467952 0.114478 0.771476 0.113848 -0.135011 -0.343651 0.324229 0.075574 1.884987 0.259062 -0.580804 -1.442147 -0.019935 -0.198643 -0.220889 -0.350955 0.219520 -1.334406 -0.080152
mlg 0.404879 -0.191519 -0.255945 -0.470368 -0.908249 -0.277612 1.176550 0.453216 0.147857 -0.185612 -0.136650 0.487794 0.597305 -0.274863 0.212684 0.187861 -1.108337 -0.612177 -0.451640 0.436087
mlt -0.821705 -0.238159 1.382744 -0.284064 0.255304 -1.249633 0.280023 0.652009 -1.218488 0.821265 0.556310 -0.371536 -1.533528 -0.736203 1.746430 0.643052 0.657823 -0.779067 -0.136664 -0.353473
mng -0.066561 -0.026542 0.650044 0.119482 -0.259055 0.471544 -0.414402 0.233160 0.178626 -0.197023 -0.126606 0.215407 -0.120539 0.147632 0.241138 0.118138 0.522897 0.087028 0.418993 0.317409
moh 0.427089 -0.013761 1.089141 -0.230662 -0.767664 -0.006412 0.033139 0.893812 0.298775 -0.673047 -0.471744 -0.041476 0.574510 0.073563 0.285769 0.237200 -0.004992 -0.385107 0.910504 -0.157669
mon 0.231966 -0.300767 0.041144 0.634750 -0.379427 0.250299 -0.010218 0.896234 0.398054 -1.021807 0.768816 -0.128670 -0.264344 -0.130298 0.678574 -0.165957 0.224800 0.138431 0.488550 -0.376460
mri -0.035975 0.411593 0.021324 0.127168 -0.087014 0.245122 0.187740 -0.333076 -0.117710 -0.922154 0.251732 -0.208480 0.401203 -0.073682 0.594732 -0.185592 -0.345336 -0.458462 -0.146027 -0.150027
msa 0.688205 -1.200083 -0.647103 1.135516 1.215044 -1.414199 0.369554 0.431051 -0.119576 -0.667359 0.338571 1.134416 -0.877762 0.125581 0.937933 0.097986 -0.085036 0.124057 -0.601751 -0.101649
mtq -0.248942 0.310056 -0.299129 0.271264 -0.218407 0.180794 0.004073 0.436693 0.108329 -0.060804 0.251176 0.190018 -0.182015 -0.034565 0.386570 0.400969 0.086381 -0.110613 0.345749 -0.184686
mul 0.523296 -0.126877 0.718348 0.327073 -0.491898 0.235170 0.140614 0.627588 0.309388 -0.025281 -0.224810 0.759190 0.446670 -0.201590 0.663143 -0.289267 -0.169989 0.249421 0.665110 0.193091
mww -0.471273 1.069040 -0.369330 -0.047436 -0.511931 0.504908 1.036741 1.229960 0.465877 -0.919945 1.032658 -0.149734 0.341056 -1.343753 0.656600 0.606797 0.046122 0.108606 1.021493 -0.844316
mya 0.467271 -0.225647 -0.263549 -0.012434 -0.213998 -0.433682 1.084288 -0.078304 0.079950 -0.298603 -0.374577 -0.641890 0.396192 -0.461505 -0.240807 -0.627049 0.398579 0.596397 -0.341866 -0.401123
myv 0.068672 -0.075697 0.010818 -0.256749 -0.161630 0.046587 0.201639 0.399771 0.522155 0.159124 0.104049 0.398675 0.177498 -0.278129 0.139798 -0.073404 -0.054479 -0.342982 0.648188 0.153351
nah 0.218443 -0.262144 0.036273 0.165724 0.047006 -0.253973 -0.072281 -0.036197 -0.027587 0.092717 0.112459 -0.170416 -0.141318 -0.200782 0.057885 0.112805 -0.102395 0.237632 0.103885 -0.125179
nan 0.664482 -0.502806 -1.553992 0.586636 -0.720829 0.851396 0.267068 0.489185 0.533777 -0.437819 1.726535 0.028216 -1.712880 -0.321195 0.229049 0.414839 -1.742869 -0.800945 -2.197963 -0.765623
nap -0.419475 -0.031353 0.100486 0.160959 0.261956 0.154574 -0.151649 -0.119654 0.089849 -0.248434 -0.048919 -0.135904 0.363665 0.187400 0.386334 0.075280 0.084277 0.299387 -0.100117 -0.151830
naq 0.026654 -0.088857 0.002280 -0.055295 0.166428 0.130493 -0.132051 -0.208803 -0.097421 0.265176 0.066267 0.097791 0.043768 -0.099012 -0.015945 0.171247 -0.079076 0.076562 0.051258 -0.077894
nav -0.242987 1.004191 -0.432029 -0.464854 -0.248915 0.175610 0.474262 -0.614441 0.160742 -1.204110 -0.785231 0.974564 0.300318 -0.954510 -0.028743 -0.806798 -0.743733 -1.436448 0.078167 0.890530
nci -0.560484 0.308479 1.262270 0.080809 0.530983 0.703346 0.074037 1.819031 -0.173029 0.683735 0.941887 -0.459444 -0.607041 1.463482 -0.415314 1.660729 -0.169810 0.591770 0.625552 0.136599
nds 0.071201 0.191326 0.458061 -0.016748 -0.397438 0.143983 0.031118 0.420538 0.295661 -0.166076 -0.475469 0.416320 -0.430131 -0.224381 0.274626 0.070695 0.128408 -0.739157 0.766850 0.506240
nhx 0.268452 -0.217590 -0.173266 0.173794 0.073512 0.050875 -0.350025 0.219554 -0.075755 -0.029977 0.453156 -0.303598 -0.146423 0.104883 0.190731 0.375979 0.115836 0.191968 0.328268 -0.263381
nld -0.415973 0.074325 0.257973 0.212861 1.312559 0.227075 -0.694629 -1.399521 0.702081 -0.853596 0.168107 -0.571627 0.403020 0.908286 0.524270 -0.495030 0.724297 -0.924654 0.323984 0.719613
nno 0.371476 -0.190245 1.056282 -0.772652 -0.430101 -0.221125 -0.388411 0.344464 -0.116335 2.137947 -1.355528 -1.051813 0.613682 1.655151 0.149237 1.059266 -0.316402 -0.997779 2.374884 -0.215108
nob 1.140984 1.293750 0.626984 -0.509239 -1.529568 0.161353 -0.735775 0.300904 0.923581 0.573058 -1.162248 -0.444321 -0.585412 -0.377746 0.898546 -1.827647 -0.326902 -1.266831 0.900363 -0.113796
nor 0.703658 0.948692 0.173769 -0.173436 -1.149184 0.494439 -0.022938 0.515996 0.764667 0.160640 -0.487096 -0.397753 -0.002496 -0.439054 0.430866 -1.179705 -0.702138 -1.078114 0.907491 -0.207930
nrf 0.199952 -0.012739 0.205698 0.262454 0.056716 0.149083 0.027240 0.042660 0.026851 -0.061668 -0.026942 -0.073673 0.292796 0.167713 0.187551 -0.090822 0.003658 0.049343 -0.144889 -0.032310
oci 0.008229 0.087271 -0.523447 1.036901 0.463470 1.281673 0.271427 1.457411 0.332717 -0.256147 0.017416 -0.522373 1.075908 1.047045 0.929853 0.350129 -0.960185 0.640960 1.119719 -1.017197
ofs -0.034020 -0.012553 0.138984 -0.240932 -0.121552 0.434393 0.257755 0.165196 0.153643 0.159710 0.058430 0.254950 -0.136907 -0.380433 0.323274 -0.095297 -0.024535 0.005408 0.348606 0.001351
osp 0.340165 0.170391 0.049370 0.873056 -0.024695 0.158370 0.603374 1.216731 -0.116561 -0.034600 -0.037219 -0.430182 0.535712 0.151655 0.553506 0.754625 -0.507105 0.255797 -0.150579 -0.617083
oss 0.612304 0.416273 -0.073663 -0.378607 0.099215 -0.404814 -0.260970 -0.032654 0.614697 1.145193 -0.079529 -0.442884 0.179666 0.374118 0.102756 -1.438019 -1.027314 0.086745 -0.773418 -0.499750
osx -0.063918 0.104320 0.020728 0.237223 0.141333 -0.183888 -0.032286 -0.058815 0.020347 0.124165 0.213000 0.037285 -0.025680 -0.325897 0.107040 0.282014 -0.167874 0.217946 -0.012167 0.099588
pal 0.124226 -0.035104 -0.131244 0.183661 -0.063220 -0.046407 -0.302010 0.151857 -0.003581 -0.389021 0.012847 0.191959 0.134941 -0.202248 0.112720 0.119007 -0.330657 -0.212445 0.158665 0.078299
pan 0.191670 0.018863 -0.124007 -0.107717 0.058485 -0.175726 0.189652 -0.203095 -0.357729 0.228264 0.042371 0.043388 -0.216095 -0.100413 -0.120030 -0.242402 -0.100877 0.144360 -0.146290 -0.128893
pol 0.666355 0.568511 0.179307 0.707694 -0.047119 -0.745951 0.407422 -0.261531 -0.064336 1.229028 0.553173 0.180421 0.625097 -0.996087 -0.874383 0.344312 -0.333412 0.799294 -0.631233 -0.105280
pon -0.335643 0.188369 0.153772 -0.244106 0.004552 0.244501 0.065560 0.088916 0.233764 0.108179 -0.088144 0.416249 -0.091322 -0.519740 -0.085603 -0.159400 0.115864 -0.130988 0.137025 0.384830
por 0.081412 0.373973 0.295712 -0.136374 1.679607 0.782275 1.087664 0.814282 -0.004282 -0.319362 0.491499 -0.749926 0.883776 0.779285 -0.149382 -0.307894 -0.215111 0.025116 -0.792925 -1.467402
ppl 0.135670 -0.011648 0.218072 0.532979 0.054549 0.234749 0.090479 0.923456 -0.288198 -0.140169 0.367130 -0.459247 0.106052 0.166708 0.426620 0.657871 0.094984 0.245303 0.011922 -0.336303
prg -0.366321 -0.140547 0.380357 0.080813 -0.124723 0.692094 -0.141967 -0.304966 0.429751 -0.110738 -0.256385 -0.058217 -0.343400 -0.076726 0.552292 -0.121115 -0.067195 0.219617 0.315736 0.929399
pua 0.216479 0.072690 -0.198206 -0.049710 -0.019340 0.047051 0.060010 0.038243 0.025137 -0.120681 0.045884 -0.019017 0.001640 -0.258270 -0.022081 0.178816 0.062117 -0.124743 0.108780 0.179189
pus 0.481332 -0.271348 0.073658 0.064760 0.195315 -0.099410 0.498105 -0.520070 -0.561866 -0.214573 -0.421165 -0.025271 0.098118 -0.182703 0.435113 -0.957010 -0.434937 0.648322 0.907043 -0.753225
que 0.344783 0.052351 0.072297 0.026801 -0.395433 0.207338 -0.463693 0.343249 0.156788 -0.390427 0.127542 -0.176545 0.279786 0.184659 0.479183 -0.259416 -0.031251 -0.486871 0.320921 0.211236
qya -0.167457 0.333523 -0.122558 0.195957 0.060289 0.309912 -0.066005 -0.252275 0.151618 -0.278098 -0.026161 -0.297627 0.108389 0.184322 0.272767 0.197798 -0.038051 -0.162780 0.186013 0.031431
rap -0.006428 -0.070299 0.020592 0.118333 0.035264 -0.109224 0.037980 -0.027306 -0.033590 0.114318 0.128588 -0.235094 0.068297 0.050143 0.083677 -0.029058 0.117452 0.209192 -0.080574 -0.088137
roh 0.024242 0.527991 0.337008 0.820942 -0.446597 0.842063 0.662146 0.573590 0.350882 -1.178990 -0.570147 0.146588 0.451453 -0.088527 1.430510 1.042280 -0.166920 0.044648 0.001285 -0.784271
rom 0.043189 0.018705 -0.108916 0.648112 -0.352794 0.283032 0.197136 0.260418 0.000121 -0.142360 0.023462 0.023717 -0.244818 -0.227991 0.565720 0.629284 -0.157963 0.428022 -0.053814 -0.763732
ron 0.000871 -0.279366 -0.619296 -0.491452 -0.192828 -0.777513 -0.433025 1.048155 -1.026717 -0.688821 -0.008951 0.389403 -0.097605 0.072890 -1.631598 -0.021889 0.492008 1.012051 -1.505474 -0.485975
rue 0.131632 -0.082789 0.107552 0.105084 -0.118687 -0.054540 -0.021425 0.171858 -0.064417 -0.161995 0.139043 -0.072301 0.075628 0.005856 -0.153104 -0.037111 -0.055673 0.011422 -0.153096 -0.172079
run 0.034145 0.005740 0.083046 -0.114521 -0.164387 0.146935 0.175335 0.289387 -0.040305 -0.091010 0.066290 0.185116 0.048032 -0.276752 0.150300 0.264203 -0.051829 -0.137054 0.335558 0.138943
ruq -0.002661 0.106303 -0.023461 -0.060663 -0.111192 -0.130758 0.006509 0.144110 -0.066350 0.184401 0.073505 -0.094923 0.209717 0.042570 -0.133672 -0.092826 -0.093792 -0.155547 -0.112865 0.014047
rus -0.666526 -0.274259 -0.158412 0.143627 -0.044517 0.048868 0.709176 -0.422511 0.296064 0.018472 0.251266 0.771906 1.141467 0.654920 -1.023118 0.584023 -0.266455 -1.025402 -0.123271 0.022965
ryu 0.193799 0.052279 -0.380225 0.002439 -0.062249 0.103653 0.420668 0.449114 0.320340 -0.851975 0.451431 0.113839 0.204348 -0.660873 0.237405 0.413364 -0.313257 0.184617 0.072135 -0.419967
sah -0.309873 0.866255 0.481854 -0.288035 -0.422389 0.371068 0.657543 0.071753 0.193938 -0.166056 -0.148035 -0.080770 0.519433 -0.350192 0.117978 -0.035160 -0.226449 -0.615631 -0.802842 -0.060076
san 0.213165 -0.630193 -1.201695 -0.553929 0.123390 -0.130788 0.980369 -0.652958 0.207494 -0.509011 -0.039105 -1.088671 -0.800276 0.345885 -0.352588 0.514010 -1.171618 1.202138 0.533704 -0.306994
sat 0.115955 0.044466 0.174449 -0.141933 -0.011433 -0.080713 0.059864 -0.042166 -0.200717 0.205863 -0.127244 0.048380 -0.260880 -0.053237 0.021893 0.079808 -0.031300 0.123472 -0.230485 -0.010436
scn -0.580240 0.767453 0.021998 -1.335362 0.930866 1.174594 0.603303 -0.535414 0.265077 -1.697118 -0.520135 0.539849 0.704445 -0.331786 0.218159 0.987897 -0.503471 1.619897 -0.063087 0.093533
sco 1.072792 -0.367049 -0.163656 0.576792 -0.144032 0.145805 -0.354877 0.266986 1.333415 -0.498215 -0.244456 0.810841 1.424182 0.110044 1.103572 -0.017388 0.506320 -0.083488 1.210216 0.508520
sdh 0.097332 -0.296439 0.425548 0.191745 0.213456 -0.369101 0.377049 0.310383 0.134016 0.179231 -0.054793 -0.005660 -0.213465 0.077930 0.815437 -0.223053 0.448172 0.221751 0.079078 0.285322
sei 0.116268 0.076103 0.196510 0.110705 -0.238843 0.244203 -0.086017 -0.072886 0.285695 -0.223187 0.226991 -0.360046 0.393026 0.096706 0.306572 -0.062468 0.116208 -0.344128 0.630555 0.207995
sga 1.281221 0.561323 1.168215 -0.927790 -0.526062 0.466796 -0.025340 1.359708 -0.744491 -0.160883 0.854678 -0.464943 1.217935 -0.771513 -0.431173 1.378212 0.250241 -0.622236 1.592597 -1.778686
sin 0.226051 0.249090 -0.115414 -0.580842 0.094270 0.520938 -0.142550 -0.455941 0.201256 -0.480764 0.296982 -0.073112 -0.137033 0.018519 0.288509 -0.685520 -0.094029 0.307534 0.142176 0.007342
sjd 0.408764 0.164360 0.005209 -0.297359 0.112416 0.278240 0.087820 -0.133285 -0.364729 0.259430 0.149960 -0.068939 -0.077531 0.154902 0.055140 0.130427 -0.156655 -0.067191 0.154495 -0.174450
slk -0.153012 0.045533 0.463271 1.898462 -0.400828 0.373089 -0.719051 -0.247366 -1.478682 0.707417 0.234347 -0.603826 0.727838 -0.577082 0.364977 0.541338 -0.714119 0.757626 -0.856113 1.316381
slv -0.866785 -0.637962 0.174812 0.034761 -0.180391 0.083522 0.388441 -2.235931 -0.936626 1.558276 0.085239 0.862936 0.354489 0.551513 0.835692 -1.327443 -1.296430 0.441085 -0.285008 -1.618239
sme 0.210632 0.369724 -0.080123 -0.445120 -0.075959 0.415092 0.143519 0.161475 0.215208 0.384051 0.106740 0.419242 -0.168534 -0.385417 -0.305579 -0.467757 -0.099202 -0.167278 0.598658 0.700069
smn 0.084399 -0.168868 0.078983 0.009603 0.005306 0.045933 -0.038176 0.107033 -0.077144 0.092522 0.109920 -0.146845 0.070250 -0.005225 -0.004043 -0.112675 -0.097969 0.002870 -0.026747 0.028105
sms 0.221062 0.328515 0.007445 0.015544 0.078370 0.231355 0.049262 0.174324 0.073836 0.188113 -0.040894 0.712806 -0.274627 -0.316104 0.549934 0.000853 -0.369660 0.372396 0.021713 0.295102
som 0.082016 0.502840 0.358643 -0.033572 -0.199487 0.285106 0.388532 0.570398 0.290695 -0.683751 -0.254457 0.130566 0.343968 -0.184238 0.491427 0.025551 -0.118197 -0.350284 0.210312 -0.025574
sot 0.063034 0.081020 0.168296 0.082042 -0.189096 0.236386 0.111904 0.122922 0.007729 -0.172231 -0.094179 -0.107977 -0.084430 -0.041187 0.169602 -0.100147 -0.055128 -0.019956 0.001972 0.070262
spa -0.468824 1.027451 -0.964313 -0.739756 -0.042100 0.033333 0.961485 1.549767 -0.738612 0.139913 1.110895 -0.363314 -0.245382 -0.250641 -0.352100 -0.953976 -0.584185 -0.797569 -0.757958 0.673764
sqi 0.065816 -1.724110 1.234416 -1.926760 -0.067484 -0.069920 -0.024427 0.900140 0.907043 0.055390 0.605081 -0.149805 -0.416580 -0.995015 -0.906522 0.233259 -0.144035 -0.721286 -0.372791 -1.332960
squ 0.445149 -0.493300 -0.009905 0.609408 -0.085375 -0.370616 0.552076 0.736749 0.182759 -0.153945 -0.095202 -0.237148 0.115054 -0.070353 0.111372 -0.022703 0.197273 0.079295 0.665323 0.332989
srp -0.159817 0.378147 -0.079468 0.022419 0.091958 0.056353 0.276682 -0.269189 -0.320594 0.137565 -0.020081 0.037208 0.724267 0.101697 0.866041 0.261105 -0.166586 -0.031638 0.858655 -0.256398
stp 0.023696 0.009729 -0.008568 0.268574 -0.152476 0.019564 -0.014211 0.257828 -0.086203 -0.411629 0.115373 -0.099513 0.207335 -0.303255 0.178977 0.410371 -0.106012 0.128263 0.241764 -0.120123
str 0.077494 0.043574 0.676304 -0.112728 -0.198877 0.250668 0.326679 0.645908 0.005386 -0.150252 -0.121061 -0.118423 0.456233 0.294129 0.382697 0.456553 -0.056831 0.333933 0.617850 0.273584
swa 0.483222 0.485483 0.044184 0.161758 -0.309125 0.599796 -0.185734 0.105060 -0.034979 -0.185947 0.287603 -0.234770 0.314669 -0.021847 0.699998 0.304124 -0.011296 -0.629238 0.338170 0.046481
swe -0.236045 0.133941 -0.495293 -0.439384 0.798284 -1.037611 -0.333909 0.139594 0.918791 0.184267 -1.313646 0.481075 -0.543294 0.730328 -0.843084 -0.503673 -0.622465 -0.666238 0.038431 0.218780
syc 0.357915 -0.725853 -0.447651 0.586344 0.716132 -0.104346 -0.342990 -0.207773 -0.504022 -1.058910 0.214981 0.400239 0.203328 -0.560259 -0.049500 -0.488858 -0.332294 0.309923 0.649784 -0.959681
tam 0.195085 -0.012049 -0.021056 -0.086293 -0.081671 0.156979 0.280169 -0.137957 -0.435929 0.229949 -0.460339 -0.264993 -0.286110 0.211004 -0.111810 -0.205299 -0.219811 0.260684 0.129001 -0.347672
tat 0.942468 0.430154 0.343415 0.079012 -0.221276 0.239288 -0.071338 0.446280 -0.209690 -0.645449 0.357165 -0.138068 0.813189 -0.377171 0.631017 0.000143 -0.058273 -0.251109 0.593696 0.255091
tel 0.088543 -0.670022 -0.144422 -0.754154 -0.508326 0.139606 0.297992 -0.262771 0.097583 -0.799298 0.080504 -0.781719 -0.342664 0.286490 -0.411938 -0.078909 -0.185028 1.136178 0.128858 -0.438899
tfn 0.174147 0.040333 -0.060328 0.095675 0.190706 -0.238203 0.300911 0.182596 0.013955 0.226361 0.177299 -0.364516 -0.033963 -0.094627 0.194069 -0.025312 0.016369 -0.015139 0.293868 -0.166642
tgk 0.989052 -0.605002 0.400342 -0.494650 -0.599025 0.642401 -0.240185 0.286303 0.470669 -0.326989 0.596751 0.178182 -1.120426 0.607779 0.594887 -0.139794 -0.074224 -0.240952 0.092435 -1.159242
tgl 1.019219 -0.823854 -0.681742 -0.960923 -0.189114 0.244147 -0.608688 0.822306 -0.106487 -0.447749 0.350084 0.295093 -1.412920 -1.019059 -0.665269 -2.660102 -2.134986 -0.601639 1.239888 -0.080606
tha -0.325993 0.293910 -0.603273 0.398468 -0.219892 -0.438841 0.168282 0.329983 0.665314 -0.181383 0.070475 -0.176407 -0.495289 -0.999995 0.452979 0.544441 0.255489 0.375648 0.309958 0.374645
tlh -0.076069 -0.447953 0.586999 -0.249083 -0.230768 0.947460 -0.093841 -0.036727 0.718874 -1.666388 0.516341 -1.131076 0.782040 -0.431494 0.869445 -0.867264 -1.131234 0.274557 0.219783 1.114986
tli -0.332924 0.545294 -0.259049 -0.243932 -0.590426 -0.158949 0.259514 0.097294 -0.360613 0.040619 0.337355 0.003841 0.433389 -0.323933 -0.471057 -0.187312 -0.582022 -0.849781 -0.253408 0.136786
tpi -0.168357 0.913957 0.253523 0.396202 -0.260861 0.548720 0.638333 -0.063438 -0.181693 -1.382021 0.045318 -0.344333 0.105596 -0.382642 0.976356 0.072287 -0.700276 -0.546288 0.065567 -0.236869
tpw 0.068274 0.082772 0.074982 -0.045515 -0.116585 0.216790 -0.151640 -0.418459 0.003393 -0.110555 -0.032930 -0.098894 0.077044 0.120990 0.089139 -0.110965 0.016532 -0.057352 0.122123 -0.139523
tsi 0.285291 -0.060628 0.217524 0.056440 -0.118357 -0.010572 0.164192 0.276342 0.021065 -0.279001 0.100677 -0.161069 0.264812 -0.071657 0.324858 0.011036 -0.316731 -0.195644 0.312522 -0.093003
tsn -0.462188 -0.000327 -0.285079 0.044056 0.113788 0.191915 -0.465402 0.120572 0.283296 -0.487656 0.376335 -0.099148 0.009982 -0.226614 0.435049 0.041185 -0.809151 -0.845490 0.672353 0.828151
tso 0.245656 0.081157 0.227129 0.224398 -0.255766 0.009548 0.032871 0.296803 0.089306 -0.093982 -0.126850 0.074424 0.214965 -0.110769 0.133697 -0.208796 0.072080 -0.079178 -0.099297 0.189730
tts 0.189076 -0.142483 0.554499 0.120703 -0.492224 0.276650 -0.272265 0.125889 0.100084 -0.153428 -0.161923 0.077497 0.182065 0.372464 0.166019 0.122528 0.389254 0.065104 0.178790 0.131278
tuk 0.394184 0.284668 0.383520 0.446869 -0.185336 -0.115670 0.078011 0.727060 -0.071064 -0.425101 0.546211 -0.286274 0.564144 0.269069 0.008556 0.043355 -0.230241 -0.004864 -0.133673 -0.453101
tur -0.574721 -0.311995 -0.818616 -0.335758 -0.912830 -0.673668 -2.168880 0.203034 -0.958973 0.370770 0.095507 0.969835 -0.026790 -0.377331 0.519567 -0.748553 -1.558551 0.015867 0.010529 1.118023
tvl 0.028204 0.021561 0.007770 0.020736 -0.008538 -0.017568 -0.046835 0.055640 0.118624 -0.141402 -0.040016 -0.018205 -0.052753 -0.022815 0.109096 0.159824 -0.058053 -0.087354 0.109758 0.051474
twf 1.151128 0.121318 -1.272062 -0.141153 0.244755 -0.188988 -1.115964 -0.439105 0.240797 -0.118991 0.837148 -1.070799 0.882040 0.378712 0.686453 -1.492824 -1.680846 -0.723838 0.705380 -0.889680
tyv 0.024273 0.074961 0.215769 -0.250841 -0.289709 -0.236015 0.142907 0.175407 -0.086278 0.045206 -0.066261 -0.035471 0.241917 0.193040 -0.425260 -0.368402 0.035524 -0.137208 -0.398341 -0.008943
tzl 0.044009 0.232858 -0.187311 0.225470 -0.024766 0.174575 -0.138522 0.313377 0.164501 -0.105872 -0.104511 -0.195184 0.238608 0.133868 0.185220 0.182096 0.030453 -0.069465 0.078911 -0.127519
tzm 0.079924 -0.106519 -0.003033 0.077715 0.013470 0.086248 -0.166365 0.021805 -0.022482 -0.078902 -0.071307 -0.089583 0.059927 0.128728 0.109344 0.136936 0.024831 0.101960 -0.014432 -0.049947
udm 0.254319 -0.159224 0.051920 -0.204761 0.221803 -0.072580 -0.138700 0.502779 0.249676 0.209559 0.357266 -0.092141 -0.062709 -0.230287 0.464839 0.037915 0.131933 0.516973 0.256023 -0.048239
uig 0.195881 0.066498 -0.127315 0.801683 0.272321 -0.145660 -0.633663 -0.139643 -0.017669 -0.308428 0.509935 -0.410256 0.149334 0.126062 0.195508 0.116192 0.224531 -0.074792 0.278813 0.026029
ukr -0.657050 1.503763 0.857902 -1.379796 -0.573649 0.242689 -0.396884 -0.029034 -0.148907 -0.554204 -0.600204 -0.286805 -0.476387 -0.955891 0.115335 -0.419949 -1.120968 0.115647 -1.204926 -0.100047
umb 0.047293 -0.100543 0.080734 -0.006985 -0.039426 0.062880 -0.109777 -0.010743 -0.110209 -0.002336 0.105983 -0.109346 -0.054609 0.071212 0.007649 0.063798 0.074068 0.018544 0.057034 -0.087453
unk -0.793397 0.751960 0.783027 1.240982 0.041042 0.858243 2.026969 -0.128408 0.380421 -1.400750 -0.097418 -0.445604 0.346660 -0.778630 1.790830 0.949420 -0.646290 -0.512038 0.216264 -0.509477
unknown 0.353006 -0.766533 0.544161 0.522824 -0.270694 0.356711 0.292221 0.605413 0.368859 -0.409249 0.092975 -0.259982 0.735859 -0.126159 0.860587 0.900092 -0.553400 -0.724728 0.464955 -0.143126
unm -0.064237 -0.461716 0.064997 0.255270 1.360264 -0.103268 -0.194151 -0.394090 -0.267733 -0.089446 0.458692 0.269129 1.179971 -0.060767 0.462943 -0.274292 -0.435616 0.154231 -0.257358 -0.131389
urb 0.064375 0.040861 0.053334 0.188444 -0.099284 0.200077 0.023870 0.124899 -0.105168 0.217717 0.155141 -0.187550 0.139832 -0.077989 0.000343 0.207118 -0.071588 0.253544 -0.122879 -0.197101
urd -0.741750 -0.126056 0.833574 0.097874 -0.729839 0.305941 1.179490 0.605213 0.228147 0.441827 0.116294 0.977529 -0.171503 0.080004 0.278462 -0.699849 -0.664420 0.125622 0.531946 -0.101586
uzb 0.211646 0.160259 -0.120707 -0.006673 -0.099190 0.328033 0.071593 -0.078765 0.092547 -0.303443 -0.079364 0.063200 -0.072459 -0.006160 0.708767 -0.083333 0.089309 -0.397865 0.741782 0.355233
vep 0.092837 -0.153563 -0.058360 -0.033244 -0.021915 0.013447 -0.183907 0.194299 0.079482 -0.133951 -0.045162 0.120030 -0.059567 -0.053633 0.135452 0.127727 -0.015186 0.009186 0.391876 -0.068856
vie -0.680262 1.341349 -0.650439 0.131646 -0.074261 1.548386 -1.238627 -0.372040 0.091569 -0.410242 0.970705 0.992702 -0.950021 -1.043088 1.327806 0.348478 -0.128079 -0.314063 0.244186 -1.332007
vol 0.226578 -1.805271 -0.341776 0.088909 0.860693 -0.039892 -0.436004 -0.483992 -2.022375 -1.219527 0.290684 -0.280242 -1.184626 0.683391 0.079911 0.194282 0.444587 1.070375 -1.650666 -0.858701
wiy -0.074031 0.184838 0.363055 0.052551 -0.839390 -0.325248 0.535591 -0.030393 0.007107 -0.471272 -0.077200 0.013338 0.557438 -0.342571 -0.420570 -0.173989 -0.260544 -0.140916 -0.680884 -0.023306
wlm 0.500879 0.455713 -0.218429 0.113616 0.120604 0.122459 0.196533 0.259396 0.132296 0.075578 0.699738 0.052762 -0.087532 -0.293708 0.003262 0.264926 -0.256118 0.304950 0.242640 -0.745379
wln -0.127935 0.570618 0.154722 0.605786 -0.208399 0.243594 0.498736 0.661472 0.024713 -0.928474 -0.651353 0.074081 0.388582 0.424241 -0.000350 0.426969 0.188333 -0.467726 0.057630 0.119606
wol 0.007853 0.156340 -0.037894 -0.006900 -0.083389 -0.293601 0.099011 -0.025997 -0.025283 -0.067243 0.011535 0.057020 0.208407 -0.123482 -0.076998 -0.220498 -0.045081 -0.188932 -0.230871 0.009196
wuu 0.074008 0.236961 -0.166388 -0.045010 -0.168945 0.048145 0.307991 0.207244 -0.009102 -0.047775 0.197522 0.124552 0.139597 -0.361717 0.090925 0.037677 -0.148953 0.034942 -0.152358 -0.104455
xal 0.349769 -0.239583 0.363426 0.382719 -0.443970 -0.243665 0.006161 0.249103 0.121557 -0.831383 0.042796 -0.006194 0.069935 -0.511020 0.550182 -0.424317 0.083383 0.744272 0.666264 -0.139304
xbc 0.051607 -0.008825 0.004055 -0.131095 -0.058675 -0.111989 0.017364 0.028532 -0.062711 0.047213 -0.015934 0.081377 -0.078407 0.093055 -0.023429 -0.075553 0.053220 -0.036362 -0.076418 0.055812
xcl 0.585761 0.329723 0.538801 0.205471 -0.174507 0.468429 -0.427356 -0.720157 0.117558 -0.487501 -0.304419 -0.740659 0.499673 -0.350160 0.965722 -0.578194 0.268262 -0.023552 0.349546 -0.103611
xfa 0.029276 -0.002600 0.201000 -0.005954 0.167732 0.167885 -0.062028 0.368106 -0.048883 -0.003120 0.210782 -0.064713 0.230915 0.163102 0.009389 0.110037 0.307301 0.148474 0.130387 0.085525
xho 0.066000 -0.222239 0.120056 0.205466 -0.232440 -0.078862 0.144884 0.088272 0.225570 -0.404920 -0.353018 0.472217 -0.182844 -0.429656 -0.068430 -0.058009 -0.302185 -0.138129 0.383059 0.173922
yai -0.049319 -0.213464 0.243277 -0.143856 -0.261382 -0.036694 -0.114084 -0.071989 0.022754 -0.008450 -0.122017 -0.048390 -0.061859 0.056986 -0.108322 -0.183860 0.006778 0.076694 -0.082866 0.169765
yid -0.378743 -0.282593 0.116351 -0.035477 0.198067 -0.191458 -0.037344 0.470787 0.117500 0.304302 -0.802374 0.434713 0.209301 0.294330 1.011824 -0.480843 0.315125 -0.099263 0.193615 -0.079172
yox -0.162037 -0.091263 -0.072117 0.143150 0.127170 0.003161 0.342022 -0.038238 0.054293 -0.394549 0.196369 -0.168005 -0.111770 -0.223820 0.126824 0.228267 -0.300097 0.059994 -0.062793 -0.230803
yrk 0.287346 0.102239 -0.070519 0.087643 0.141537 -0.040684 0.151728 0.040946 0.034720 0.042680 -0.092254 -0.097952 0.031023 0.144926 0.169524 -0.012627 0.033413 -0.002566 0.068809 0.106926
yua 0.015798 0.315668 -0.466945 -0.320058 -0.580875 -0.032525 0.425641 0.529614 0.329976 -0.256108 0.221325 0.191368 0.045802 -0.477383 0.105707 -0.159178 -0.636070 -0.566048 -0.138834 0.058663
yue 0.645976 1.373977 0.705183 0.590285 -1.852180 0.538437 1.033047 -1.325488 -1.438959 -1.059642 0.542355 -0.677300 -1.389880 -0.258368 0.418327 -0.433624 -0.117544 -1.179923 -1.534908 0.827305
zha 0.278856 0.939539 0.026502 0.369367 -0.860871 0.746146 0.741199 1.219314 -0.161163 -1.052957 0.924125 -0.021300 0.264963 -0.900565 0.995395 1.360671 -0.584266 0.162714 0.968561 -0.644827
zho 0.145529 0.309929 -0.081333 0.425276 -0.585503 0.038512 0.305865 0.465412 -0.399118 -0.692711 0.257000 0.406990 -0.172245 -0.578094 0.591179 0.691835 -0.700052 0.491687 0.525269 -0.712013
zlm 0.012923 -0.080319 -0.145558 0.203429 0.080617 -0.024321 0.004935 -0.108372 -0.137314 0.286594 0.241557 -0.183044 -0.129606 -0.122597 0.068998 0.378830 -0.035601 0.099050 -0.183066 -0.022652
zpq -0.207882 0.717283 -0.308133 0.341295 -0.172631 0.391608 0.301089 0.880127 0.097086 -0.275759 0.825655 0.141915 0.231517 -0.807788 0.534235 0.965594 -0.405732 0.255708 0.855816 -0.470271
zul -0.162131 0.606476 -0.183266 -0.074210 0.380663 0.376565 0.425413 -0.268752 -0.538645 -0.358004 0.323438 0.378527 0.359196 -0.153306 0.405802 0.798492 -0.169345 -0.260944 0.585222 -0.164069
zza 0.289085 0.117800 0.191887 0.375157 -0.150597 0.502924 0.107098 -0.212069 0.121717 -0.608581 0.101335 -0.300784 0.142859 -0.186091 0.519369 -0.379120 -0.298010 -0.055544 -0.020951 -0.311977
